Filename,i_vector_0,i_vector_1,i_vector_2,i_vector_3,i_vector_4,i_vector_5,i_vector_6,i_vector_7,i_vector_8,i_vector_9,i_vector_10,i_vector_11,i_vector_12
212_class7.wav,-0.18293634901636222,-0.23431173255468699,-0.15237226117362887,-0.0693410356970854,-0.33490442593082625,-0.033492429107843225,-0.3307008664620491,-0.45871870056172614,-0.2715275687452901,-0.4105616132151462,-0.3561328207206506,-0.04622357482593473,-0.2815722441061959
82_class4.wav,-0.20479048585251994,-0.3645047706823402,-0.1914578783003705,-0.2833881579801417,0.0011858101641285131,-0.21042834345678857,-0.06647906426602379,-0.48228625986561224,-0.1996817397088306,-0.21829513926815106,-0.37372754251641527,-0.10235909462189385,-0.43503556199748317
27_class4.wav,-0.23374826754810635,-0.3016719387012934,-0.10754231913212771,-0.3982484690959619,-0.06452915093755444,-0.25482529752939787,-0.10336732409968503,-0.500381640496512,-0.1697443116537607,-0.23409276548581312,-0.2819991921780901,-0.06548879816070367,-0.4319689579037558
198_class1.wav,-0.29788524187551046,-0.2991266881324189,-0.21781539600636726,-0.2724589372818097,-0.2323579194797952,-0.16578461171403713,-0.17196146394834577,-0.41758659118251923,-0.13092944561398848,-0.36447052267116015,-0.2936708587763402,-0.33684613724815615,-0.25494502610228764
17_class9.wav,-0.30961807340783387,0.11602073197852525,0.12481955939475091,-0.4048403461214094,0.04189507764946349,-0.024337533371171817,0.16304524433102657,-0.4813425725825557,-0.2735963751181929,-0.10688850584182139,-0.4257376864977151,-0.42183448025392345,-0.07142294854978229
60_class6.wav,-0.2100097941492551,-0.34468770426834255,-0.1892713283736518,-0.18879816410811223,-0.16607340355869396,-0.3296831954258574,-0.27283296066384216,-0.1730925394303717,-0.3980667241774488,-0.25368325951492326,-0.18753760423120777,-0.441774804929408,-0.2679552382379987
90_class5.wav,-0.25493639394319806,-0.2910026987520028,-0.31704301288929587,-0.35183806491740927,-0.14459646231212386,-0.1577013203011413,-0.15329709286815021,-0.34167786647051446,-0.30401523982066464,-0.34572912092066305,-0.1390605673086692,-0.44832443696586444,-0.08780904681869382
373_class0.wav,-0.33370432253670607,-0.1059946534294488,-0.1226109276972873,0.04598275832797486,-0.31816399399009926,-0.2536904664215863,-0.39985071865051663,-0.5478751186516089,-0.14693620691741816,-0.4564756905337497,-0.04525447191932631,-0.04430043373980231,-0.025553505295632026
71_class1.wav,-0.300921995405937,-0.15508818185162052,-0.06992542457450339,-0.35681602055495265,-0.2315907196115692,-0.2162285061521406,0.059816314587519896,-0.33055572902118335,-0.3974631082994886,-0.13847706851044528,-0.28467104330513626,-0.4704235768715407,-0.24589326079893764
229_class9.wav,-0.21967999904537208,-0.07099163951192877,0.08366344408768643,-0.3272329557774048,0.063183549414206,0.016440368143163794,-0.010047665324194576,-0.6031349229687922,-0.3238961349784052,-0.23605355683517495,-0.49520093394459075,-0.20890129783698128,-0.12243799755406326
132_class9.wav,-0.29352949961068037,-0.28994811726422287,-0.3716436515743937,-0.27784736006262256,-0.20357886847303636,-0.10772246662540147,-0.1889941255345965,-0.2451129885538017,-0.27667657916026156,-0.2561786486331788,-0.12575940723601017,-0.4599189907987199,-0.30997803902521986
162_class2.wav,-0.3021373002762734,-0.4373263528686089,-0.11325315689166761,0.3833429521425358,-0.4192488272191809,-0.24842397978162756,-0.14789116169249877,-0.020411177588198413,-0.29171665331111024,-0.22564811655768816,0.3412656321027486,0.13677969394224548,-0.163467296356607
118_class2.wav,-0.323512065522331,-0.5390464971032803,-0.4345870931939798,0.2715613163417538,-0.15646230231847194,-0.17240613248291345,-0.22894412379389623,0.049222283611127425,-0.12567272938828575,-0.37207892531159853,-0.16993782872591243,0.0869598241682119,-0.2060036832329897
290_class5.wav,-0.22842403326406605,-0.22371554006236782,-0.19299514483900404,-0.33850884707665024,-0.22437440809733605,-0.25838171574365004,-0.07618650687506823,-0.2917432588199469,-0.39696662647014785,-0.11049423747231339,-0.21698838940809617,-0.4704583360929106,-0.31576647631139
243_class11.wav,-0.25049135921411975,-0.24472146314189008,-0.18735170594813672,-0.16270728147838495,-0.32104222448504394,-0.25691563311693033,-0.30522555910360594,-0.40116985315408005,-0.18421927558577395,-0.39726604915722685,-0.3105670479138195,-0.09490211928612474,-0.3088723992392266
65_class9.wav,-0.30951928991560806,-0.1775720208443465,-0.30495531888412475,-0.25376603148986643,-0.0993120095671883,-0.06613849783083882,-0.07783120537382482,-0.3711920776963084,-0.378164392475078,-0.2987079735783052,-0.07404206032675614,-0.5264002666566504,-0.2058601016870311
4_class8.wav,-0.3612985074212413,-0.20597506120680203,-0.14041511986334784,-0.12922496919504142,-0.4859167032156057,-0.32723785626147917,-0.19609068474119637,-0.24372338935391413,-0.21409272751052932,-0.3068486846159458,-0.197202893819464,-0.29146552263126346,-0.2928086687829735
191_class1.wav,-0.24821740941966927,-0.08696240782170489,-0.0980376098179329,-0.34269448593933854,-0.2573314129286274,-0.1863096301368087,0.011080795622400866,-0.32721268992866503,-0.3824230775176719,-0.18096822005856295,-0.2815376658857686,-0.5375719503542691,-0.22002078265907413
236_class10.wav,-0.26236299646811145,-0.23756396587138265,-0.09414293648224593,-0.18256031055190683,-0.14221003095455556,-0.48891913977319207,-0.28605801423779526,-0.25377958034607523,-0.1921146936088375,-0.3072654453762625,-0.28981195603886906,-0.39130088727502915,-0.24209815366185675
376_class1.wav,-0.3587629196626024,-0.4534725232257412,-0.20771552949956557,-0.44070832302750745,-0.10673595965343544,0.03312162118705011,0.05868383551603832,-0.3143519759469412,-0.11295887239643727,-0.35306554737462376,-0.30618596082825367,-0.18106873733854756,-0.22266788929234912
252_class5.wav,-0.28829078324127605,-0.03368849984831528,-0.03449322751053165,-0.3664868893909136,-0.19487429075248613,-0.21694913799877016,0.08478503170248271,-0.25837778285074536,-0.46072705500895006,-0.13807712280204193,-0.29931673909188394,-0.5220039581201289,-0.16687490775439615
338_class11.wav,-0.27172153707916247,-0.2430094328334487,-0.1929963638550077,-0.19144271447427072,-0.2639054437845955,-0.3075065321273618,-0.26512580110889583,-0.36615276503785776,-0.18640803193466504,-0.36073461349048824,-0.33193391583526066,-0.16231039046284357,-0.3510666903343448
12_class9.wav,-0.2617747164476177,-0.4654612387908812,-0.2374341194804997,-0.19796697127808877,-0.32331914222530783,-0.31706043447371973,-0.04325625451240217,-0.1498653262941124,-0.41144328468763264,0.03176327300264684,0.013448198196372003,-0.3526937548022725,-0.3082084084612699
36_class0.wav,-0.5046024239545449,-0.19968292452611802,0.23757820811964445,0.2404053646183998,-0.3565826629908837,-0.1585989735710735,-0.1132310894973409,-0.3247871869630692,-0.3890142191375971,-0.3262544002337952,0.04992373024902099,0.014600200398454326,0.24530106321995618
18_class6.wav,-0.21165515457604114,-0.28986609205440167,-0.3197664929275857,-0.22737111075157865,-0.17978571192386128,-0.2033618938897207,-0.22242782786194376,-0.37239746663575884,-0.28716756416752554,-0.30393771932904784,-0.3276603228725193,-0.30491945523265107,-0.28322787618318324
170_class2.wav,-0.05587133609797677,0.06055377694414138,-0.33905412670267554,-0.19428482478226652,-0.07289892366007,-0.31563346847388235,-0.34587788532366537,-0.5128766320107117,0.0978745459084811,-0.4319951707749558,0.029605606523894604,-0.2508936666256347,-0.3047478810675922
179_class13.wav,-0.20298341896385927,-0.25258496353302323,-0.15874294798448219,-0.10289950996301687,-0.3954087333300437,-0.05669514259396139,-0.38715298924206515,-0.49604663076595895,-0.20595794422690056,-0.4173290102984757,-0.2536811750212537,0.028771534686118316,-0.14810373115269795
237_class3.wav,-0.26275114025888796,-0.23379024102740817,-0.08801178812303613,0.016473596390562104,-0.43428344673047653,-0.07117548163539339,-0.3627719860756633,-0.4478814460104396,-0.19980261863332535,-0.29891168443362404,-0.4238593024301544,0.09460041941858847,-0.1566585883381453
70_class1.wav,-0.22172334747973363,-0.24150413966315745,-0.21899689934210717,-0.29236442750880987,-0.26122448136401444,-0.19863583512158506,-0.18064742567453432,-0.37677936512352983,-0.12718682948115778,-0.33367992025062304,-0.3143865548126183,-0.40287629885196724,-0.2968506416942967
309_class12.wav,-0.27207908408261655,-0.010511335972030128,-0.11980188927833552,-0.22062543732363166,-0.11677866018113904,-0.47096017569932086,-0.19433566165945626,-0.4033630727347949,-0.039548589132083097,-0.3903931086392383,-0.32293996104649736,-0.40954979790646945,-0.03055194860470304
388_class10.wav,-0.23322704179348114,-0.23432625666162663,-0.22351301570474616,-0.19192398156675503,-0.3085078549475912,-0.2287842722937296,-0.3279529669016316,-0.3147483300956892,-0.26236090392248995,-0.36210506037826823,-0.29690227118521867,-0.20773735420558312,-0.34424611005579975
75_class4.wav,-0.26252158550523186,-0.25180839729679655,-0.12416388130538952,-0.5458459772159011,-0.0699891530513098,-0.12690021217165823,-0.08005619180186567,-0.4573755333945707,-0.17456398018866018,-0.17106417848255925,-0.16626457607743622,0.006395874648271175,-0.4798818368445032
272_class7.wav,0.019901599529160954,-0.18493327014028263,-0.22108583364991524,-0.361396163531968,-0.2319863488647687,-0.3106963640590751,-0.36936361489400693,-0.5310855050827912,-0.01204483340786081,-0.3322445657369093,-0.12550079557914604,-0.23613919611841505,-0.18719666009673236
140_class9.wav,-0.27046217349667967,-0.42810857787892415,-0.2125408554623324,-0.28462058178680466,-0.26078754984634867,-0.2852426410245446,-0.14220061778211493,-0.3052550125378369,-0.33496057490906106,-0.12867460881436932,-0.15231810087548966,-0.2648714355834419,-0.36400851048666405
382_class10.wav,-0.017005209693258555,-0.36392654246078143,0.041803421969484354,-0.07028753612846896,-0.0896746880417954,-0.30107015582849095,-0.3803749171208186,-0.04924390038342288,-0.4985242364701443,-0.3352774933172231,-0.116396220503202,-0.47842006888223776,-0.10683795522611064
182_class3.wav,-0.3258443421911056,-0.07206854032496451,-0.013020040511996133,-0.16421220156929558,-0.24967937528093556,-0.09487714940349792,-0.22787851947688775,-0.540617925302905,-0.3413254908037536,-0.2956270898354756,-0.4216606991927758,-0.19159316087218856,-0.16599531736511658
340_class14.wav,-0.27643682329550295,-0.28753045749717054,-0.09808110998431781,0.06878155426685696,-0.4225415883452054,-0.15376234247159712,-0.38795621651494616,-0.4068800149821243,-0.16876644615517608,-0.285527464910042,-0.4022880315310442,0.1399506949325815,-0.1299329986397337
221_class11.wav,-0.26790225967159714,-0.30079902136603526,-0.17405467159692029,-0.23496815552448155,-0.21447585857929488,-0.2706758443737987,-0.23401895105035087,-0.38363277153737757,-0.20890711148082264,-0.3324206380167726,-0.34897186587079704,-0.13308670825519092,-0.37067490987867135
134_class4.wav,-0.23672968691493848,-0.26389221686155445,-0.3180191642834036,-0.2859007100961928,-0.3053193820909305,-0.1417024683182877,-0.08499722588567649,-0.16431189981104682,-0.40489754418705304,-0.2882678939806978,-0.3653929472626097,-0.19231920373025374,-0.35550389993768045
199_class13.wav,-0.3436171642882801,-0.16015110594140133,0.04468448805926813,-0.45196557094382184,-0.015693260825365197,0.21624499221544152,-0.04107418016158013,-0.4088265563814075,-0.20783684529673155,-0.6080885652788836,-0.10447895194495219,-0.0574886424726182,-0.08358359533801768
20_class2.wav,-0.06760583422945035,-0.21657421823400697,-0.11031373885020077,-0.1598932607331436,-0.09659700141886862,-0.39950488100847786,-0.03878559794461111,-0.45972164823167455,-0.42897723687734673,-0.4192409160132219,-0.08992647628708383,-0.37015747537544125,0.15530258575354602
333_class0.wav,-0.2808099243410185,-0.3470648412252195,0.07707161143857612,0.3897486168212076,0.15734976072278622,-0.34474715252702043,-0.3502805629786445,-0.3998401121271359,0.025101193819028873,-0.22901545829227446,-0.08680362246436377,-0.3427320771633059,0.1964467731322326
240_class13.wav,-0.18278802716137538,-0.30132546824550177,-0.15629988797321268,-0.2320448578910888,-0.2552533936789541,-0.2841679140856957,-0.2075276928763638,-0.3839760258942676,-0.341688598908913,-0.3396445386701822,-0.1618469541526536,-0.3577361761501439,-0.2735450210450413
359_class13.wav,-0.3067431498080512,-0.21170818050315263,-0.18753375308134027,-0.19909562526665536,-0.24129086538408756,-0.19408305345907362,-0.29756962464097314,-0.48503065637207865,-0.24697915324921696,-0.4840266195588034,-0.1184648214008014,-0.17171479255348873,-0.16669739904645658
2_class3.wav,-0.2526531414494677,0.13679221687559037,0.14717678225144573,-0.36459192180564187,-0.05844969679692005,-0.09203744821656644,0.08445500531124107,-0.39782603843693093,-0.42741472911334494,-0.11847613507290056,-0.42518715252714806,-0.4358315508719361,-0.13463781219744667
116_class6.wav,-0.201529501937544,-0.36433737044938513,-0.21759703073547432,-0.1998965250234119,-0.11989758997891183,-0.30753626129524436,-0.19413917808799258,-0.37395773958018746,-0.28941965766065014,-0.28119266193433323,-0.3286028252759717,-0.3096019100989774,-0.29356846800070285
274_class8.wav,-0.16108408282648842,-0.29074360148642736,-0.23985895708143157,-0.24047784781923043,-0.09007579049482223,-0.2423998137117089,-0.24243417939160627,-0.4366152469572832,-0.24109939003169736,-0.2981367195921107,-0.31856281115924406,-0.3562890190692686,-0.28712556439870884
21_class13.wav,-0.3989066382040213,0.055041349647168634,-0.09994579008597694,-0.21476254783685836,-0.12177528820896473,-0.36197009075996184,-0.24890968954748424,-0.4804097891316343,-0.11495644663025453,-0.483843433211171,-0.00516890810502848,-0.13575853466259483,-0.27812607684475893
228_class6.wav,-0.21824171341933893,-0.2601557399874217,-0.32173989247808943,-0.23168499444751395,-0.19642097251150106,-0.1456159622111032,-0.2690431785663638,-0.4091459994870177,-0.1305292619372695,-0.22893852592728844,-0.3798643846443773,-0.4398153710200847,-0.14401359139555012
281_class7.wav,0.03147021637195852,-0.20812257293954275,-0.2387393209549084,-0.39112013557744585,-0.2510062433280812,-0.3075605639293135,-0.3466244902849753,-0.5003169508186057,-0.04446441278937779,-0.31690635852716237,-0.10879968084613229,-0.2602657079128478,-0.18888525545211493
273_class5.wav,-0.22248849602033116,-0.1460681787857103,-0.16571187978270813,-0.33548905533828904,-0.2095187803282216,-0.24359276753763706,-0.06657699771125125,-0.28308637490343314,-0.43318554575156737,-0.14135341456780962,-0.2555912763359979,-0.5149411981027427,-0.2514395196548143
203_class9.wav,0.07433297045766289,-0.24725317166938265,-0.005828894508726778,-0.14222814047739019,0.37983176957211967,0.22753110389725828,-0.013166810505090845,-0.577150520813264,-0.24746245448926332,-0.42473444667620597,-0.20544183655852002,0.13972334296500913,0.2835366225085933
79_class7.wav,-0.18864363245961152,-0.14300892088378184,-0.17881203156241038,-0.11573872592727968,-0.23415809583236064,-0.15843494108718215,-0.28759177490321375,-0.3690614848273231,-0.23436737982163852,-0.39869617372283234,-0.45531588957977226,-0.15404513646475174,-0.3934674181623396
353_class5.wav,-0.2787610903701522,-0.23723338725365228,-0.2869969330627569,-0.3564721491695358,-0.16843233315983078,-0.12552729438278146,-0.08653363975807224,-0.36806170186364867,-0.3184212462042535,-0.3719784115988111,-0.14551804414142877,-0.38778881778907354,-0.24119122074967178
250_class2.wav,-0.11599397824257723,-0.07871242234998523,-0.09346718558575988,-0.22583714820672168,-0.09906615718814377,-0.40447337973715,-0.14543902098435194,-0.5192580423152909,-0.3073445292179597,-0.5246827764969657,0.027172748337320977,-0.2916585900277477,-0.02934638914458089
149_class2.wav,-0.41795827730193374,-0.07834307852557809,-0.24082832456791115,-0.272628267532974,-0.1917664062585684,-0.2891056235879097,-0.28641153978866735,-0.34069769201952355,-0.22057856886918364,-0.3207835360955284,-0.14042745270943613,-0.4305529422355206,-0.10831987381010903
370_class5.wav,-0.3351639790530063,-0.2895264221633545,-0.22163503923823297,-0.41226970347391073,-0.023903086642922306,-0.11473236437989445,-0.06315704560593101,-0.44721008234318615,-0.23408336704554186,-0.3396235587391132,-0.27422771440372185,-0.3182772201118571,-0.1427942690744129
247_class3.wav,-0.3137600468352841,-0.11851043652671682,-0.07491744930820453,-0.2104913877907878,-0.27982107663410405,-0.18930761745141075,-0.15980456645065083,-0.4403643493177426,-0.35828227705300697,-0.355662801605511,-0.3177376853891505,-0.33543303241778566,-0.1888396618491339
23_class3.wav,-0.2483653196488377,0.029189275274572025,0.054672602497857554,-0.3424980323028445,-0.11031189142887246,-0.11018719287034949,-0.018854356276542375,-0.48970117617417214,-0.367453914341051,-0.15404012450248067,-0.45993978496755045,-0.37527307192964926,-0.20388912579247864
47_class8.wav,-0.36575547168898387,-0.4813252601666514,-0.19090121801568968,-0.28825642206271435,-0.28318585030748694,-0.1240489099914747,-0.023137413674049076,-0.35913120801889925,-0.31226983614834747,-0.22640712145325403,-0.057232781026728304,-0.19939811752340542,-0.313230156397691
352_class11.wav,-0.2819478664424625,-0.35711496814055427,-0.19353785085222786,-0.045656330993561776,-0.4138573012342993,-0.1480934721932689,-0.33516858107211234,-0.3975247752147273,-0.2561175585987579,-0.26684290515506176,-0.32331941275319265,-0.00634110451446172,-0.22018728574533677
189_class7.wav,-0.22949041409444507,-0.030268889541706947,-0.19876497269432084,-0.05823589490739976,-0.11069499919024602,-0.24477037540073526,-0.2952063558854987,-0.347537265851394,-0.11495115911962828,-0.4678846179664292,-0.47393908537400753,-0.08496582949683079,-0.39932056492103635
168_class12.wav,-0.1678397764766575,-0.07141708211310943,-0.44583469137329595,-0.003119392590156388,-0.22908133529917735,-0.09827529065760296,-0.26016409283373626,-0.5925306908589226,-0.30847206788447895,-0.34441591992041015,0.10209568755009116,-0.04181414120357192,-0.24715895097315543
374_class0.wav,-0.03733831657077862,-0.3841092824071881,0.25193989129248723,0.275100537507166,-0.06055691238163513,-0.09547157975198306,-0.3039823251331881,-0.5130066728014145,-0.0870207753206834,-0.5043114429341952,-0.1173862717890342,-0.09899268468282804,0.2409711538262923
216_class13.wav,-0.25892173333953583,-0.2826576533118033,-0.07146542632325487,-0.21653884526725933,-0.2428074265759011,-0.19832892187704235,-0.20350821925967952,-0.37563839490191137,-0.335851894195886,-0.4875389569300743,-0.19014644763045885,-0.29725171422869884,-0.2127280403651764
169_class4.wav,-0.2162103275005192,-0.37975109092784115,-0.2685330239001649,-0.21123588096192839,-0.04157282331513815,-0.19747883877917471,-0.09544182968174748,-0.4107328652762474,-0.22864469586013364,-0.24248528807887867,-0.41251405240914146,-0.1374702716082807,-0.41669097557394896
288_class14.wav,-0.18721055434571005,-0.28130289050829743,-0.19656565134609638,-0.10480067039525445,-0.3976462087336632,-0.0033854798116211217,-0.3571038523892054,-0.46029086020040494,-0.3168040216122354,-0.36428426690753857,-0.2395062745707009,-0.014759585702645342,-0.21914820100765023
325_class12.wav,-0.27836808554535086,-0.2282578057213857,-0.26060499060251946,-0.31179580194055706,-0.2609360336736347,-0.2008420724706032,-0.12117921498884877,-0.34316741041023346,-0.25323489587101794,-0.35003779593422135,-0.2819738343026173,-0.3683571157987973,-0.25010796733723634
175_class8.wav,-0.19725921250254297,-0.3129235149890205,-0.23799277206239838,-0.22679048975641827,-0.07852865147383005,-0.2805043828250536,-0.1712676351078194,-0.452613133392608,-0.22228509661055523,-0.3046156630680223,-0.3628025279672935,-0.28711219169425595,-0.2824748316755968
223_class0.wav,-0.27045945390007164,-0.12301241689159594,-0.47956998015024505,-0.03311703626821057,-0.04460536878783239,-0.11937760543349135,-0.20157135848267818,-0.5720541414145337,-0.16659021023196455,-0.3836756542454325,-0.049159058105341345,0.06956585372374702,-0.33808666559974393
32_class1.wav,-0.24139086492467343,-0.11428384963660937,-0.13706165670719578,-0.3441732961854395,-0.2272179358951542,-0.18546428660839404,-0.04412898374141073,-0.3385919535430738,-0.4011238612860715,-0.20364243040271324,-0.2821799806860808,-0.5023526535337164,-0.23336088944201724
186_class6.wav,-0.2285073561333013,-0.24251912187368177,-0.24075532766280383,-0.24904680824014253,-0.2668157135223375,-0.24286613600606996,-0.21799987071610039,-0.37477291097985704,-0.26942274367766683,-0.30265109683441366,-0.2123545811399904,-0.45860611476869045,-0.1767139551031718
15_class8.wav,-0.22011127472719708,-0.2994487678801779,-0.2549703963953816,-0.251094292085272,-0.07798184121990132,-0.26643387231997634,-0.1651154248466384,-0.4776622970137247,-0.14944866856587632,-0.26049180925480514,-0.38997687780234347,-0.3203654573317852,-0.2375369182047081
276_class10.wav,-0.23585231570587742,-0.2608114042702201,-0.2171286978685831,-0.25855476754153206,-0.27548788093119564,-0.20677388894278614,-0.27624799235338054,-0.35947402688180596,-0.2628800814009528,-0.3281087866889283,-0.2889544538775718,-0.17200719290991037,-0.38513588566056073
96_class12.wav,-0.2572004117299094,-0.20889499993265576,-0.2446223457630168,-0.2819200170089822,-0.23429403769941237,-0.1866323715175053,-0.17070655820966607,-0.389407976191088,-0.27263481988915295,-0.3291470579739617,-0.3294955147075914,-0.34774511713454415,-0.2612005140560412
7_class3.wav,-0.23539195988295447,0.09709635820784096,0.09692318438427804,-0.3614558956659995,-0.08072366078092254,-0.10521310557624595,0.06371382134336481,-0.40248777764494087,-0.42936064677976465,-0.1486759386903544,-0.42189102787510807,-0.4458587142881917,-0.16804568672506226
339_class10.wav,-0.2302060617676946,-0.26211902425811306,-0.23994294272645866,-0.2647809399148553,-0.26796611783659374,-0.20565447113914348,-0.27039308792783945,-0.3793820786245389,-0.25948367057543553,-0.32056806766100365,-0.2878168091467773,-0.20961260288735356,-0.35014685310100613
55_class6.wav,-0.2286999569691594,-0.2920679632008167,-0.26349717123824157,-0.22573847329900792,-0.19927217287721763,-0.2752782550079171,-0.268287435458275,-0.2370151716325616,-0.3499136773692179,-0.2807780418308059,-0.21408958515521462,-0.37590706150522013,-0.3315807609890756
16_class6.wav,-0.16757740085408956,-0.23979855604901204,-0.28478414530093643,-0.2763858903236239,-0.24090149601726768,-0.20288865835120562,-0.2750809590171785,-0.3490171328071978,-0.3304904363749215,-0.36249674684944094,-0.18155366741486018,-0.32226610394857164,-0.28774723293137106
152_class8.wav,-0.26092749609650845,-0.41472925213109224,-0.16362780036868357,-0.20351482470177723,-0.34624618615509295,-0.1878585656032772,-0.07837257055405238,-0.2894007527716863,-0.4322411787231806,-0.22549987172315777,-0.04450570204170484,-0.3274085600173964,-0.31589884337412605
210_class12.wav,-0.3199399478118774,-0.4047268894304037,0.012854425685973732,0.020937870993661612,-0.02929693382920354,-0.3515776138702312,-0.2551415955348579,-0.47979637200869846,-0.17704294030816312,-0.35520722384507847,-0.2115104348576478,-0.3301417252204267,0.047089546860428246
286_class7.wav,-0.16665868790069166,-0.28906692294359443,-0.07671239210956997,-0.1418350569519245,-0.26872420961682186,-0.07294722181520918,-0.15396103285669013,-0.21431214856831202,-0.4415761906722418,-0.38258119086704295,-0.41047661530035007,-0.09471166312441869,-0.44348199066289934
248_class3.wav,-0.1926090457905184,-0.15900360925915683,-0.10517950534030243,-0.11466054076046972,-0.40190933737706364,-0.009085480682901777,-0.31273725297987526,-0.43868396186345426,-0.3067649926150224,-0.409357398827632,-0.3543363137714178,-0.09083079297179067,-0.25703165887759394
330_class1.wav,0.03048090172923597,-0.34617197618798434,0.045216724075400956,-0.0511506185668797,-0.09908031311017836,-0.294600364785105,-0.3758553373564034,-0.08120979583526171,-0.5251054150114001,-0.352247645447869,-0.09091039925458543,-0.4652761960278858,-0.07446912648134303
59_class9.wav,-0.28521131028725943,-0.37370661027118995,-0.19308302257950646,-0.28490214281230736,-0.2722405211459462,-0.27782010532625784,-0.1072542629666094,-0.33486438570669297,-0.37680434769837995,-0.1414719199574468,-0.15810122304087906,-0.331303480833439,-0.2980893047386898
188_class14.wav,-0.22823078387234877,-0.2828871449709388,-0.13232705475689377,0.039333873513468405,-0.4332345766267717,-0.030247769842609892,-0.40599916260985935,-0.452477197127993,-0.2027110465045721,-0.3107374661418622,-0.34551233075291715,0.13973720432226933,-0.11872283410319627
39_class1.wav,-0.30879706121143213,-0.057048619746208944,-0.03953667963639206,-0.36888464242294333,-0.17619877110372983,-0.20534420526245367,0.08328642004435129,-0.29319347616014013,-0.4297903784054134,-0.1754949311088945,-0.3202006750377708,-0.4883211560837964,-0.20281825788526583
197_class1.wav,-0.0065470573544514805,-0.3344904158114939,-0.009186273683527106,-0.07855122485479162,-0.1580054120906551,-0.297925160137182,-0.36898206080368984,-0.133036538165498,-0.5075066898167764,-0.3712870332296556,-0.12189192751956708,-0.4417629653264576,-0.09390293639419492
316_class14.wav,-0.2264271918525595,-0.3103979423007653,-0.21743971356831623,-0.1886635346227896,-0.18581907621951216,-0.1665755269484858,-0.2213979753261794,-0.47471390463713514,-0.26311261273291897,-0.3401402515403517,-0.3705609857688056,-0.1220781220010454,-0.3093885035521621
387_class7.wav,-0.1691111051553348,-0.30901011181115867,-0.10288435299985273,-0.13433802642203777,-0.2413842506205861,-0.08259848386564082,-0.14471614214835185,-0.24245713202414895,-0.4272830419946947,-0.3732496426860377,-0.41326487842102044,-0.09710755910149678,-0.447617436335652
14_class2.wav,-0.11604490951942528,-0.23316199104691063,0.39049237367966094,-0.26762444896807086,0.04940336592594779,0.3642700969337673,0.23529708181266165,-0.47307801362992036,-0.17953684545415508,-0.41831703158822814,0.21791286602950918,0.1895873294282184,0.05575854275678419
72_class11.wav,-0.2665902907114714,-0.21776021972620926,-0.20648944473088665,-0.1902589483429976,-0.326222388183346,-0.24819870582027637,-0.31242739336703074,-0.3196056172503125,-0.21090679840931123,-0.3620574755504389,-0.31116496024800816,-0.12854182621126917,-0.3820700822849671
318_class3.wav,-0.32474510199986945,0.16593106770610688,0.10112658834990797,-0.25703787401928135,0.026491220991052347,-0.08667040149862988,-0.07098839744748757,-0.5117891940238619,-0.4006879502420583,-0.17878258741757505,-0.39048999001802337,-0.4041362014913598,-0.08490477180364646
123_class8.wav,-0.30388093194992905,-0.4237767889946708,-0.29357432396089894,-0.4056125368547455,-0.27029897850392404,-0.06928067760815876,-0.00020401910831332272,-0.33858613175012303,-0.20759226729734154,-0.24093564659857514,-0.018375177827738755,-0.3052291971215865,-0.30035511162145256
129_class1.wav,-0.3049293998674693,-0.15041483681760254,-0.09115953700355575,-0.3556571223415411,-0.22204184439022023,-0.23079596605770683,0.05554765405295087,-0.28839005043399496,-0.41355298070412405,-0.1437600656389687,-0.2781687201713441,-0.48477657643792876,-0.23809341899215192
269_class13.wav,-0.30605583764620975,-0.24431011651871717,-0.06887742536223669,-0.152801142358781,-0.2446092251174514,-0.4209392032323081,-0.2371183943070721,-0.29312457145596743,-0.2514280430815434,-0.36818830305944966,-0.20842469638001612,-0.3832485197906169,-0.22423313737665435
317_class11.wav,-0.26469978784157927,-0.2519902157566057,-0.1706632694992219,-0.08019279608873413,-0.37894897761898105,-0.20615018049291067,-0.35541356115407824,-0.35614340576900333,-0.19733727411267132,-0.37204259655050886,-0.3562146449570736,-0.03275946186997071,-0.29377069096831515
103_class4.wav,-0.21250782970563734,-0.3412042462518415,-0.1472488403450261,-0.33493834131723127,-0.007157098445363836,-0.2554741490761372,-0.06669612595774634,-0.5073901538744622,-0.17691868342365688,-0.22896235654894034,-0.33398167072026974,-0.098163823472005,-0.4152576199647814
163_class5.wav,-0.25091071835013545,-0.26455540956764517,-0.33863850678492896,-0.31068249100822276,-0.13864570292182948,-0.14191046806522664,-0.16326151783205273,-0.3502631875940424,-0.30693384385396183,-0.372729313562422,-0.1373733719447984,-0.45238867107107256,-0.10243184949395003
105_class10.wav,-0.22843025589265503,-0.29732571306900263,-0.22722941752997786,-0.2811766746116231,-0.24390614989017065,-0.19329271930476702,-0.23906094788727153,-0.37112503531935087,-0.2927105388282425,-0.29906081532962775,-0.26895870742634215,-0.19099357541768935,-0.39122005458579256
326_class2.wav,-0.3530550606720079,-0.34983744162147734,-0.2794173541534995,0.14993485278449967,-0.40041913388318323,-0.36492576013592265,-0.21635531104688938,-0.2147881338520219,-0.18739639531727584,-0.36090815855190705,0.12818976862098488,0.018051429681844294,-0.2895357243237959
303_class4.wav,-0.25226909081095605,-0.27180066890635557,-0.07555799593208411,-0.5301668397659892,-0.05781456750422815,-0.13425027863483185,-0.1313730011523455,-0.42407628445923307,-0.14584858920804214,-0.1289002541585364,-0.21377423177646088,0.07386205455283594,-0.5178720688495331
289_class11.wav,-0.2767898637159097,-0.3266345101179878,-0.1225093691585673,-0.10769899690112555,-0.28427627612510464,-0.17483535903858136,-0.2847441192957926,-0.481820158034035,-0.1661554067801753,-0.2914367648818906,-0.4240901442177592,0.05952944916786458,-0.2637046713879164
6_class14.wav,-0.2453057139714391,-0.25352508210688396,-0.18025952153119582,-0.21920915430221533,-0.16179938404711977,-0.3907482485738343,-0.20082595244383894,-0.446743117199403,-0.1196685656618432,-0.3580611332196931,-0.3432945986123336,-0.19750862520484644,-0.2772022752877507
190_class7.wav,-0.060579823387408464,-0.4713759917934729,-0.1794440220631682,-0.37296684764969656,-0.33859256980529984,-0.31280129145776703,-0.2014282413377344,-0.3290038350486462,-0.23245884310379739,-0.1635994662598759,-0.20818999492534365,-0.2835624195824871,-0.19227916638267709
41_class3.wav,-0.2801897643905752,-0.06580743771841704,-0.0661654280499471,-0.2787602079115665,-0.1817761407494073,-0.02811091326227914,-0.16761228143117388,-0.5511917022243906,-0.3175981690753888,-0.3520687814907188,-0.31222139285104933,-0.32740878643196136,-0.19959776031531085
73_class4.wav,-0.2020291027861551,-0.3183751409930668,-0.10483994681060803,-0.47538376313177944,-0.010588260668522196,-0.10094144146981619,-0.03954170445796209,-0.4967434657610584,-0.20408621773759253,-0.12325817671253617,-0.23356434568352027,0.008117183989797893,-0.5007589408520986
336_class11.wav,-0.26718945094969937,-0.24173695735125236,-0.2011446417773034,-0.19384637016360876,-0.29681844661830314,-0.2241508890817401,-0.2898978355932854,-0.3148098955740012,-0.2367620929930287,-0.3456060965281121,-0.3322614296620149,-0.1408024242790194,-0.4061080876917803
332_class13.wav,-0.29372131137542024,-0.32868141480776547,-0.17284026527493174,-0.0785866710646111,-0.27820538453250016,-0.248229042299509,-0.2481413844820021,-0.362894954887823,-0.3267718944552903,-0.46863403321541963,-0.14412337697735214,-0.1729087114211099,-0.24555490193588095
270_class7.wav,-0.1718303457722337,-0.2581082933085825,-0.1470678796637446,-0.11637825658749594,-0.3199606667197584,-0.037726681407042634,-0.29343399100250456,-0.40467319585502887,-0.33050400503843924,-0.37384158497890596,-0.38453925747850504,-0.13403958203187086,-0.3165313096767542
62_class14.wav,-0.1717661253951624,-0.26596473564628154,-0.1456482139892096,-0.10463823280503629,-0.28171282368273354,-0.07169340484700079,-0.28284930739840497,-0.38039199203492985,-0.3525577460704453,-0.46543628569320833,-0.3466329942076661,-0.04668128085940298,-0.30843356321970905
346_class10.wav,-0.2268049654328088,-0.24074855768733266,-0.2071633904349452,-0.22515553477817113,-0.2870190017781073,-0.22035896430637777,-0.32198718105803686,-0.35030520497824724,-0.26738294239607585,-0.35790711892484645,-0.2791901851124782,-0.20873793107548425,-0.34431187246743516
64_class4.wav,-0.1991543405522915,-0.37339767070051916,-0.23536229328869107,-0.2311742288774824,-0.004909071694620532,-0.21562576812664394,-0.0731001892403542,-0.4562009436599296,-0.20741405132815466,-0.23706642902948927,-0.4047942330264867,-0.14443573855452296,-0.41006359421760397
386_class7.wav,-0.1497283000826867,-0.26342561051585917,-0.14429885275531432,-0.058703442180163136,-0.3267418793151088,-0.03939676788654662,-0.30010329822010584,-0.3483192782032114,-0.32978129071676765,-0.39163257813664615,-0.41303913250589697,-0.12551839229849593,-0.34019331696600447
327_class1.wav,-0.2536117762594079,-0.27068290916213944,-0.2071115985943233,-0.28573052429240736,-0.2957671832671044,-0.16579043634661872,-0.17471517210513954,-0.38939030988910034,-0.11309168247133855,-0.3460529841194586,-0.2966800996858169,-0.37629292810910075,-0.2803603695383035
205_class7.wav,-0.09570819690951349,-0.22304127461073586,-0.17282978174608118,-0.13603485064300236,-0.2496889019116089,-0.05163312237054292,-0.29787617939935523,-0.3017055599594076,-0.31028212723943543,-0.3812279492421627,-0.4204694423802196,-0.2507831171698344,-0.40823210920796876
214_class9.wav,-0.3062828427279578,-0.38136171033868455,-0.17269318070055356,-0.22681555046673213,-0.2937713462262801,-0.3370079839118438,-0.11392768672392599,-0.2737739020750538,-0.3596417143740558,-0.13576484532159638,-0.14183409156182153,-0.40413083580466963,-0.24589690376250384
310_class11.wav,-0.30451093577001404,-0.21213455108913923,-0.17728145674166423,-0.20115744746125483,-0.3221402474917738,-0.26891024401425734,-0.2755927829773772,-0.3577273317922581,-0.203091416551325,-0.38507060137369425,-0.3106224473696077,-0.20074675430201142,-0.28993214488051133
249_class3.wav,-0.3035868596500288,0.14797607429797388,0.17758214694481822,-0.31577276833193085,-0.02150002249602984,-0.05598015093057771,0.06740819053049,-0.44816865209739176,-0.39970733253706603,-0.07860062113255892,-0.45489857586521776,-0.40527708236139764,-0.09256872945456772
259_class0.wav,-0.08930833661245101,-0.04674194364686679,-0.4090719309798064,0.20593853680508611,-0.3054736127330111,-0.08077761264067296,-0.24268986539248638,-0.5466895378482253,-0.3325337098635991,-0.3535662735127556,0.12164083414964298,0.08831941459935307,-0.2535687761387649
159_class4.wav,-0.20708581218260164,-0.35256459477187785,-0.17573932899877687,-0.37243753017667686,-0.019383429558496534,-0.13857724666837512,-0.059574808206673616,-0.4763988752866111,-0.21812693565827782,-0.1756223016247802,-0.31509658001666385,-0.05253972813928908,-0.4823550557663095
304_class13.wav,-0.4341773566174731,0.09289598825584869,-0.036428853262920606,-0.25016452444728177,-0.011894456671140254,-0.5473734674994902,-0.17246687759417054,-0.3264803258291349,-0.03661365425534463,-0.37282462065931793,-0.17611490608283825,-0.32139276234650016,-0.16795554293078235
13_class1.wav,0.00992807431657263,-0.3381710580422236,0.005122684506288403,-0.08834241364462535,-0.10468060788001098,-0.26025855878373605,-0.40121859727998604,-0.14475093556366914,-0.47154303994558844,-0.33593830939173963,-0.13292753646246697,-0.5105084699831466,-0.05994487091523999
381_class12.wav,-0.2241302713345819,-0.1806619323430675,-0.2551336718676773,-0.26393844811429457,-0.2497393966421708,-0.22042007676662556,-0.32076631589105853,-0.4872914720360422,-0.10009354738787071,-0.31153863554610206,-0.30190272625525566,-0.3202032229787562,-0.17412928633793986
364_class8.wav,-0.2654793733915205,-0.3698648738552798,-0.20892754175409364,-0.294365086730055,-0.276338605721882,-0.12385565730803542,-0.113562866727711,-0.35779062212623014,-0.40462127881426685,-0.26387942971616984,-0.12108355242055294,-0.28738631755578414,-0.31496412125919004
219_class10.wav,0.02067256334686698,-0.36683918317023084,0.09140695462897838,-0.03807857919669528,-0.048918147910885494,-0.3050263402043536,-0.3822032640272527,0.007429639418467712,-0.5171159208368217,-0.3376096685409437,-0.08134697904683452,-0.4675453068682542,-0.08380186411530866
225_class12.wav,-0.31760954092217125,-0.38135764425535085,0.015323629999271253,0.04000598344249711,-0.03493648708811165,-0.3965917008591677,-0.2600821966048989,-0.4900659209242915,-0.12115765244131056,-0.32393414331263987,-0.2746375014373475,-0.298094511426841,0.04054309171354606
172_class13.wav,-0.19106399944030356,-0.22881496440106186,-0.2286890591790733,-0.15731424443933437,-0.25190866633213493,-0.09888224107622146,-0.27112478587801775,-0.5497130504972463,-0.25492469816562296,-0.4705973964611449,-0.18022093681575715,-0.07241328121643288,-0.24696408860457267
128_class10.wav,-0.0009215340814637502,-0.36466133336732015,0.0984972341994317,-0.052053987543432385,-0.0729657911227894,-0.30653865592617274,-0.3791671833224194,0.007786506383842679,-0.49831362248127153,-0.34156604314930245,-0.08564337729324986,-0.4820094381388192,-0.08270361784046011
206_class6.wav,-0.17290273661845906,-0.33725617563927696,-0.15799781661481588,-0.16956841309335416,-0.2209210766906414,-0.3098455772759975,-0.3087336973111359,-0.2631366721986064,-0.3765389969226625,-0.30740330587190573,-0.21887388063229446,-0.39573343596146204,-0.22910524714365338
287_class4.wav,-0.3591939864859485,-0.147514389087022,-0.3699976588982256,-0.25632916132533823,-0.30918281270024456,-0.3600574786873543,-0.042310000420068945,-0.2318101153651785,-0.18343106934864256,-0.41208872249422845,-0.21008068527865068,-0.26013857622106473,-0.22491057695186611
369_class1.wav,-0.23949523619006055,-0.03156144385927232,-0.11161508777713841,-0.3378973784499626,-0.18061180320812034,-0.1727132011454149,-0.08664949868798213,-0.40396033226501327,-0.34139430480741695,-0.22207467766666744,-0.4155760826848362,-0.4399233852923626,-0.22308626740331974
230_class8.wav,-0.4104422139484549,-0.17099666544433914,-0.08607491091775724,-0.1126401490458821,-0.5368805952143515,-0.3506277152715461,-0.11521785782313708,-0.2193878447909152,-0.18351078583700078,-0.2991007335540538,-0.1561142284968679,-0.2817847907582581,-0.2875797429216439
40_class14.wav,-0.2753482743387752,-0.27461701293072954,-0.08934399966961097,0.08428647544028031,-0.4314301895052915,-0.13724563826644964,-0.3971010180377891,-0.4054712950450948,-0.14627411179333025,-0.2965790707518091,-0.3991532837337817,0.16825050859643037,-0.09813695526797864
264_class3.wav,-0.26361402672377615,-0.14423591380878964,-0.07852207568980255,-0.1345668129266394,-0.39104214878500726,-0.09579410504258735,-0.3112995891965158,-0.4548682888240184,-0.29903915796276687,-0.3564113854734638,-0.391324046708726,-0.09730877367209895,-0.20117066092047228
9_class8.wav,-0.20553915188897326,-0.30638534921451316,-0.27718529000586145,-0.21933574735804298,-0.09522493614267952,-0.22481951385696217,-0.17721584765387655,-0.4368684507869685,-0.23644548195396714,-0.3021615963367984,-0.36397932412675754,-0.2867700672530151,-0.3084551854556108
121_class11.wav,-0.2732357256782496,-0.1907689626145733,-0.2128496047961917,-0.19208272132798046,-0.368691638022384,-0.23158643386757308,-0.3523400847645577,-0.30471201591794017,-0.15736710285924374,-0.401084886676758,-0.2751854356078646,-0.10194594092947466,-0.3583803517494751
76_class6.wav,-0.21164936921161584,-0.25767032725802347,-0.3212600904021022,-0.22428090052779093,-0.22393699954981325,-0.14526214198701853,-0.250343511647345,-0.4352889744977926,-0.12078237925778401,-0.25176627526141676,-0.33532269656173835,-0.4375270743608888,-0.17337085108125078
292_class2.wav,-0.08986434451142132,-0.034120393202567184,0.1476256602711416,-0.48124260109776335,-0.14938787106252055,0.37889015654650005,0.036384265414398584,-0.2944907179901726,-0.05537906926836895,-0.6926697248763409,0.0017459749943609373,0.013579875016138351,-0.02009195519194955
46_class3.wav,-0.24815626583856637,-0.1363102660219645,-0.05122839821055452,-0.17345248209097894,-0.35189467352532144,-0.045547143136746335,-0.23523556068093932,-0.46195396151890494,-0.3701241101272205,-0.3614277889701235,-0.4118085958862059,-0.1275975548961242,-0.19747625807044492
265_class5.wav,-0.21108875501151403,-0.3736830233005567,-0.2528941718207618,-0.22641261392852938,-0.18983582470813337,-0.26003684607650296,-0.1503363489777618,-0.3504295984071871,-0.3660208363772376,-0.21364542486130048,-0.2344576913153956,-0.3173662719616431,-0.34090805061150103
154_class10.wav,-0.04993536830813991,-0.3768630413539737,0.012756110875252377,-0.11255643134049059,-0.10612583297532766,-0.2925283447484976,-0.36392776121689846,-0.10397048147272785,-0.4861004773912383,-0.3509234328944972,-0.1455469006257419,-0.4412492233052538,-0.1650288760213794
208_class9.wav,-0.190779221125232,-0.3294023910159479,-0.08502367041586256,-0.28592458911655616,-0.03905127248745577,0.010864961781868975,-0.09413736604572787,-0.5071705036452189,-0.26609064179414155,-0.5283511093157459,-0.33809799670522667,-0.15771041863081037,-0.09615970970107965
33_class13.wav,-0.25210166573377374,-0.17272920175459405,-0.37761098401863624,-0.0004965978195360551,-0.19164299207744154,-0.2670609404192236,-0.34596090505281,-0.4358295447723172,-0.21449782798544037,-0.4693304820593228,-0.011741111632590916,-0.10379531190902366,-0.26294944157764
297_class4.wav,-0.20234971976974536,-0.33450702403171634,-0.26806647437755504,-0.17661659309152297,-0.39122742726838367,-0.14179784580381605,-0.054461546869317395,-0.07366321671120601,-0.4512759110735043,-0.28168930067581877,-0.390383384841706,-0.14471139175852588,-0.3258977501321371
284_class9.wav,-0.2607168956325764,-0.4230256513708747,-0.11227956213737897,-0.15201429112690718,-0.2544275892496187,-0.43190419198788405,-0.19996674354060487,-0.40050021190599827,-0.2762426441414037,-0.19565400957934395,-0.1967689299767326,-0.27929194924133127,-0.18543654365954762
218_class1.wav,-0.42864360145235914,-0.45894056703167685,-0.22887717084277928,-0.48330428960532396,-0.06635239950540542,0.017081632115394912,0.1470712092429044,-0.3375273296845496,-0.02832051947583508,-0.2465918225325501,-0.17360564047483684,-0.19669016441066434,-0.22132745715525384
176_class13.wav,-0.40718167657558696,-0.009009296640463812,0.05392243395630124,-0.30964398255460535,-0.14370926390842195,-0.08658751995081596,-0.23298343821535825,-0.5172506620234831,-0.11002862453593132,-0.5316030810349343,-0.01970098325495077,0.10563520819288268,-0.28124819838375115
366_class8.wav,-0.4116471093488986,-0.17550672258468364,-0.07405011595358113,-0.11037400401553739,-0.5418438045903095,-0.3482310029171454,-0.08772077738173994,-0.21671860837324838,-0.20060142203737294,-0.2877167919171201,-0.14857068889041455,-0.28501311602145923,-0.29364803509594917
255_class3.wav,-0.2395398848650515,0.13273486688726452,0.15733749886408543,-0.30296043188364175,0.05175861582982889,-0.07233536721763417,0.03696452714625903,-0.5304515326679603,-0.3327912920600957,-0.04705313579986997,-0.5323989063740936,-0.3275469748687774,-0.11876769123636917
350_class5.wav,-0.3043971951401091,-0.2720656726664425,-0.19361101015741428,-0.42711164753699943,0.001253991430825134,-0.09712266564330882,-0.06697026755264449,-0.42151091631300835,-0.31837339391099656,-0.36791577490558547,-0.25047945648344616,-0.33670183616412735,-0.09481803982813289
50_class13.wav,-0.354490737990492,-0.02389338281998333,-0.11612487116433373,-0.15143002973179306,-0.17028896153991033,-0.14073845355912423,-0.30694354728128526,-0.5381962423459409,-0.12285942896650763,-0.561985370290891,-0.013961672326752857,0.04909825829428357,-0.26673327714169226
34_class14.wav,-0.2716628796487616,-0.2755546778170251,-0.08654208060509888,0.07405505612965606,-0.4343708785081004,-0.13886166211726042,-0.3940593101951027,-0.38544298038999075,-0.18259353314068807,-0.3024616711734472,-0.40507142703655963,0.14460345857606702,-0.12517620304042038
66_class13.wav,-0.1516127220406563,-0.11975380163405701,-0.25625920196102153,-0.12466058073964521,-0.2242141750545963,-0.02955344994188039,-0.29428733264948437,-0.6278781774235842,-0.19311523001008735,-0.5113695529559699,-0.04592048086041252,0.06812327757959198,-0.2096195237212003
298_class1.wav,-0.28537078362589696,0.05660000614726417,0.039543708143018365,-0.3638831009051453,-0.12193461665160993,-0.16416129942725544,0.12866543250680873,-0.2521723258717561,-0.4560021781817163,-0.16229158275034553,-0.3637031557916979,-0.5268051463139218,-0.12386480008346472
351_class14.wav,-0.22731525905959468,-0.26368870038797265,-0.13736811889080824,0.030563555678196193,-0.3710388152386344,-0.06356381374425255,-0.3910114893699681,-0.44777841419018044,-0.21196071389712287,-0.3503302398012874,-0.3918096700271589,0.11005482788404677,-0.17493071078371902
384_class8.wav,-0.3719312146731152,-0.19840670143066982,-0.2511207770760103,-0.3335141366544002,0.23932984676927432,-0.26120516785669556,0.013551026912061162,-0.2252325223012394,0.20922010864981333,-0.30988550504090573,-0.37551350572802683,0.010054734090569638,-0.43666328319394165
67_class3.wav,-0.2534777985808572,0.06479551948277767,0.13126945450417288,-0.31581013206056524,-0.0790990131406506,-0.10181172710774132,0.0581378711359161,-0.36705525894741736,-0.45792977563096715,-0.14462880301157088,-0.4670877319957104,-0.4397321929173996,-0.13303555655213797
53_class2.wav,-0.019907454936936745,-0.03520633022635458,-0.26485606970146286,-0.18849031763189683,-0.1805700955297737,-0.3218836336325916,-0.155455152962757,-0.5641574199225845,0.03181737822003901,-0.4218810994942361,-0.26248818940262675,-0.3919673304458726,-0.11179397405369312
81_class5.wav,-0.21081008589539793,-0.37974584656560945,-0.24668958907437277,-0.24781741418387987,-0.15183136765644925,-0.2774881066892287,-0.15313056347929235,-0.4010409805993389,-0.3189503761546264,-0.22413817828792357,-0.23280737884148092,-0.3091069484249142,-0.32098921757202437
93_class6.wav,-0.11476357503776986,-0.23346508499936938,-0.26864695480744966,-0.26630268321690326,-0.17979782018577278,-0.09171506800094252,-0.33369844281343675,-0.4284382247065563,-0.24955752878766288,-0.30229582147345957,-0.24840694649459985,-0.47455367469271253,-0.11407573125389683
375_class5.wav,-0.41822116694067923,-0.33793959258727146,-0.1667989968714535,-0.5143597900445124,0.1082521557216979,-0.04387314578357245,0.09295729540031386,-0.4194354425444092,-0.15099014712238032,-0.22166152022190705,-0.2870080583947293,-0.20481682661542144,-0.15502917409123904
37_class0.wav,-0.3925128324616142,-0.01708189172790539,-0.07165984103828339,-0.16127536041210802,-0.1366009711764234,-0.5108977047139355,-0.20142816276359252,-0.3376132224330347,-0.1927286552144041,-0.3982007535059799,-0.20675730171759807,-0.3403792415367811,-0.16108986123852348
77_class2.wav,-0.37839120043018404,-0.2978518982752873,0.00847557345427975,0.3551754035952886,-0.3385327462125512,-0.36416669444195765,-0.3144837188825814,-0.14223825463837328,-0.19651175502745516,-0.17506297548604977,0.42087424957335823,-0.03619307174892003,-0.16679455535482718
377_class0.wav,-0.36781200232001565,-0.11770200973491915,-0.09168046560743866,-0.12057503315405631,-0.20125564618523623,-0.4659920737630758,-0.2353237440028899,-0.35983261982884146,-0.2335099646036111,-0.4129968475027238,-0.23055746071563601,-0.27920782055237575,-0.17088196329078031
372_class14.wav,-0.22396818593455328,-0.32462542875334754,-0.2385459055608701,-0.12322433777425905,-0.1459218428825483,-0.2636887173273046,-0.19732680691034307,-0.40169567368544856,-0.1908123409049024,-0.33085075773616396,-0.4443852296374221,-0.19826272176723161,-0.31398738327913145
126_class14.wav,-0.23269959623185868,-0.27237413152536455,-0.21452881973523594,-0.23246270108080033,-0.2505157602784803,-0.20422580686860944,-0.2585565411910901,-0.4313851292833139,-0.23275750578055135,-0.35541279150785887,-0.30271062163276,-0.12021032133222703,-0.35722852172153907
181_class6.wav,-0.2568349867228905,-0.29746371633647956,-0.3143060481333056,-0.2345849612931833,-0.2367654541722829,-0.21073266079669092,-0.23487227669043467,-0.3399873356611688,-0.24914520236213808,-0.27203563355049337,-0.34562052129928533,-0.28993585819768136,-0.2844594124358502
61_class7.wav,-0.12806088178660927,-0.19199746436679863,-0.2510459563517262,-0.2098686362576165,-0.26305661794182705,-0.22238131854198398,-0.3985259719408491,-0.5571225571221567,0.04255597768671197,-0.30366911687077663,-0.30315596876510315,-0.22122458120618735,-0.13014583357398762
57_class13.wav,-0.1575280273283113,-0.2814523050085436,-0.21548770816107088,-0.22557361326427458,-0.3106451793168089,-0.044892904856972955,-0.27980039379236704,-0.4641315032492816,-0.295277023138199,-0.433063683979554,-0.2348446244454626,-0.13127470455067686,-0.24353907236139505
321_class1.wav,-0.2817662912275836,-0.263355240126553,-0.2175735828350322,-0.2925761725510992,-0.2576364224306735,-0.14103752604738848,-0.19046703645923996,-0.3606581680229635,-0.1766128686395667,-0.3707014768549509,-0.28581255424892543,-0.40253976933966057,-0.2309844269639503
156_class7.wav,-0.22495371313753135,-0.01417525139418885,-0.21958624237557534,-0.06334063742275745,-0.09917872617780922,-0.2635448076664648,-0.2851647845804183,-0.343928507072651,-0.1163708551294788,-0.46811973253868666,-0.4477751862132634,-0.11265249639462696,-0.4149641129539457
74_class14.wav,-0.1731989084503237,-0.2777379302829746,-0.12276710524260234,-0.041832761611323634,-0.3347799299060836,-0.039262572457681444,-0.30313264032361065,-0.3820891173378714,-0.34810014442830856,-0.4268308980128492,-0.3727908226546898,-0.0018504705356150817,-0.286717017444598
145_class1.wav,-0.28827770093638727,-0.38455057438517326,-0.10435680705312374,-0.3611323101469567,-0.19470652555780346,0.04697984076519105,0.05184016803061207,-0.2412792808338193,-0.15981891329408446,-0.45375080143159313,-0.4339249915504138,-0.29055677454862744,-0.15014356790678252
117_class3.wav,-0.19265975234179433,-0.044821692220886146,0.16842615226214158,-0.13443142880261866,-0.30389014238025736,-0.07318482823113123,-0.07821999395954382,-0.5663772555080728,-0.37076046278337055,-0.28381081692747356,-0.40269610394001215,-0.2275128214687435,-0.24060158053886005
311_class0.wav,-0.16237754864795206,-0.18066073974297284,-0.3088130219154697,0.01953495789895414,-0.35706224475846515,-0.13144952268498844,-0.3131710632375438,-0.5493890359620369,-0.3040804797041483,-0.35689536293988516,-0.1276516785951449,0.016122322412258628,-0.2533321176677171
35_class13.wav,-0.40971382908626774,0.024532872370911327,0.1765918045326724,-0.4094182486054834,-0.04612498653275064,0.10550482496550025,-0.12881928440282886,-0.41159896280231983,-0.14421945026638108,-0.577643400007735,-0.0603213402638227,0.05117046042921276,-0.2696843052577769
242_class14.wav,-0.2755187738374017,-0.27825908132225907,-0.08955696886234295,0.06573164878948537,-0.4164488712952182,-0.1504956932652302,-0.3888130931653509,-0.40798799332846347,-0.1760043073346426,-0.29643279283618057,-0.40915459040934044,0.14062479971739597,-0.12074360592344553
63_class11.wav,-0.23280612840687923,-0.3266966335165519,-0.12957090083131045,-0.25183353705342637,-0.08995358621546548,-0.32662389330684616,-0.13475539213246077,-0.49936016403037253,-0.15208179620039974,-0.3059996204590761,-0.368454405057881,-0.10277290790050433,-0.33687075170663666
173_class7.wav,-0.13714384783686323,-0.2543008845834493,-0.14533816218198373,-0.08542294115461709,-0.3172210771129818,-0.02707663600343701,-0.2896236866746719,-0.3258784077927356,-0.348834686931147,-0.4021405660643892,-0.4017403901238629,-0.13752442093312303,-0.36462365696329935
52_class11.wav,-0.23994233578690857,-0.3889333308372866,-0.14578370220538428,-0.17661451993996125,-0.09080385772489986,-0.19544847843905527,-0.14195409152869254,-0.40648617035192874,-0.2325298986270745,-0.2579794346853863,-0.4507673108132786,-0.10612372373370045,-0.414497995621903
260_class8.wav,-0.33479983311297207,-0.17926996433452863,-0.1679529751686967,-0.11062637103157777,-0.49249367601754407,-0.290344849090615,-0.2631186864521815,-0.24276797718681656,-0.19928745244620139,-0.3558805436332413,-0.2209974875167348,-0.20926823885641765,-0.31828844506045106
267_class13.wav,-0.2787754268229454,-0.31085510592198734,-0.07743861574985547,-0.3138231147328499,-0.16463213190914017,-0.025543674018957362,-0.17082115548218657,-0.4198747240033804,-0.33830145011690327,-0.5275992693337634,-0.1914465610849881,-0.19415908889899328,-0.144161059615411
192_class2.wav,-0.18448112391943097,-0.1816440817489551,-0.3962985733663626,-0.08124434784503828,-0.19089703782118386,-0.32149288484102106,-0.27043863556021797,-0.43923813634828246,-0.018962019428456916,-0.4810594651273331,-0.09332939831689484,-0.2347247328395717,-0.2605159210665066
275_class2.wav,-0.15982335915156493,-0.2143275036061273,0.12179924649514683,-0.06939427395176184,-0.4295263019833534,-0.44043871847782307,-0.2135565066317361,-0.23625787607187607,-0.04646839147033714,-0.4998314594575867,-0.36788199937129606,-0.11390792982880532,-0.16930250380346762
244_class0.wav,-0.2850191638819365,-0.20608377366720249,-0.0828961189187201,-0.09432162482227541,-0.30049776126752203,-0.399628985047585,-0.19421964801442393,-0.3759013880690968,-0.26949798738524056,-0.38618851351249783,-0.2587020254823769,-0.2670196004688104,-0.26740030921682734
299_class13.wav,-0.2997815210973657,-0.23409918894201426,0.03267616666229341,-0.4354689768892029,0.013818731464714636,0.3846741775793034,0.060656459213066886,-0.36732456531595364,-0.28494527541022663,-0.5082645907192539,-0.1946499217644602,0.017737513618350194,-0.011225394881679491
28_class6.wav,-0.19918760412799352,-0.356098004401778,-0.2111517675169944,-0.20193727574790146,-0.15874568204655226,-0.2694942889133499,-0.2718770578232286,-0.28026819328208,-0.3355262438092615,-0.28002544855764366,-0.2885788055807551,-0.3870019901608103,-0.271697699209485
360_class10.wav,-0.22970840634179118,-0.2808814053002389,-0.09502770235167944,-0.2108744895030583,-0.09670670974311606,-0.46575302802526786,-0.23966584524339588,-0.3319698357590873,-0.20926973509591204,-0.31452145478566385,-0.29704456863923956,-0.3693885817303309,-0.2313409648169768
166_class0.wav,-0.5238121616091505,-0.21168350919447657,0.15687289363565032,0.21496045733399535,-0.35767792476058774,-0.2793944237290557,-0.12849679592103952,-0.2819354653254055,-0.38281364026040315,-0.3606048977564223,0.015892735178068124,-0.0449570900256688,0.17071654529682603
25_class1.wav,-0.11809654656705208,-0.33215737698927245,-0.16832022911826885,-0.16724088030532178,-0.2409099892733776,-0.279915101793135,-0.3372078166330667,-0.22605505993921451,-0.40534390077115007,-0.35047186511695655,-0.22961978114570913,-0.3677352334008559,-0.20768902294050037
142_class14.wav,-0.23146287267976104,-0.3134049736167253,-0.2199785382568785,-0.1970656480625577,-0.11549567477235301,-0.2852545616902315,-0.17400311047807807,-0.43206331068067344,-0.17471148269896195,-0.31907198920221086,-0.4068924263089583,-0.1879537969718116,-0.3407235221268831
133_class1.wav,-0.3628628101006584,-0.4180213340424277,-0.22547918930297056,-0.420338926219686,-0.2137700963771412,0.018005848700108535,0.058465256162799885,-0.35924159749659473,-0.10752761439556398,-0.3264403984453383,-0.1928660845570672,-0.2748941894663714,-0.23807315643496846
257_class2.wav,-0.2183112599843017,0.08066650668597972,0.02765194881986246,-0.2656713599773519,-0.2508633355165262,-0.1273558843374989,-0.10500489637145118,-0.6098741337624894,-0.15786477278196398,-0.5039287989255876,0.18225408685680936,-0.29899688672248814,-0.10431478170983
94_class10.wav,-0.011049935222056129,-0.3694740119159244,0.08152256409515361,-0.06516270066588753,-0.08069375568940464,-0.3068392698689943,-0.37958136233871137,-0.009225624856621943,-0.49266819991145255,-0.3455056288719796,-0.09758441778962403,-0.4758440783370101,-0.09797655145881355
207_class9.wav,-0.2532419935758696,0.10964699603771033,0.1364107088408457,-0.4418080237855376,0.11164097858162968,0.025810360884511867,0.1904729576533121,-0.390906800585662,-0.3273992499384727,-0.21472639756991355,-0.286543221805246,-0.5008571270350396,0.14684442813725912
231_class8.wav,-0.4206838535525472,-0.1747467779959464,-0.06796570183585368,-0.1264328078118024,-0.5337479989105975,-0.35623876226631807,-0.07939934141871577,-0.21908815554915312,-0.18505655061160486,-0.27192927235850883,-0.13949519288006004,-0.31229580984356803,-0.28391578372652704
150_class6.wav,-0.21092508437721808,-0.35668932709208523,-0.31845708423757935,-0.1527381725985383,-0.12585836790435784,-0.224539855380132,-0.1629031113305201,-0.3562066479502764,-0.28752163252311536,-0.287301914836303,-0.3787421738110961,-0.26165123278715113,-0.32671442027992564
320_class4.wav,-0.22781082395771798,-0.327767962527405,-0.17905814792699462,-0.260948007854735,-0.04614325394045416,-0.31524094687881005,-0.1113394153041406,-0.47893941677772334,-0.16596545789893313,-0.27289769802530683,-0.3724626703517036,-0.15245159700470545,-0.36502274755294667
268_class10.wav,-0.2577560662073335,-0.26328078269223976,-0.12952736928329708,-0.22770596703434612,-0.10817162935690804,-0.4497753411941646,-0.22212162759004567,-0.3624708231884609,-0.16412043318083372,-0.2979403061924342,-0.3186780671745504,-0.3525494560145497,-0.24360797781638593
130_class14.wav,-0.14396272948721503,-0.2800730265792438,-0.19143639324210568,-0.16316606517602075,-0.22932232199160316,-0.0812961251566793,-0.24082724810673678,-0.38888609181538275,-0.3841731999758013,-0.4635625298316504,-0.29607311862452373,-0.11942687320359774,-0.32362554811500643
98_class9.wav,-0.27243350806934696,-0.40809056356381557,-0.25761527200053747,-0.23155551155693851,-0.3494435925290513,-0.21317899970580878,-0.17661383324760507,-0.2869231681331207,-0.3587834587488546,-0.18522094508254036,-0.12521225124635585,-0.2648085661020978,-0.3306825943672592
1_class11.wav,-0.23982701818641164,-0.289464253662551,-0.2228115426110164,-0.142363971317594,-0.31748742562206383,-0.11714204978154996,-0.3119046088194225,-0.4196516680799575,-0.30257800814300134,-0.36963673536148073,-0.2989419953738793,-0.12049193222311592,-0.26229571307912575
262_class14.wav,-0.23208783711284917,-0.3243336926194139,-0.19904525686827468,-0.08326336677662073,-0.4027606015597265,-0.06864997052453956,-0.354474431230461,-0.4459979913376016,-0.2959231504396548,-0.3125645191832751,-0.2756386532351841,-0.013596166346234876,-0.20363502978925202
227_class7.wav,-0.2503686580025949,-0.450530935125154,-0.2521624845798003,-0.28256290929780714,-0.21109727334936393,-0.2671699643469516,-0.06615319912037523,-0.3152504680192689,-0.3481876269768998,-0.07993561453425693,-0.1672134339669575,-0.22781712714013896,-0.4046275340011322
26_class5.wav,-0.277740599744088,-0.1977453469046382,-0.23276631154988905,-0.36409285184675816,-0.18434880756925445,-0.1378248292239588,-0.07412597810616108,-0.35424391401179567,-0.34172811533168485,-0.3580443731161097,-0.20756778665232029,-0.4119645317461256,-0.23510967531069685
92_class5.wav,-0.27325363779799,-0.21697733182284734,-0.2691009048712179,-0.3375738159257974,-0.16876686565903112,-0.12195658870283543,-0.08916840148325719,-0.35209940496208875,-0.34584168494123735,-0.37083873246541366,-0.18027711149265663,-0.41973995394687763,-0.22537068803825494
343_class3.wav,-0.36529449819366905,0.28833078410605306,0.13507847686429136,-0.41820514362730915,0.16860826623071534,-0.0004283605976905475,-0.05358515235211408,-0.41332851160026013,-0.41976628713193115,-0.04363811791323165,-0.2966268628092946,-0.31664707792772273,-0.14758693919757412
22_class8.wav,-0.34601151898887017,-0.11524685997965921,-0.2613276914645252,-0.2852561410251627,0.2301957336163604,-0.32792206339734925,-0.042419130752418405,-0.20579693041991856,0.19540068402623414,-0.3353262516617332,-0.37601618898230477,-0.016719831113093744,-0.46942879919157277
86_class7.wav,-0.2196014358920398,-0.31213487294523057,-0.19540119957238977,-0.16279492249584482,-0.20009254354277048,-0.2606450547868006,-0.28107270723219563,-0.5367906895067643,-0.09294680658613094,-0.2999373029715791,-0.39689415676031004,-0.14369130040455605,-0.1943465388212375
308_class4.wav,-0.20364586305243662,-0.3332740861414446,-0.13270421732061977,-0.43165065383669887,-0.012486526060459479,-0.11759376948827244,-0.04650363558003685,-0.49282004646429073,-0.21012446217270947,-0.14703571991801057,-0.27088565800518316,-0.01805337472214152,-0.49500393822090144
114_class0.wav,-0.46287843959806585,-0.2496339054211861,0.14738801547270733,0.2319211526153916,-0.4331105875576627,-0.1191949138338581,-0.19786164381819854,-0.348421714657273,-0.370076962462827,-0.32720908094030987,-0.04098897753417093,0.056779944584043084,0.19144160003681066
45_class11.wav,-0.18893325134543004,-0.23646281362472582,-0.1695925543529617,-0.08650941273730084,-0.3737732174342128,-0.0993251103004356,-0.3245692534123454,-0.3019724059848832,-0.32356826309883113,-0.42272269207335855,-0.3412947139483826,-0.0759147866105207,-0.34699220395647695
385_class12.wav,-0.2487715867095311,-0.22418815528624117,-0.26558307427991146,0.04689270842884684,-0.3638517701456742,-0.055048274983269016,-0.2836454149317786,-0.5386245261962878,-0.36321845484963733,-0.3893694423018495,-0.08410852307311066,0.011248040440588535,-0.1356192381992237
324_class11.wav,-0.279618671668199,-0.31615389912885905,-0.2041652974221175,-0.056344789941269846,-0.3756415424466495,-0.15581375592734753,-0.35973467662200764,-0.4522832630338148,-0.1753214065949746,-0.2728595989051433,-0.37748098017893095,-0.06551802700702428,-0.16023035098740687
125_class0.wav,-0.3541871293583875,-0.1885736342058852,-0.11672170195626903,-0.13918719298610804,-0.19482713666971177,-0.44554625747798055,-0.19047336284089622,-0.3169014640798936,-0.23231735333421255,-0.3661333107498366,-0.29473062182473037,-0.3282111917802235,-0.2240647922031476
371_class10.wav,-0.004450447147429049,-0.3610813768347682,0.06620150467155968,-0.057545294805075024,-0.08077939025415046,-0.2956722013689468,-0.3857995022112445,-0.031400395836336185,-0.5141767907025996,-0.34333674328900016,-0.09517162670582276,-0.46430430714029836,-0.10600807413878482
331_class8.wav,-0.3739539880273918,-0.21977607172473304,-0.12356883544822572,-0.16261835492299967,-0.4550949142923011,-0.3465008698801755,-0.14255224720876983,-0.274172079424537,-0.20111899707763342,-0.28856543549157543,-0.19792854555018222,-0.3142678702720873,-0.2929476669068404
363_class5.wav,-0.4295334585340654,-0.4229071241458591,-0.22890771498864776,-0.5243929539107245,0.12716618725612722,-4.606126166849058e-05,0.11036689686874597,-0.37270561431942795,-0.10146276082812586,-0.23143904664587944,-0.18166035943661912,-0.1440982448098684,-0.15613704744934714
87_class14.wav,-0.18208245893859407,-0.2887443255577412,-0.19096540112807728,-0.09730495172449535,-0.30629204425030043,-0.03170051495591996,-0.32286450499728553,-0.4621533858109561,-0.3097448665691145,-0.405596722393959,-0.3197551452693099,-0.018961062390022466,-0.24866888934484466
120_class13.wav,-0.31271194313673406,-0.10438380975317693,-0.2637683366505259,-0.22966884292073483,-0.11837635826965248,-0.22303665032369843,-0.26823141191889527,-0.5763367668798102,-0.16786907994517916,-0.4768198196399409,-0.03695577918592158,-0.07603944728341644,-0.1960570929839973
84_class14.wav,-0.2425177756951643,-0.2618569208559509,-0.1808113537418242,-0.2201644901152146,-0.14851786762799593,-0.3878596257336077,-0.19138558332019465,-0.4545697514158605,-0.11494953104561331,-0.35092821637938615,-0.3531453884624392,-0.2011102465764284,-0.2723512108084975
291_class14.wav,-0.22127482460993433,-0.3061323621527324,-0.252753532954435,-0.17221607254874494,-0.1114551192630153,-0.2854476458680753,-0.1858153730083286,-0.43569608025520934,-0.14251632838846526,-0.31530567482390737,-0.4298289686780071,-0.23693811268714787,-0.29136830891844656
285_class2.wav,-0.1368220866052203,-0.09032849555865884,-0.3492673852436066,-0.11817121562339535,-0.16482984995883068,-0.32569316117716074,-0.32119007478003286,-0.48001020268199973,-0.0009601785641372271,-0.4828043935947608,0.029180278943169505,-0.2099706589713046,-0.3038262541221889
293_class14.wav,-0.08445422485747642,-0.22068719373145443,-0.25699142408074455,-0.2512336756772194,-0.241685255900868,0.05985068261999238,-0.27394819190532954,-0.46102528442467516,-0.3872887132268184,-0.4294459162770954,-0.13728178402506758,-0.1765331739654982,-0.2845862094145238
69_class13.wav,-0.16463169904706737,-0.06029044620812152,-0.33815211029139663,-0.23623367782082502,-0.12356432211331617,-0.1276996922458726,-0.2894891043932244,-0.585855472507777,-0.17075285168585028,-0.5053735561688104,0.08019150461516039,-0.07370195524360514,-0.20995407343553518
157_class11.wav,-0.22157262933840055,-0.19009809532954364,-0.23485170188036336,-0.31810289230691247,-0.24632725515492868,-0.16673652931459254,-0.1729718018418319,-0.37790373065306826,-0.30500519508076657,-0.3269606601186146,-0.27135475922226066,-0.3542507251149448,-0.3132992619007829
110_class2.wav,-0.09430836242623564,-0.008229554678868597,-0.2552941721370076,-0.21610832163525492,-0.09534972911160688,-0.32968784723866007,-0.31076582650511164,-0.5098132219072679,-0.07070731392947105,-0.5378369138971424,0.04541192917577968,-0.20895694290630012,-0.2547477204844309
99_class0.wav,-0.460910258807652,-0.3235884072069706,-0.28106659361995445,-0.05140959108660006,-0.0895206233997577,-0.06955985237905365,-0.20658634039764243,-0.5282401315667508,0.013162585384643278,-0.29959899497746395,-0.2567469209517157,0.29273696063160753,-0.15841752190128736
220_class7.wav,-0.21849795666140306,0.1590948713759679,-0.24334874736179007,-0.049367832106075614,0.10788429344049186,-0.2783645298767205,-0.2522080525615751,-0.4609836647764922,-0.07173673289256893,-0.5009317490963769,-0.31873271430643024,-0.10600863686035487,-0.36213788197032093
315_class9.wav,-0.30303853532749336,-0.39206739035328086,-0.19692478187804424,-0.21864167649994778,-0.2974324024074182,-0.3276340555500282,-0.1782286793504733,-0.31174026610308175,-0.3193952088647748,-0.18605049172099314,-0.16666712640711653,-0.2893076375551956,-0.3082284315385271
213_class12.wav,-0.303513385823515,-0.0818115016812327,-0.3504443804363218,-0.22985921881888802,-0.12431425873403336,-0.13956429639881093,-0.22201815708301176,-0.6209855242290853,-0.17945876077846049,-0.4326000429999178,0.07375683631268061,-0.0473215389201667,-0.16930748495085782
193_class6.wav,-0.19294005013834237,-0.24871623873703078,-0.22495991510057442,-0.1742213812329018,-0.2866918084403125,-0.1419858108585865,-0.24494720873886852,-0.28940600051304266,-0.35237245295112407,-0.37302545864656145,-0.3423182287527407,-0.3370677469691388,-0.2823763635043848
329_class2.wav,-0.054571407031781635,-0.21713283034331846,-0.12531137209369825,-0.1810469586614646,-0.09000025073555118,-0.4195390627791932,-0.04575888675360606,-0.44478106723529104,-0.414309993089914,-0.42827831089217855,-0.12644887330939447,-0.3592940829470174,0.13115095474423555
89_class8.wav,-0.3935169944707172,-0.33731838906149997,-0.19448369388471642,-0.3427664726517596,-0.012328344448946134,-0.16254178133488775,-0.014711955719581313,-0.32760860056893676,0.18225025859090555,-0.3726814299949226,-0.3785080221183928,-0.08910094796533258,-0.3444101554578509
144_class12.wav,-0.18541127346212308,-0.2941102814702958,0.13775072739984157,0.0315567475844474,-0.35153336866763124,-0.3620672182767349,-0.1674460154211235,-0.3412543552109552,-0.3129527850154354,-0.40648026487188416,-0.17137873354501854,-0.32959265434943746,-0.24253244819851397
357_class5.wav,-0.24474819957392116,-0.304851536308277,-0.31447202713210815,-0.3636733650926753,-0.1875366606755755,-0.17422941819665078,-0.14442179844944109,-0.3237791931421779,-0.29466453024806405,-0.30220700126945654,-0.15280913205549457,-0.46325076183595965,-0.0932106220556419
68_class11.wav,-0.2769004598133311,-0.4033066896013524,-0.234441593426924,-0.12742437149138414,-0.3786383539015827,-0.21256502304964645,-0.25875961500037065,-0.3657104908590986,-0.29243365052387443,-0.18531474099172965,-0.2766722718439629,-0.217176136719634,-0.23800506548218428
185_class4.wav,-0.28055917525271246,-0.23763984815467815,-0.21660378794148352,-0.4349068392181301,-0.23648421191185726,-0.24031889796551117,-0.16233300012337293,-0.4120256615839169,-0.20492170870304555,-0.2641025738656556,-0.1819445823185195,-0.14151563014920035,-0.39253535794086175
194_class12.wav,-0.26322822211133867,-0.18544516534392358,-0.19264787448019166,-0.3538867509487394,-0.22089324742113509,-0.15044664824483148,-0.03065441381682941,-0.340910481107864,-0.31936797310821075,-0.3348847731198402,-0.3052886240749943,-0.4158476076680163,-0.2551669991364105
51_class3.wav,-0.23562906350377413,-0.14765715239097207,-0.0590748720397582,-0.1373843160962319,-0.36793787681728884,-0.11587902785959327,-0.28013924265668727,-0.4746226016241514,-0.3320963489955285,-0.34173480551894225,-0.40734607250454546,-0.07726000154657742,-0.2208859128103395
111_class1.wav,-0.32012046598149796,-0.10870684574236543,-0.07975955161237538,-0.39006922391460336,-0.2123926581190724,-0.17707684145727454,0.07271672695230072,-0.33493761722798554,-0.33799798350207766,-0.18905131636156583,-0.3071886702337157,-0.48918585281756766,-0.2227142335529527
167_class8.wav,-0.3322834167454991,-0.11466724797983471,-0.23829869874301457,-0.2466097808338666,-0.030262573090662555,-0.21916105550072382,-0.17789339958574293,-0.3966984827203475,0.0386373356126486,-0.48150340383754786,-0.3675086755330462,-0.0937004378285187,-0.379068054222945
256_class9.wav,-0.25106139198105726,-0.36829323290307425,-0.007690621375338716,-0.052176921500717253,-0.28609101570470374,-0.36755935633450854,-0.22750376330563823,-0.32583739164567427,-0.3450474117172933,-0.2658031502835525,-0.17784417412297068,-0.3966431762951187,-0.21214944460640764
266_class4.wav,-0.2047297482005294,-0.3346427383442018,-0.17782381145450454,-0.3757768490556842,-0.05293255136742818,-0.16224517313654477,-0.09985607195782814,-0.47363650782326694,-0.2175869117105253,-0.21937170867822886,-0.2966829597816149,-0.11134821436272169,-0.4625527836213955
307_class8.wav,-0.27710321960027817,-0.4093113667238639,-0.2793903576590344,-0.3369520694784133,-0.3483858408895864,-0.10989926326510355,-0.03763339459633216,-0.31305651232358883,-0.2632420154186235,-0.21336053671995822,-0.016313452598436834,-0.34395556492385587,-0.3127627063681138
108_class4.wav,-0.22257252182401993,-0.277780056116894,-0.019774977220298313,-0.5860630435069841,0.025893767738710265,-0.08834050832758329,-0.05018863242665633,-0.4433291012474513,-0.1323449860982669,-0.0519548524879099,-0.16161412886474483,0.1065513950331393,-0.5140212255658676
379_class10.wav,0.0051127369203963526,-0.37397261778908636,0.06828263262466124,-0.04650442022895232,-0.06170992376552256,-0.30336884152659793,-0.3763710151255163,-0.013661233524865982,-0.5100251269139671,-0.33910033798100314,-0.10197207851899302,-0.4703509493590803,-0.09416811219778784
3_class2.wav,-0.1886288729658717,-0.19937934028504564,0.42810610683638434,-0.21184259631767732,-0.056225978172855455,0.2613249138419752,0.19360860168918015,-0.4340286764343057,-0.29310904782376695,-0.44614268394317363,0.3311276526253196,0.04191602728371929,0.05328193658232007
85_class12.wav,-0.2993957541118575,-0.3954149210796696,-0.005283718918575609,-0.2958403842943647,-0.0461518813402189,0.045865561569138805,-0.14037427937205021,-0.44251575806516574,-0.30093810469498156,-0.47344680209103535,-0.323645969348501,-0.1597949442485822,-0.041282401301575025
235_class13.wav,-0.2399315162313697,-0.15817383563395931,-0.20547431411968253,-0.054764651653972526,-0.2905347496027305,-0.08015264208661749,-0.3526106161200342,-0.5939647305112238,-0.1960820759374798,-0.4479804131694358,-0.15691985120147695,0.09715435969636003,-0.17616574456318485
246_class5.wav,-0.2733914665375562,-0.23880144051952715,-0.29481951539299833,-0.3386312202785656,-0.17468236405794962,-0.11906611442331093,-0.09675571384186503,-0.3598991025308575,-0.32038154046274103,-0.38546114733490966,-0.15544848681966306,-0.3768102631422073,-0.2562943501292592
80_class9.wav,-0.2628384101723606,-0.44995040969310446,-0.23311699358496338,-0.22797881514034057,-0.287653183716986,-0.3076638505140018,-0.07496183355323326,-0.21694108127235284,-0.4046994818115071,-0.03143732781335059,-0.037338346864906065,-0.34758275619916296,-0.3241615602490989
78_class8.wav,-0.17846145699316496,-0.3170331272162179,-0.2534509411252468,-0.21985858401886024,-0.10392540831988997,-0.21498302770817176,-0.2126789176127787,-0.40543146359412124,-0.2827521292504509,-0.3024135313114881,-0.34468287760681254,-0.2937514403867661,-0.3345776985465813
365_class9.wav,-0.25129499642791014,-0.4424035994546458,-0.25031342364915204,-0.23915894105236699,-0.2651701717331143,-0.2976484848336803,-0.09860237387744743,-0.27311277338976825,-0.3776202819775571,-0.06526116143063646,-0.08650355158561744,-0.33073113609279725,-0.33812892485219853
378_class1.wav,-0.2716346276778394,-0.38833800282930997,-0.16910540672370847,-0.3556373142945466,-0.2769929231077897,0.03792505441966876,0.0334483473723907,-0.269991824831494,-0.11099298771620338,-0.4531760384957157,-0.3091024681083471,-0.33433439482158384,-0.20771165480177664
131_class10.wav,-0.23799794112824252,-0.21177918112440422,-0.22149959481380063,-0.16672516395869777,-0.3344545674598053,-0.25050026272431447,-0.36206981736460214,-0.2926646136433252,-0.23788489290587694,-0.3676768793375875,-0.2969285400134096,-0.232186392895342,-0.31054347654336606
58_class2.wav,-0.3721480494462318,-0.25004116396702525,-0.1037301275418972,-0.20222825275795125,-0.20787615954258595,-0.13834632142122918,-0.07385517777491421,-0.5131668058818164,-0.15865388397678404,-0.20969336893542057,-0.12059488077311775,-0.5488894601625479,0.17668319421862488
95_class12.wav,-0.21229567794758286,-0.30693539331325975,-0.20727058134787638,-0.09935908421106714,-0.3305501133520511,-0.19303422414593255,-0.33826354108093265,-0.459460977906599,-0.13545035473265138,-0.36493226642652327,-0.3640129297533959,-0.05277403652662327,-0.2214109657205848
294_class2.wav,-0.08956043387491547,-0.16603873637914204,-0.26937418538052255,-0.1360098429701681,-0.25777572590253034,-0.3236490813028011,-0.17154286065612062,-0.5300409220446163,-0.056009417650312796,-0.39702338690353134,-0.2986050695981422,-0.37410832086277057,-0.04353050485001952
141_class12.wav,-0.34435814519935626,-0.18388502487260083,-0.11375553323781211,-0.1574539397613148,-0.22339607490377453,-0.3884348063600596,-0.30151652085651587,-0.3949596943329625,-0.20735550967618213,-0.38840592149325653,-0.2917440544800747,-0.24712055759695933,-0.14879614526891627
349_class7.wav,-0.17463742682383435,-0.45423876205776437,-0.23692708902937243,-0.3085571581450192,-0.24157279524397135,-0.3176412638389091,-0.1367303070534011,-0.33258712196661677,-0.2879694106834437,-0.1389368524945782,-0.20716024603624517,-0.2883901684330745,-0.3081397493360322
139_class12.wav,-0.3577075786333949,-0.09623456484789959,-0.161135253287343,-0.24652839260176962,-0.09026751514080858,-0.48353442678327985,-0.20607843925326855,-0.2968685906187115,-0.20556616727288796,-0.3410012461305775,-0.22352705378884585,-0.3897725450152106,-0.20751879311912597
358_class12.wav,-0.34283207861577614,-0.10767327673458867,-0.09768505077116788,-0.25905240598259915,-0.11057183860959909,-0.4988408934324164,-0.2167223950748729,-0.3023775296268993,-0.20615031329129607,-0.34093324479946724,-0.2106306000175689,-0.4075052266403309,-0.15998059030059858
202_class10.wav,-0.22773046520840107,-0.2871006493253427,-0.08611050243896706,-0.20342564090240992,-0.08490765637555324,-0.4709302172106908,-0.23847762420058727,-0.325643253771057,-0.21746813648351698,-0.31810679518820145,-0.2975679731732058,-0.3619932296491211,-0.23863201021886477
222_class7.wav,-0.17878288237681486,-0.31526234653746726,-0.09653023320595415,-0.17487610411475676,-0.235805683990711,-0.08688812280318728,-0.137464035058624,-0.25842736145377215,-0.41768760282318224,-0.3595938527478987,-0.39912206772311454,-0.08496172685018753,-0.457847218057767
31_class11.wav,-0.2970231093112192,-0.20007186239503277,-0.211063045143889,-0.3556614055414218,-0.21331814078150654,-0.18870946520277498,-0.12213970694246608,-0.43125536492091054,-0.29528075313255,-0.28635352196491454,-0.24480975181872897,-0.27591397582061217,-0.3368104651227315
151_class10.wav,-0.20427079125704675,-0.2868259148036986,-0.1829403291979285,-0.21166375613701247,-0.24405806022046453,-0.24932626192990706,-0.33585561515390705,-0.3237464339232251,-0.29472002548709164,-0.33158302473515505,-0.28174904529750283,-0.3204953799313822,-0.28193962221226315
323_class6.wav,-0.2184040912913318,-0.3637162767602806,-0.252480668275145,-0.23611299188549933,-0.14806308594206755,-0.2608251765950705,-0.18483708243725136,-0.3563896562378595,-0.31129301957330224,-0.24927270189742998,-0.30281709055769407,-0.2845909913096966,-0.34300591720915874
282_class11.wav,-0.2344711937546024,-0.38253493934143307,-0.12340126902741905,-0.08675235487980414,-0.16763085632844282,-0.16855907853826105,-0.18482764523286863,-0.3851974040755015,-0.25377296878360955,-0.29097707228578884,-0.4942794579917532,-0.04112189065403474,-0.3765823959544875
5_class11.wav,-0.28114652062884904,-0.36546656088115365,-0.22301200121202067,-0.07795156429805956,-0.3936628374857235,-0.1638722041054545,-0.2991409109989481,-0.37316327877997924,-0.2952465762032577,-0.27268940599296604,-0.2963009158475228,-0.10383177932985467,-0.24680773400496653
124_class3.wav,-0.28398768990507717,-0.046591115939354104,-0.012820517631487146,-0.2544019237966384,-0.24535970686343972,-0.17224568185102923,-0.08373848897324185,-0.43965074244306973,-0.4065609913836845,-0.28858242501436493,-0.3673007534138817,-0.37721627351965564,-0.19064907199069553
91_class6.wav,-0.21956320573392293,-0.31881961496043576,-0.31940203504269477,-0.21954478902957225,-0.19192513452135077,-0.20082321911787349,-0.20741753621690678,-0.360818290387582,-0.3042313356935945,-0.28563351262778053,-0.3065568789773069,-0.29609582777274096,-0.30619979325879726
328_class8.wav,-0.4052953687636898,-0.3118740075736521,-0.252966192499824,-0.3690668342925499,0.16836231400874352,-0.2028080124639279,0.04361358069225253,-0.20417642576739692,0.19846552400805725,-0.3344064490150228,-0.38076418856153177,-0.04633734134959123,-0.3561687450089847
174_class4.wav,-0.20506905430584305,-0.3201082928037529,-0.17479588185647782,-0.3719983451940176,-0.03728544706192737,-0.20688038186116534,-0.10062477188038069,-0.5104173825224781,-0.20722472598579528,-0.2367845320305994,-0.2961499610675962,-0.1380037865162996,-0.4073588128942146
113_class3.wav,-0.3104333845871691,-0.07882001120541345,-0.009493337643735337,-0.2656996964896582,-0.21258707093938647,-0.167346797149295,-0.08281791886736481,-0.4878315285082159,-0.34877689629170144,-0.28878705857476733,-0.3723237559499373,-0.36162478535859643,-0.1850802340517821
101_class4.wav,-0.22287630380412113,-0.2838002495000528,-0.05490146074642335,-0.561968203562373,-0.006227342340586291,-0.10870811226790725,-0.08758056385745218,-0.42881815578297994,-0.15018080644011086,-0.06992962063929217,-0.20600026522762055,0.08333076531000348,-0.5203123944633329
155_class5.wav,-0.28623573742467195,-0.006588131669413202,-0.02532054291745815,-0.374286917591049,-0.16989858828171178,-0.2138851198691032,0.09817783969256236,-0.25256123179418877,-0.467406920312245,-0.13466284548547855,-0.31235343706442487,-0.5162176152097224,-0.16913552774679105
302_class11.wav,-0.2742628029723534,-0.2765250877401546,-0.1807896077972708,-0.19934739659526515,-0.229784436049482,-0.290513896898564,-0.2600434974376761,-0.36596709147524775,-0.21368805287840892,-0.3319167369220539,-0.34680571119048237,-0.20539205368368776,-0.344738130719999
200_class1.wav,-0.2773717687416369,-0.2344324631384127,-0.25330897647176365,-0.26770822297475255,-0.26485257322778555,-0.1692391380634746,-0.17919838424358245,-0.3769139480004043,-0.11088915668307138,-0.3560383870708477,-0.28580187319536926,-0.41250375678233675,-0.2615462429332414
283_class6.wav,-0.28481050504751104,-0.3378752399852829,-0.27800059644979325,-0.2584795689442402,-0.19497603718248763,-0.2907711315323862,-0.2315260336400006,-0.2696735056128578,-0.30073684189840455,-0.27045948193564456,-0.24926696110465876,-0.3497164855015679,-0.2524065208487593
253_class3.wav,-0.23159778274308865,-0.1493080672928057,-0.08285815354503076,-0.07688932315575457,-0.3341067650266933,-0.15364111815935905,-0.30397070877676957,-0.4032548668326607,-0.29479718142048655,-0.2556663020758987,-0.5086382756636126,-0.2269127906522861,-0.24201978675079883
44_class13.wav,-0.3445376078352604,-0.24555503076930724,-0.12808645165660798,-0.23220113431450512,-0.1757416627626595,-0.25877403523993825,-0.2356480859641466,-0.3652301563261278,-0.3198612049334069,-0.45790081820149586,-0.19569149272483571,-0.2862423725201557,-0.17800739041036012
56_class4.wav,-0.36643252237253604,-0.15469472923926403,-0.353087820890256,-0.28411646366611787,-0.3191180159451587,-0.36058362891896845,-0.0428643905133286,-0.21728870551001597,-0.17414939359823592,-0.42183825998500446,-0.18315841977052028,-0.2596206604065111,-0.21510358231354645
178_class0.wav,-0.3785656240575947,-0.13464789240608274,-0.09016580171252876,-0.1207164734722719,-0.1929299783464947,-0.460955835133939,-0.2068297528061622,-0.3574042819426066,-0.20665465236992603,-0.38695883499729405,-0.29670573051203425,-0.2806871174215769,-0.19072025316455662
224_class0.wav,-0.23398744384929246,-0.36075869390179777,0.20375107483038923,0.36988443912631774,-0.0539605959900556,-0.2643162677104787,-0.3746918012838044,-0.43430719131933687,-0.03138320095989825,-0.3628444139481171,-0.22208210104764117,-0.11951832844247355,0.19681580206010257
211_class10.wav,-0.2678957867488223,-0.2423875857241908,-0.09776697339139495,-0.20086685476980473,-0.12682732275254355,-0.49709621393906406,-0.2481354146180024,-0.2978031305625441,-0.1694567564407275,-0.305381238216768,-0.29861120926434703,-0.37173455427700297,-0.23832331175970697
344_class6.wav,-0.29171813404883307,-0.3870517211098948,-0.28781893508245365,-0.24740053906216394,-0.23250163244448974,-0.3062587850544272,-0.19330892099297942,-0.22782893585937902,-0.3425405235334647,-0.1898216560173486,-0.1473547449259123,-0.37734857267103783,-0.2577736921511504
319_class3.wav,-0.24567533452580229,-0.21151529914702466,-0.055948491232385114,-0.03630745517337313,-0.3947872151200446,-0.06105654771555999,-0.3506138680763365,-0.5139044083473184,-0.19204120404119912,-0.3077452327975561,-0.42674473576723104,0.06186883975669291,-0.16222822015757085
180_class10.wav,0.0209006280178514,-0.3669771854896445,0.09312049730450458,-0.0380887429437713,-0.05185237313882135,-0.30547632122802343,-0.3809396704706471,0.010757950541546777,-0.5141688449127522,-0.33833591381126654,-0.08087666827208834,-0.4709295608901599,-0.07985633229493547
38_class5.wav,-0.30497697617451125,-0.25226652173629116,-0.2124406303220251,-0.4217546619170396,-0.012508362259417947,-0.028488790956742616,-0.03784150637304373,-0.46230522898243837,-0.314938327442542,-0.3540778656440134,-0.2233910484408063,-0.3062418130893116,-0.1896617025902597
245_class12.wav,-0.2264354985220907,-0.25029460127124165,-0.25780287692763004,-0.11468709506025966,-0.32069365756710216,-0.09001294062591074,-0.3750921836476538,-0.4830185255886942,-0.07468457317556192,-0.26324244048259976,-0.438253519522414,-0.20413843803904003,-0.11359275275392729
11_class3.wav,-0.27402636803176855,0.11274918853963457,0.10427874570639437,-0.32712432270936503,-0.17048475652375736,-0.10412997023487024,0.01541005615014066,-0.40493117280652313,-0.41151592842634405,-0.15774443063321975,-0.41968416167904843,-0.4496290360981713,-0.13292190538998672
335_class9.wav,-0.33003602818171257,-0.10755834016565302,-0.18486228239555913,-0.25823810807514547,-0.026738868127164563,-0.10608414546466263,-0.054538639570551814,-0.495027202357404,-0.37650715863618794,-0.2342728761711336,-0.24676082328268448,-0.47331300581600305,-0.19259726370047503
104_class0.wav,-0.25017081753859494,-0.22847946724889479,0.17517724291707804,0.02835731993182839,-0.4131505434589404,-0.11507707063132402,-0.36230652171893823,-0.3629225544903012,-0.14941121933828705,-0.5403236769171678,-0.2841925894829544,0.10845757561236706,-0.0019311029130087414
165_class13.wav,-0.3590961822998081,-0.07860710728383928,-0.038417303789601245,-0.0983303243052882,-0.2613641490845309,-0.2956021993489178,-0.31497399916653795,-0.44151448788008263,-0.1885645634559191,-0.511335685957442,-0.025828968997297128,-0.12266949925037895,-0.30191861614922116
258_class2.wav,-0.44256986899334344,-0.10809886707038399,-0.06831788207807811,-0.029944318707160317,-0.15974745487697092,-0.3400693054132766,-0.2909531002801735,-0.2740708193315988,-0.1663158743304624,-0.6078014682626104,-0.09451247894778951,-0.1824198087153659,-0.2159964309938219
42_class7.wav,-0.19745331719467474,-0.0871782659677904,-0.23649136417514638,-0.15973519772606962,-0.15469420709534704,-0.1697970874132115,-0.25856654674961854,-0.35600034818325277,-0.2018978738979502,-0.41530258680485,-0.4481575114976738,-0.20291915791022908,-0.412739691927098
147_class11.wav,-0.2611280884992056,-0.25291875043645606,-0.18239810635938708,-0.14309360528266568,-0.3380597731034127,-0.2591502209022372,-0.31387045253031504,-0.4017306634999566,-0.18345309714287275,-0.39223135673213194,-0.31622795257409436,-0.06165696469524028,-0.2853975621937695
238_class8.wav,-0.38431689398114843,-0.2936942140893982,-0.23760968491675738,-0.33191701402447304,0.11147575352783934,-0.20726021674614556,0.01042646212408934,-0.23142241698279634,0.19038129102970403,-0.38448797752801067,-0.38876612581113545,-0.07408555200649063,-0.3868649239063478
347_class10.wav,-0.2364424615127154,-0.2410545511869589,-0.21111674350749768,-0.19561970459371136,-0.3042264232116613,-0.24959948471556373,-0.3362897694483511,-0.31143899199532143,-0.26312012320854744,-0.35427932911907023,-0.2854982127349276,-0.23715314431520626,-0.32513805959688996
279_class2.wav,-0.05599144223200483,-0.1301682065482941,-0.09061310361993095,-0.20233760988831248,-0.09464660799953607,-0.3988438341636778,-0.06609641188771294,-0.5110041512232987,-0.3788771800156886,-0.4880688747588553,0.002163777743608313,-0.33071901385541397,0.07811977140978688
296_class5.wav,-0.3037686310421697,-0.30674660643123386,-0.21403414644699092,-0.4541832355555091,0.034152768404078465,-0.026658616375157627,-0.05220304068581599,-0.46876158804604107,-0.2810776444409462,-0.352101045131173,-0.21735278674616734,-0.25697101522066357,-0.1447145772717265
88_class5.wav,-0.3735407125594699,-0.3314153598773543,-0.2418187920866929,-0.46189659670279254,0.007411537774907417,-0.03455731056321029,0.02421227377159607,-0.4457178582245702,-0.19660919297074717,-0.2915200859250105,-0.20355016259093678,-0.2677198676277716,-0.2038648759037111
100_class11.wav,-0.21594684446362264,-0.3116238314569154,-0.06513644780258067,-0.2449126840461424,-0.014419718708217958,-0.45281018374799653,-0.07224328171370799,-0.5622592303122802,-0.06877275138952682,-0.3165952129889786,-0.32316023079559114,-0.1240875157453835,-0.20159508234256804
362_class7.wav,-0.160737725040705,-0.29907857848749086,-0.08195952800588478,-0.12454485704831696,-0.2510082725884853,-0.06963961474037275,-0.14134713303564678,-0.21990915566224586,-0.4382118030525172,-0.3870938561101029,-0.41907352548359156,-0.09245521201678007,-0.4474940229957764
226_class0.wav,-0.16596469633880526,-0.3238944336847385,0.24737560612255968,0.043757136108944335,-0.3544175905230942,-0.10495946348759207,-0.28200949874383674,-0.4218382860803353,-0.19245424772941136,-0.5566629822891808,-0.23789558189001417,0.02736900199046849,0.07796050299084406
148_class10.wav,-0.2351273673806142,-0.28694519416579234,-0.0936583588581489,-0.22388206870496186,-0.0745613749136882,-0.47426867679804574,-0.2035742294457873,-0.37715913602509193,-0.17646245243177622,-0.308959565048085,-0.3100844088799508,-0.3416745260454786,-0.2231860619483303
271_class9.wav,-0.2545233624672386,-0.36991975918425,-0.2242415856118981,-0.19380238580214584,-0.34726252698964427,-0.1551927110967698,-0.2720194781873026,-0.3311035580683085,-0.3359687482619008,-0.2822185215821464,-0.20438302705055256,-0.2188048005855769,-0.3163275471993994
380_class12.wav,-0.20967050292816544,-0.08593269262900535,-0.40099521065135524,-0.09964917234263693,-0.20052609475252373,-0.09537634915649829,-0.25861925024709503,-0.6030110917424729,-0.28329022452186914,-0.40502571964455664,0.07692554980186077,-0.045520417932127924,-0.21406598623617556
295_class4.wav,-0.3461087540826311,-0.13380437437344975,-0.3399635354009628,-0.3236882308156079,-0.2897384563301685,-0.30079063323888394,-0.07338212345098448,-0.29501284406731154,-0.20723327823839813,-0.37730334194799425,-0.2344125769199383,-0.26050784917756875,-0.2588395489321795
83_class7.wav,-0.22098068279273528,-0.3484796415356946,-0.15442786336616054,-0.2889164649490829,-0.0940751546986088,-0.3761468088532768,-0.12474466373176402,-0.47840370715960945,-0.19876601593636586,-0.25533896798143174,-0.29343466667417495,-0.23483759508460336,-0.28580128855041326
146_class12.wav,-0.26794476049206545,-0.24116748636234198,-0.20523235110142932,-0.34570919332333944,-0.2558882180871121,-0.17545891071679087,-0.05368072413590074,-0.3137458476230062,-0.31517956960442267,-0.2913837844833658,-0.27114971207419825,-0.4316878609175368,-0.258276501896929
195_class13.wav,-0.30857426841283037,-0.22567785798917306,0.02798720100897019,-0.4229896928218286,0.0071951664867805736,0.3345443508591275,0.02557157400470486,-0.37490111309627927,-0.24851155769752134,-0.5727347199365733,-0.1750686344511153,0.0068888031203199595,-0.022178422296605754
49_class5.wav,-0.2583920856790479,0.028525501839946368,-0.011671204382152148,-0.3648168940955677,-0.16342096768754039,-0.2148623020639805,0.07311688171968934,-0.256492555438443,-0.4770741969805663,-0.15007128433857847,-0.3514061543335452,-0.506942920087182,-0.15680217575127003
234_class3.wav,-0.2847173683587899,0.1236858028631438,0.1220977080068548,-0.30135142539024345,-0.04780110222394911,-0.06161308870313977,0.007376220717262395,-0.5048993509110071,-0.41086858791258934,-0.13764094509680844,-0.46682043361632686,-0.34605925022353945,-0.10687413614365864
209_class10.wav,-0.2198845883384389,-0.324526220473581,-0.14620211442220096,-0.27541685022664275,-0.08233179102400988,-0.3758603081245735,-0.18450232174169431,-0.42324197762048243,-0.21790269739132903,-0.28014473442927246,-0.2959515408907946,-0.30754686884837856,-0.2823908251842565
334_class5.wav,-0.2837052113411271,-0.21698459426019004,-0.263952749731909,-0.3526123669484609,-0.2021376281456424,-0.1427952053018712,-0.08134756150429352,-0.35873857143731097,-0.28980024660526443,-0.3810224018300717,-0.17653836507149306,-0.402225676658797,-0.24443420544575306
112_class1.wav,-0.2271057748887507,-0.24718750565335404,-0.1881541763799053,-0.27531417417324616,-0.29377641910140234,-0.18259385600645645,-0.20228632276914515,-0.3937338867073842,-0.11131487765775393,-0.32858850477715357,-0.3653743734577214,-0.33983464253158774,-0.3019648330100713
30_class9.wav,-0.29009734540383575,-0.3756498380222072,-0.17648778221870043,-0.23124043618900228,-0.22785697690494744,-0.2831114166449979,-0.10229482202947217,-0.39261104270422625,-0.3291995853240398,-0.16008570884854198,-0.2940201845399212,-0.30907758625625426,-0.27830826570172135
137_class13.wav,-0.2519282798142922,-0.17348798013798192,-0.23234507411748592,-0.07583400930582528,-0.23966645295761266,-0.23926653018142252,-0.3205196709656238,-0.4575159099843844,-0.23770409161007675,-0.47592830994806684,-0.06189667860785242,-0.17579593486659,-0.3197037421173067
48_class9.wav,-0.29210596781070247,-0.45477070374913486,-0.18141555816258448,-0.18238282693698937,-0.34192783522196146,-0.3461630848662999,-0.07321459230642835,-0.2288524453067996,-0.37293478330933844,-0.05717425229501349,-0.07418984459621912,-0.3579621232163863,-0.2668613943162628
341_class14.wav,-0.2595519805225325,-0.2558185718567963,-0.2318898427431362,-0.17632227738800021,-0.31534074654937433,-0.18555195813840716,-0.28523029873661504,-0.40013932691527926,-0.2407435890745387,-0.3764999286198499,-0.31832384569784405,-0.08667996081671775,-0.31374656155255715
164_class10.wav,-0.24902948396437655,-0.27574020205855293,-0.0970691741889046,-0.22735228326785742,-0.08064802878410747,-0.4906921855040256,-0.1888312518136835,-0.37882890268679903,-0.15104987556280872,-0.3035824194233795,-0.3114209316629937,-0.3381610680464835,-0.21925877919881825
361_class12.wav,-0.15456046029980602,-0.06891734916086865,-0.4709981372303677,0.0220701973387909,-0.21089809611317237,-0.10791398219853246,-0.2577626132759244,-0.5938788462992456,-0.3150899538519903,-0.29967023794222303,0.08413076945092486,-0.02027047341420411,-0.2778582945337427
127_class7.wav,-0.10677665782282683,-0.40690178842562524,-0.20294562822529472,-0.3328800562392568,-0.2760127423731927,-0.3181553044740811,-0.2396153359085004,-0.4231984996301524,-0.14382655075133158,-0.20490769753768204,-0.26100952683564693,-0.3077179666222981,-0.17783629483638505
239_class6.wav,-0.16288259498497965,-0.26194795810064686,-0.30179330785015535,-0.27078636917793236,-0.22223611814546412,-0.20056177768704744,-0.26212375846971436,-0.3450341588957303,-0.3425598689362095,-0.3161375808581212,-0.17249153114264526,-0.34880184581393253,-0.30719769671999414
136_class0.wav,-0.3045832633769989,-0.14135166208867814,-0.18826158838926524,-0.04320829982376108,-0.3374869657267081,-0.3051075508329188,-0.38496205843743636,-0.5339023944268652,-0.1462908591718684,-0.3963850624270907,-0.014285618591132367,-0.10249680522853437,-0.1430801539833767
278_class2.wav,-0.19591143325644483,-0.16562463747771455,-0.21568502747094737,-0.14901524899510427,-0.12843263288807955,-0.26497376733299205,-0.1963609481454896,-0.49713621554341014,-0.24555896820078044,-0.5780974942238655,-0.0049952457955409965,-0.3090448503260541,-0.054990410614829066
232_class8.wav,-0.13910427516712107,-0.2656743505162675,-0.26178275154449626,-0.23157691466497793,-0.12116138662726281,-0.22282179854414097,-0.2903611173003196,-0.39211296742759716,-0.26890686217602694,-0.310273069871336,-0.28468451367754327,-0.3920653960762236,-0.2866643420002107
389_class9.wav,-0.28155722573248904,-0.2174111903614587,-0.18313593456564867,-0.3360514495456386,-0.29235377186443756,-0.3172301067246412,-0.16210170646425237,-0.38395426080994993,-0.19342609114822437,-0.30914736840435836,-0.232272539181902,-0.3354781753488678,-0.2601983143339246
254_class3.wav,-0.33195866726828943,0.0016490716675321934,0.0008262789308829517,-0.3216903619263549,-0.08785670843796148,-0.03575007477759999,-0.07153160559989104,-0.5982008579699256,-0.24509927436175893,-0.2313982929087082,-0.4064857584299203,-0.30977323326743494,-0.1988680312319501
314_class5.wav,-0.25882213262630294,-0.2711381779722864,-0.3150698252010394,-0.3633339982144026,-0.1743275363057021,-0.16708270698091934,-0.12327317706384734,-0.3329920660141108,-0.29949261622693324,-0.3061528721998586,-0.14278896072399758,-0.47896594209259946,-0.10298262319318356
115_class7.wav,-0.13590594979750778,-0.2626342892170939,-0.1365548032909061,-0.08071255857427041,-0.3118660987159917,-0.019063939766171437,-0.2732816926900066,-0.3263972527456126,-0.37072600229304614,-0.4009171868642021,-0.3960720280263052,-0.13990802440192276,-0.3659637384499974
306_class6.wav,-0.22487680886668085,-0.2867094044392462,-0.27253559925151216,-0.2229018658304647,-0.17749631467453506,-0.261703428766985,-0.26261002481305645,-0.2605129138569887,-0.34708382690756046,-0.2824247545053958,-0.22469952344432756,-0.38417367448773954,-0.32883491444216645
158_class9.wav,-0.2657189813612152,-0.44593347799023875,-0.2581088837344871,-0.22336230117271985,-0.28678006283062524,-0.2805035464713905,-0.12463489186655673,-0.25690733011696326,-0.37600445655604664,-0.1128284208224527,-0.14302820248012416,-0.30415010078280247,-0.3232516229491995
204_class0.wav,-0.4763925324958366,-0.3300258036189593,-0.2462783596140528,-0.34821700327114474,0.11223283674750377,-0.1212224094367681,0.0006072825967819666,-0.39219687595275937,0.06687836212135705,-0.2785167731567866,-0.35940788740943047,0.038613065095638374,-0.29733123797431804
160_class12.wav,-0.24443909543004683,-0.2229246538783213,-0.2344039876924156,-0.2885558371786482,-0.20790412387213505,-0.20750150080885907,-0.1489852242815421,-0.36592982091151766,-0.3188196124140767,-0.33410206696396194,-0.2558085323127976,-0.39969483411871326,-0.2673912792527114
138_class0.wav,-0.1305128733151881,-0.051883436328017535,-0.49354596304786186,0.12911316446963014,-0.1849885273198145,-0.0713645411253029,-0.23642430549070892,-0.5751219480829787,-0.30452198589456797,-0.32989523441317875,0.10631956026491209,0.05793051372511655,-0.2789570088616276
300_class8.wav,-0.15372909554821057,-0.3140695656195238,-0.22635984151604926,-0.2102661037331942,-0.10847585047170732,-0.24188157852438597,-0.2719860491209891,-0.38309979570574254,-0.29248268874233746,-0.31451365929952785,-0.30637135588584313,-0.3878013889414801,-0.250086381635926
29_class0.wav,-0.12132124330601463,-0.1465235723896034,-0.30928358850259724,0.07661210353171596,-0.3658613149812454,-0.09649600567284487,-0.2604147909137045,-0.5487468035351172,-0.35793424187192213,-0.3736442607639499,-0.03766496993394548,-0.003917137086686139,-0.2846408236280759
356_class4.wav,-0.3557540197239836,-0.1466731288012566,-0.3618407536918981,-0.2780818099456824,-0.2744706310176011,-0.3506950505240745,-0.013589744530389416,-0.29881765792088416,-0.1620554723914663,-0.3933738865722342,-0.20385603430780447,-0.23515286583717432,-0.27930428439924737
24_class9.wav,-0.2695368108029393,-0.46448733396452485,-0.21502545566881368,-0.22065578923153484,-0.28576719355663627,-0.32681842114279896,-0.0595771156894031,-0.22279627916565756,-0.3911926718220116,-0.012809235022506298,-0.038881756198711204,-0.34542174530813125,-0.3177923224062856
233_class4.wav,-0.20383986216317548,-0.3158357274706775,-0.16136641279148656,-0.41605016969739583,-0.06295669322193576,-0.14283652169518263,-0.1071510579228961,-0.4793622809409234,-0.21736742792451216,-0.20041054355383917,-0.26781137539839595,-0.10460827242471345,-0.473123736528949
345_class14.wav,-0.15031274288411706,-0.28758486531325067,-0.1723902684274304,-0.1402221671884308,-0.24297165892211425,-0.07990178232665837,-0.23962541743046864,-0.37675313014784656,-0.3887281547126151,-0.45443471033120614,-0.3223525841276795,-0.10303452992858542,-0.32922605161980184
97_class0.wav,-0.5024688151989154,-0.4129440032228066,-0.22085217729687526,-0.1479279185673814,-0.11373649554148008,-0.05546844023671482,-0.12095667066969533,-0.51457752794165,-0.07883178487286506,-0.27117461050194247,-0.2528468721783398,0.18914669708475584,-0.17734871425674512
390_class1.wav,-0.24465894341118688,-0.03180294806428689,-0.09240600816540344,-0.3803659074075824,-0.24940476311426116,-0.15688743218948756,0.011887605979188065,-0.34281802922010374,-0.3308799202848298,-0.20422334793798477,-0.3280870769904834,-0.5296874438764387,-0.20501937880042084
383_class12.wav,-0.27969056290372485,-0.41155348441596284,-0.021172931171504896,-0.1238479044344854,-0.09540457274923385,-0.12923743924502507,-0.25879510926597776,-0.44300213033435165,-0.3457665746176312,-0.4591033215285253,-0.23200219092172897,-0.24595765590301108,-0.054125860034839275
277_class2.wav,-0.3306539875375481,-0.379572976607694,-0.15305681089066073,0.3528002359135984,-0.37859347706895086,-0.3795063937070306,-0.2806510376627827,-0.07200333595336841,-0.1309831481018942,-0.19131646770373437,0.28137888861409865,0.09925315990347083,-0.2908718763491126
19_class12.wav,-0.23169730780848383,-0.09101546175366329,-0.40558762491965694,-0.09007397817948097,-0.14700799579925514,-0.14815222660853225,-0.2576082050111808,-0.6426656233211383,-0.25001303626035326,-0.35069470998202856,0.10282094183406926,-0.01825350154306311,-0.21465726675210697
367_class5.wav,-0.23605171940452604,-0.29254256474914675,-0.1944379706854505,-0.37376328901948375,-0.16788119525376685,-0.21349547374494782,-0.08856364395011981,-0.3967221594657502,-0.34508622914702763,-0.1704503349027519,-0.24627113229365846,-0.2954291821854553,-0.3822711270022528
143_class7.wav,-0.2224632797392808,-0.3790601059588532,-0.25085552562455843,-0.18640878233776426,-0.11139790780921184,-0.27247952791519375,-0.1511586561334479,-0.4440079807578847,-0.21834679784956343,-0.26340469153883783,-0.38091191991889123,-0.2204697498546908,-0.30288946181412313
