Filename,i_vector_0,i_vector_1,i_vector_2,i_vector_3,i_vector_4,i_vector_5,i_vector_6,i_vector_7,i_vector_8,i_vector_9,i_vector_10,i_vector_11,i_vector_12
a101_180_210_class2.wav,-0.1069235351545302,-0.12006982342863932,0.37771252544392003,-0.012955638930490685,-0.29551329236357976,0.3482159704879629,0.19879769640477268,-0.06907850084392042,-0.40046024332493163,-0.3914500037865687,0.4191401523369331,-0.09213379802812768,0.28402913097945554
a079_120_150_class13.wav,-0.20109852756313912,-0.14289928669641694,-0.1767299578179428,-0.4526299044204616,0.3124313433044596,-0.12905787454466294,0.20532010280590002,-0.5941254771685158,-0.019323630096106974,-0.294428231485979,-0.20494130642080963,-0.17939352355601892,-0.17993554307657753
a107_210_240_class1.wav,-0.3392006194616938,-0.20592401885694236,-0.14872165576707552,-0.40315409042891687,-0.15014123746821784,-0.2307655312466749,0.057078015329299486,-0.3124783593184989,-0.31989030376208516,-0.2047301281739789,-0.32746375206173384,-0.4093782975379328,-0.24924648238649774
a059_30_60_class4.wav,-0.18103621665486075,-0.31351560877649254,-0.26705028318552193,-0.2517226339100131,-0.08677989669383256,-0.17249237534055856,-0.1605448716268374,-0.43900413324614845,-0.2678490421583729,-0.2954789308598021,-0.33784347828880146,-0.21186490626307777,-0.4004924418908419
a012_60_90_class11.wav,-0.2698550368341502,-0.23869146275429998,-0.18339075220061443,-0.30829438821855376,-0.29070153086859407,-0.21654371885377116,-0.2654118010686523,-0.3583632459468752,-0.21025408761828848,-0.3137618863172107,-0.27540289904331183,-0.067838366507337,-0.43377268361419813
b039_60_90_class8.wav,-0.19735554197485597,-0.1457247001550437,-0.31421813210882366,-0.2550203381867647,-0.18230891116187217,-0.0705966354980797,-0.2632373194580459,-0.477650290173936,0.08744948336004649,-0.10890003421667636,-0.41107897550860606,-0.5015834439256777,0.01743787178596295
b033_120_150_class6.wav,-0.15102751307260284,-0.28733636493281456,-0.29925205529091653,-0.234677760875714,-0.18870044213300488,-0.12722391192368504,-0.256588509803098,-0.3926209725170758,-0.31756389865871304,-0.3304812065999302,-0.2888135940001034,-0.3355003518321549,-0.26866699049458054
a017_120_150_class14.wav,-0.2706295124998943,-0.2502964849943113,-0.1594397046486733,-0.058359840444022024,-0.3891534917230806,-0.15627989702744113,-0.3592346647873024,-0.4083089326364216,-0.20311338943460044,-0.3575934617492706,-0.37497591454143,-0.0025253813763928446,-0.23219264434306414
b053_120_150_class10.wav,-0.18484053790142174,-0.32142809641526693,-0.24974013670759906,-0.12996744663707532,-0.18789731579974045,-0.15506174112339485,-0.19765207970723206,-0.3442396087868343,-0.3371726185490506,-0.3578020597738828,-0.3933415754352204,-0.20293393821586198,-0.35879244233468677
a109_0_30_class1.wav,-0.323187470079032,-0.24234158237650263,-0.10867949051819305,-0.26246480429169133,-0.2976836114466373,-0.2527916384822438,-0.0011888326490066964,-0.2968354282278515,-0.38498506426114015,-0.18541125937533995,-0.194344889805335,-0.5021555739128686,-0.2072886641540114
a099_120_150_class10.wav,-0.18340398292501056,-0.3010051007239779,-0.08970981048745781,-0.1438482608726496,-0.22639561678130693,-0.3321626374035208,-0.34756240395102195,-0.21287807969990466,-0.3509973190459114,-0.3480765656621125,-0.24013974421274106,-0.4090627921050395,-0.22351546593948607
a120_120_150_class10.wav,0.01280076324721528,-0.36948476113325773,0.09737469980932535,-0.038966679145093316,-0.05645248435212815,-0.30951440797361257,-0.3788001952377621,0.011760179104227251,-0.5158258468603335,-0.33733331303594727,-0.07835549602917675,-0.4649984181713616,-0.08642797587405787
b116_60_90_class10.wav,-0.22425555508225012,-0.21690075128070363,-0.31192176407302913,-0.21102052049671963,-0.22319534916205605,-0.07988840601124259,-0.3011517485627696,-0.4747108705590445,-0.014423312455275205,-0.17776534051537088,-0.43905948640380793,-0.40009671462860713,-0.06275662239989818
b045_0_30_class2.wav,0.05536552031556853,0.07618672099168695,0.2045651254407177,-0.3840283797887782,0.06980918723789381,0.6421648326939282,0.24624447435545044,-0.23109047504145724,-0.013251465821131243,-0.4924247432306612,0.04667896518551932,0.1273933363471939,0.09721982755171145
b116_150_180_class10.wav,-0.1998068605015226,-0.1621243375162157,-0.3177822856364172,-0.24628665119094745,-0.19192067709433566,-0.05485609609250352,-0.2739431851180615,-0.4466083808930915,0.039620424832406506,-0.12126617236403346,-0.4290900583475433,-0.5070559400750534,-0.017444276111173915
b005_90_120_class11.wav,-0.2510797804312533,-0.3173979150136548,-0.210921953088058,-0.2002734990019157,-0.3221886769073343,-0.17504234701001517,-0.27567209860143516,-0.39058173890703746,-0.3039363698594215,-0.3122053185317966,-0.26811268495635276,-0.1528110362540076,-0.32177677470444865
b015_150_180_class14.wav,-0.17842638067003164,-0.2694420151095079,-0.17244293746485775,-0.06724213882756741,-0.3705343172326395,-0.023650990044874826,-0.33675798372438454,-0.4093440451180924,-0.3315709569599869,-0.40622575675239886,-0.31035346647078016,-0.0061240748594907695,-0.26677326592905487
b050_90_120_class1.wav,-0.2489034027499324,-0.13799240641198826,-0.27798035676993094,-0.2990027027975159,-0.18663240836103745,-0.2850875084544348,-0.34723431984841585,-0.37271327597191345,-0.23530352560881393,-0.23186632974731958,-0.30848701256599664,-0.3282113197537086,-0.2544001634776885
a121_240_270_class10.wav,-0.060945538578256915,-0.32886023689434035,-0.08383086538992329,-0.16475844326403924,-0.12694669056567465,-0.3443479145230807,-0.38884884743760284,-0.07054174097625554,-0.4029458906469046,-0.352085045160738,-0.15618945030457643,-0.469142007906006,-0.17965098847297067
b035_0_30_class8.wav,-0.16171728665998011,-0.16277697194991483,-0.3184697811876637,-0.23600076346565296,-0.18288047468711444,-0.09788987382668048,-0.22221670615917238,-0.49111275254238096,0.0660667231879597,-0.15024222403624318,-0.4042027808263296,-0.5156804719472771,0.019706448559589328
b039_120_150_class8.wav,-0.1944335141743884,-0.1595786023535189,-0.3155758583160744,-0.24973259280201074,-0.1969301792956234,-0.055820446768141005,-0.2698915361849956,-0.4982913765926371,0.060027324065326904,-0.13247498752668518,-0.4119972075320529,-0.4699130204192263,0.005457578501636712
b092_60_90_class3.wav,-0.1679970255236323,-0.19022818388961676,-0.061075144147010166,-0.18982568377849865,-0.26223578239219836,0.06811947953330647,-0.26784610828798006,-0.5335386429692188,-0.2800266454064633,-0.3992268825804863,-0.37675668102918386,-0.06313487871939706,-0.28685318224826967
b004_0_30_class11.wav,-0.2631219591443687,-0.32193752243700086,-0.22891484906394072,-0.18303746702137016,-0.38426676536362053,-0.2267259116755482,-0.2745006232185729,-0.3228348538072976,-0.29756735996535444,-0.2909552231939388,-0.2131349736835539,-0.16613289842195547,-0.34110392884506896
b097_180_210_class2.wav,-0.25137496673184945,-0.20280346628250928,0.20390936098476942,-0.285316036728088,-0.21214398898775177,0.3527477640591161,0.1050297964873749,-0.25957057976273007,-0.41247360573355496,-0.5709655199586738,0.0953438165549823,-0.0919002134325435,0.10573891298525534
a020_0_30_class14.wav,-0.22475906621049396,-0.32181293777503156,-0.11995891308968767,-0.22848312493564324,0.0062428855970798796,-0.4574837427371851,-0.05759366580591379,-0.5177020589492141,-0.07592257922343772,-0.2800569868851427,-0.35586441510165734,-0.2284142942859719,-0.18882158151871029
b096_120_150_class2.wav,-0.19441303926705206,0.009561568918299554,-0.2911619816478452,-0.19013009317050553,-0.1625838796641486,-0.03836456565268938,-0.22705773377062893,-0.4876582551848896,0.20160184524518593,-0.1052617897555726,-0.41062602920494423,-0.5323387162479103,0.14210790080551236
a101_150_180_class2.wav,-0.21473060223053242,-0.43196732784765446,-0.4071760328129161,0.3549120264979677,-0.21660173077958242,-0.2509804501546075,-0.2079801653451423,0.004403916364004725,-0.05619699479173948,-0.3531718335442805,0.07388817397633957,0.2878998775730951,-0.32576562142442855
a026_180_210_class7.wav,-0.039126758401975714,0.018741265323248213,-0.29151583516910606,-0.25106037787450725,-0.07613334543309062,-0.2191250906553227,-0.3795776760779581,-0.5938224689497014,0.03982367913088014,-0.4566799436735789,-0.07245847462784655,-0.16421517074875763,-0.2392264378946127
b092_120_150_class3.wav,-0.1646229182997016,-0.18282417859700337,-0.13469678688267175,-0.17473121738080766,-0.3506080395972374,-0.005895868697298106,-0.25804021194162663,-0.41043855492104786,-0.338391100724772,-0.45036784227144494,-0.2962961281123069,-0.1450018206010931,-0.3265553870486877
b080_120_150_class13.wav,-0.4761712753427731,-0.018245230500057164,-0.06390767494553921,-0.4354458204132417,0.07953187164124655,-0.1342468634151143,-0.09935374359982937,-0.5148940123887438,0.00581604904402586,-0.526523193459637,-0.03389136476520502,-0.036753001664621386,-0.011675527871130062
a098_90_120_class4.wav,-0.32533769831529014,-0.23742292657793146,-0.14522755631684547,-0.2359058434661659,-0.3499313516749224,-0.31228490311190615,-0.21047844039994626,-0.34211350399693097,-0.20425778013770904,-0.3266244918809372,-0.2542156765980702,-0.18651495334932447,-0.3631917583227224
a036_90_120_class6.wav,-0.2134655857883828,-0.2951538287187288,-0.2690188669320011,-0.20838138911227982,-0.19916998097281147,-0.24048075744451858,-0.23351154740967217,-0.32858436787821194,-0.33799046130787747,-0.33048644751226885,-0.28355055230587695,-0.31049610871594935,-0.30209288010224244
a101_30_60_class2.wav,-0.160827365863204,-0.06335048434448239,-0.27278877187583334,-0.1920428950677952,-0.185933471963391,-0.34420809160879223,-0.23661634253016497,-0.5029054818339788,-0.04569063043413805,-0.4797530891141455,-0.13443354465540697,-0.3628203723173897,-0.1221218353029056
a097_0_30_class4.wav,-0.22155094131290476,-0.29982366043450487,-0.11486409244443911,-0.4478265310111239,-0.08462730509101918,-0.15733093459391465,-0.10585693431863968,-0.48904203478915687,-0.20987101700966307,-0.20141209956604292,-0.2301598757714611,-0.05458737490274319,-0.4737403907300674
b035_30_60_class8.wav,-0.18946000041786612,-0.17811351825095867,-0.3177262382440574,-0.2571186439295481,-0.16327473240807933,-0.08496539141281399,-0.2653616758395634,-0.4754270424425512,0.048163487168279534,-0.12234373229718286,-0.40225588042493926,-0.5058598701204019,0.0018340662027937125
a154_150_180_class13.wav,-0.349498170985949,-0.005279225506296217,-0.14221977418946916,-0.09492301445875057,-0.20565278730400696,-0.24749159434414683,-0.3232207523401478,-0.44223294455567147,-0.12894793618483902,-0.5213863130103226,0.11032541359452956,-0.0011439992344596099,-0.3799411295985009
b093_30_60_class3.wav,-0.2587389030465721,-0.19209572170927564,-0.10635919309437472,-0.11521076924138916,-0.32909012292984424,-0.019218416885653008,-0.26995295336422015,-0.5195144536456057,-0.31914616204076546,-0.31725225273938806,-0.4017310472042627,-0.10868711865839917,-0.2107702650953793
a098_150_180_class4.wav,-0.34942878814683176,-0.2801473096566663,-0.10089203686119676,-0.2171843896405018,-0.3588090793770409,-0.3743459866834328,-0.13487919491860167,-0.3344696234953263,-0.2083593063832609,-0.3010738546694394,-0.22393870037386335,-0.23441988356651655,-0.3224395375724879
b016_120_150_class14.wav,-0.24802576207648253,-0.23788812133343873,-0.24116692280301527,-0.2397203906737991,-0.1730509794991983,-0.2766735623602052,-0.23308516172306404,-0.4687448182941645,-0.07818078145707473,-0.2819597461911867,-0.3836821603163071,-0.33946291487273383,-0.19405981043899775
a019_180_210_class14.wav,-0.22446014736787354,-0.3162942904604887,-0.11765819261229891,-0.09632109464830407,-0.4095589594198728,-0.1569742261918254,-0.2413433790627622,-0.43949703310715116,-0.32718701210286627,-0.3520242131377626,-0.25586281721889526,-0.11104310734246356,-0.2718490434011025
a128_161_191_class3.wav,-0.32853663033282665,0.15299404372432104,0.12479241288901655,-0.44230305304549217,0.03696735249446809,-0.07641232333905888,0.042989043854310904,-0.28404805028422436,-0.41223813501218326,-0.10719322657124643,-0.3723462344420352,-0.4727831752793558,-0.15530057979490963
b098_150_180_class3.wav,-0.10544149538803461,-0.222495342071748,-0.05053367934125623,-0.04389733979453497,-0.41418203561001243,-0.03600481186787755,-0.2753943149999993,-0.303134643014251,-0.3754131693187716,-0.37924098607760187,-0.4136272210884832,-0.06632593946490939,-0.36616411279391897
b094_210_240_class3.wav,-0.2853283383752682,-0.18474881222055464,-0.25650395025612105,-0.23795378920603347,-0.24832092011700072,-0.007041909940063472,-0.23740678335866577,-0.4331153423512561,-0.3082590810637388,-0.453105484799674,-0.2560711441973488,-0.22424147831792643,-0.20047611348469874
a095_120_150_class2.wav,-0.11131369877643461,0.1678384026323137,-0.15699165692704872,-0.1534366573668688,-0.08292118322320395,-0.21830842820858967,-0.3133329892859579,-0.5692726108228848,-0.02069544110132507,-0.548039991174373,0.13210994592577813,-0.08908498140807783,-0.32909220273675643
a110_120_150_class5.wav,-0.28798518517595073,-0.16431674743801325,-0.11997973025231091,-0.3580696588014666,-0.24353134520614492,-0.24581448341561765,0.047718857164274334,-0.25794169508273923,-0.4485716834567459,-0.11826029396358358,-0.23005318003914102,-0.4850442079159796,-0.23562223590398507
a019_150_180_class14.wav,-0.356634096699204,-0.3327335792060537,-0.07089715018876862,-0.18747410612446433,-0.3711887878022445,-0.1788166555576041,-0.08306137752692991,-0.42341084548237656,-0.34569908892289003,-0.2494927342787751,-0.29188151421836994,-0.20312455225488546,-0.24038761272862078
b060_60_90_class12.wav,-0.09223791665590818,-0.1636266112068134,-0.40469065177351915,0.013525587743003723,-0.2790882644468424,-0.12802505046373513,-0.30806661267613067,-0.6076598706611529,-0.2807629256356691,-0.31632736519242444,0.010106555485520079,0.043615182460277735,-0.24784986491323505
a084_242_272_class9.wav,-0.16509768488356738,0.09333393987197378,0.1507644134506752,-0.31810988140044616,0.1801340103737985,0.052969817303970934,0.05154493593222744,-0.660753580384273,-0.2662727685674775,-0.14051165971264304,-0.4606348342842162,-0.23282824618781714,0.09253826712306128
a154_60_90_class13.wav,-0.3572000659365335,0.0333049799778468,-0.05355064088450445,-0.05769144299131502,-0.2843924465249154,-0.3089631451523055,-0.33425651602838996,-0.4291961978335644,-0.14015304114627258,-0.5252764801700941,0.008578569009952621,-0.04181168239359654,-0.30894784322231383
a079_270_300_class13.wav,-0.43917690536235365,-0.2984432118979454,-0.10743990780244969,-0.42141575424045574,0.35826522950738515,-0.06350967558244555,0.07808616958773339,-0.526539768717946,0.038670303794963515,-0.14750281155407646,-0.2958418917602652,-0.00040373737317119646,-0.04915925276713325
a140_30_60_class0.wav,-0.34522764149734697,-0.14283799180147266,-0.040063017757276505,-0.09117005295978614,-0.26001799757907784,-0.4096018581915903,-0.2185544587152229,-0.40688861954289196,-0.20511091831894765,-0.40524276174786,-0.3339546733755848,-0.20797737108985173,-0.2017875683520078
b012_180_210_class7.wav,-0.30076370282539766,-0.2599486107852061,-0.2863290529576702,-0.33019195780455707,-0.18536424623713835,-0.29826673468189796,-0.210356957411887,-0.4744341913615028,-0.2110102052037718,-0.3327182768770531,-0.08444424948305636,-0.2037049244659859,-0.23332975162040104
a154_30_60_class13.wav,-0.31825559706526596,0.036310631575537204,-0.11862422550790243,-0.044391897284055654,-0.23318745025958812,-0.26045269354495704,-0.3059031516626192,-0.4972011274877083,-0.15846330071258596,-0.5057594333765797,0.16756259265761417,0.012006824516486521,-0.3305000230387111
a066_0_30_class4.wav,-0.23239555065274112,-0.2845990322685889,-0.268603008224379,-0.25993629486840547,-0.3043446437885998,-0.18144473985094778,-0.09762834855326606,-0.16997997847549212,-0.44653219702066305,-0.2562465811819485,-0.34523848725040657,-0.2666131982404817,-0.3255508842052684
a060_90_120_class1.wav,-0.29236397696845035,-0.31826706827268125,-0.19505975121454164,-0.44970341359745464,-0.2341108318737986,-0.2337939885670255,-0.014700144090729698,-0.36682813462787206,-0.2671194711224391,-0.16879669832178562,-0.13259677383542984,-0.2367052353062851,-0.3940114416201809
a039_120_150_class4.wav,-0.16331547542961866,-0.29057531164973294,0.005661378806345623,-0.613619943582314,0.07472834715754748,-0.03872226849305533,0.03744487080638686,-0.47510381498188065,-0.11700033343404435,-0.022136279249318786,-0.0935994412511679,0.12894951928557402,-0.48842106553415865
b020_180_210_class7.wav,-0.1947812882582044,-0.2692539996576809,-0.13019189939065695,-0.18754210728783344,-0.2637867392421348,-0.11574952274966638,-0.19256044656610488,-0.25477947112180854,-0.3943711274157014,-0.3831948191678186,-0.4338779984826052,-0.1878904899441067,-0.3557348044279495
b038_30_60_class8.wav,-0.34072726762517336,-0.1875667822078587,-0.17651820171019011,-0.22151007585985785,-0.17873316215002774,-0.39618553116424937,-0.25030949533265745,-0.3783250157887899,-0.15734926780326178,-0.28014443967071667,-0.3144641632318578,-0.38231946985239185,-0.15971686367801263
b005_150_180_class11.wav,-0.26060471889300385,-0.2504040915569196,-0.19000102198656277,-0.09523570520154895,-0.3757795142094464,-0.20188499592918835,-0.34165329953107165,-0.3450640377413077,-0.2445156097667769,-0.3826257679492957,-0.33826390435915016,-0.051701211519103105,-0.2883798457489919
b060_30_60_class12.wav,-0.09561082660091552,-0.28740544210974805,-0.34452005845153877,-0.1911100723186072,-0.2780123452906486,-0.16633673640591837,-0.2978499802066231,-0.5852277838708652,-0.18661332785584778,-0.35073860688972913,-0.06980639331394604,0.023875796769584446,-0.2314940967160515
a098_0_30_class4.wav,-0.2989557778255226,-0.3490837289293685,-0.13772214911279468,-0.3119874410565718,-0.2522291167082588,-0.31494462493583314,-0.08879094924209506,-0.38416581147199597,-0.21968273337447422,-0.257158596960242,-0.2662318596985346,-0.19734901496586243,-0.3605114530019841
b003_60_90_class11.wav,-0.2287050857390117,-0.1918792474128835,-0.2215408279293976,-0.13146135373735005,-0.39244458451067066,-0.1674272964652776,-0.36934649721438956,-0.3357092583455909,-0.21561479529078406,-0.42371819932356514,-0.2892831305257977,-0.09779528139759973,-0.30671847106040734
b019_30_60_class7.wav,-0.29606353566682314,-0.3273471624428688,-0.09586137316067685,-0.23385360021883833,-0.300822628555013,-0.0925842753671169,-0.27833221093097477,-0.49366409051728666,-0.17589990936804725,-0.22293098051195107,-0.3614212858379275,0.11600537753149257,-0.31040708662149
a003_90_120_class11.wav,-0.2872211940657214,-0.3177444699217915,-0.1263344306786897,0.01233209294330697,-0.4058307663692109,-0.16546237580586093,-0.35944739576552587,-0.4255807486943011,-0.17772842014049361,-0.2968479735497059,-0.3782772574862722,0.07226197220076253,-0.17323558819557497
a001_150_180_class11.wav,-0.26800252963349136,-0.25406578352382747,-0.22464881116764765,-0.26082742481057014,-0.3035633012873351,-0.2042242731967593,-0.25969994946888947,-0.38199009809954404,-0.22433989727189824,-0.35082150035248943,-0.31817138979790804,-0.12675829402839522,-0.3274196762569564
b048_150_180_class8.wav,-0.2297127062950521,-0.35760866976300887,-0.2975786834356452,-0.24061393568610215,-0.2789620905256106,-0.1980601552881941,-0.2262577672907057,-0.374174348548083,-0.298775847463321,-0.19267476424554428,-0.2193771474016085,-0.36180939580714666,-0.24337283344783073
a122_270_300_class10.wav,-0.08449742826971503,-0.3439174098142818,-0.03609889999345982,-0.11703337796030384,-0.12954331948746958,-0.31583755593559704,-0.3839340818371221,-0.07230401605354923,-0.4422249387029084,-0.32806569860492585,-0.15819680365106595,-0.4923446656280537,-0.14068929219514023
a045_90_120_class0.wav,-0.2888224802655187,-0.2575576202561589,0.16494278650357982,0.236080932172718,-0.2398056649988513,-0.35360147614367704,-0.4260714650203552,-0.38670050687474045,-0.04180226440265767,-0.41199917707152545,-0.2734214502454981,-0.06851484992313416,0.05240282660989657
b086_60_90_class5.wav,-0.36635705379851147,-0.29475651957768506,-0.21702596664868418,-0.4479144906198215,-0.03550271706404319,-0.04343575799985033,0.02337425222349572,-0.46399148390081246,-0.18379089362159398,-0.29257066236237916,-0.2307276008151222,-0.30126686636641575,-0.22094851390889686
b099_210_240_class3.wav,-0.14676072385971442,-0.27120579534229344,-0.062030944001664146,-0.22515530316299825,-0.334537028226377,-0.057482358777637826,-0.22285494204690454,-0.39137091652893535,-0.335084943137541,-0.3182326467893601,-0.40102365093421155,-0.10027689385585578,-0.38455407028677885
a106_30_60_class1.wav,-0.33995780906712303,-0.021962382209957363,-0.09939075272606615,-0.3549904669679323,-0.07823689217623259,-0.18165916923444292,0.010531359096869058,-0.3502755167934906,-0.4415245565001782,-0.24432436174113314,-0.25565901901608473,-0.49504841970934965,-0.14509264836228197
a098_240_270_class4.wav,-0.3055824308464912,-0.2876871938130202,-0.12731719662670998,-0.2399530661999958,-0.27256742369305587,-0.4239331090914706,-0.12491075306763523,-0.38786950059201064,-0.17264265177331187,-0.31253395800407974,-0.2536431832594443,-0.21608930434952758,-0.30248665224925464
a157_0_30_class9.wav,-0.2633555512412046,-0.18802751779635785,-0.12062939193177846,-0.3009903572682702,-0.2016565392794801,-0.2973734518647447,-0.2047397805438901,-0.407175931948676,-0.31445869768448415,-0.29816388682805595,-0.27200306384956235,-0.35928231122941306,-0.2499609808513587
b025_150_180_class8.wav,-0.5516092727388625,-0.07711921894819522,-0.1763680647449881,-0.40822990335871195,0.2936352220828387,-0.11813183281482005,-0.004534065847405888,-0.46700060721671405,0.047523185534994926,-0.3909485168497187,0.07712446434605899,-0.11233281830931147,-0.008339575114185068
b112_143_173_class0.wav,0.0018686647547144623,0.13331543568430873,-0.31685003639289266,-0.15384925362661284,-0.019401953732118886,-0.2864177487611433,-0.4174177127839328,-0.5734316155596384,0.16732217562980897,-0.4068521656736835,-0.0008151982944951925,-0.11911899688745735,-0.2548953547536134
a129_120_150_class3.wav,-0.3424504761463743,-0.10854019564266602,-0.22687924435659668,-0.3989239401404183,-0.23505821163202278,-0.22084441246337255,-0.05326763495691587,-0.4652397073691559,-0.20488838560344266,-0.21115409272937177,-0.3406571004761333,-0.2880547333224081,-0.22679078736893107
a089_150_180_class9.wav,-0.24896658423339155,-0.23022441847607894,-0.08721153605573968,-0.21193502380427404,-0.2856941279301653,-0.19047384205755372,-0.16641886258757183,-0.4842650884540525,-0.37276629444890147,-0.3491049218655985,-0.272886329295732,-0.2643627829375823,-0.21724900760910357
a121_120_150_class10.wav,-0.0618867583989159,-0.33690068501628645,-0.04562935933411031,-0.13538622992459073,-0.1267799563489664,-0.3392836362230323,-0.38834506923128526,-0.05240340536678639,-0.42674211194629996,-0.3504703063014178,-0.14867428577593875,-0.4739020361230713,-0.16089277874772143
b095_60_90_class3.wav,-0.22841020886353372,-0.2824678788768426,-0.11571403974108813,-0.39927738009516894,-0.25423711879910466,-0.11236483223434063,-0.17283422733896606,-0.423505775456376,-0.25597087265041374,-0.36334070664802975,-0.35749673552542394,-0.20701815844656063,-0.2013438302182126
a022_0_30_class14.wav,-0.20098594617979576,-0.30119599646406275,-0.05722803185372962,-0.24965324847361892,0.05721738346436252,-0.5379516790865693,0.017592812822491553,-0.5289325635540824,-0.019693553495089063,-0.3025117490665025,-0.27692668895298295,-0.18883210000039077,-0.16214709302952257
b033_30_60_class6.wav,-0.16939346795476742,-0.29929278326701714,-0.30983316432835994,-0.2581316414162516,-0.20275780877454308,-0.1513307582660193,-0.278954646792335,-0.3689098239392277,-0.27956940427923843,-0.28246010818787165,-0.2868797601569182,-0.38359899978272505,-0.23192307851890298
a121_0_30_class10.wav,-0.06812376532080355,-0.3587289018875225,-0.0555664678629275,-0.12862836594735244,-0.11283960791865007,-0.32001860761513445,-0.37424651685497284,-0.08098994985716063,-0.44064955623807206,-0.3460458633886707,-0.16628627116306327,-0.4580384713198113,-0.1841336167390573
a018_0_30_class14.wav,-0.2578445935702909,-0.2663596627830079,-0.1564168878710422,-0.0979487043336651,-0.32777078825823347,-0.2927244871465889,-0.31434230427576487,-0.4339357891134265,-0.15824885108471456,-0.38388590225624886,-0.34175834481063144,-0.06569456955180183,-0.2339876241133613
b015_120_150_class14.wav,-0.22454368362492938,-0.3170401798192823,-0.16193775845547365,-0.027768482857727594,-0.4383179462828089,-0.037716192314553386,-0.3543851296620177,-0.4262667402832756,-0.2937814022465243,-0.3411890384690929,-0.2903327318684981,0.029782209225509334,-0.18258120828536456
a155_240_270_class9.wav,-0.2329836206550114,-0.3112834057568397,-0.1551678958941092,-0.17889006789123188,-0.27698067330493414,-0.26078903350923227,-0.32960736362940524,-0.3030161777440375,-0.3142966390126257,-0.3611701750240564,-0.24811591860449328,-0.3006091319620883,-0.25768173796101773
b082_120_150_class13.wav,-0.33586990799278543,-0.14117078721000148,0.11902843792261356,-0.4416404521273013,-0.04045337508030409,0.2283274102813876,-0.044476914384274126,-0.41544669059268774,-0.159014847812865,-0.6141347169971734,-0.10715036800056403,0.06029733971769774,-0.11018158779638233
b100_60_90_class3.wav,-0.2275935282245441,-0.23376043080296996,-0.2224617088759947,-0.2908836718229557,-0.2531055043928644,-0.08064457489739742,-0.2485652457066687,-0.42818902768192413,-0.2817512032079734,-0.39055595982701413,-0.26164082568096547,-0.11497179514618065,-0.36078542408117126
a031_150_180_class6.wav,-0.20464304133750866,-0.2518083276149145,-0.25890636140868645,-0.2529544535468549,-0.1980061395204256,-0.21369314716187318,-0.276362174984391,-0.3551662208795457,-0.3512398651304693,-0.33036832195785726,-0.23432695406438758,-0.3430541754051962,-0.2668278169662944
a098_210_240_class4.wav,-0.32980377117059884,-0.3350558083985526,-0.10362888274722283,-0.2104434119284785,-0.334059080322639,-0.44211535106051536,-0.04145101935269916,-0.35735812410664647,-0.189891119514757,-0.23388906674709378,-0.20694869740919913,-0.27609178276409296,-0.27863966959699793
a051_60_90_class5.wav,-0.30797467234445053,0.08966559551630951,0.0625976703077761,-0.38041765721145476,-0.08932909825900892,-0.15260497870704737,0.1587866519227426,-0.281955955742771,-0.46571320228598145,-0.1308218958045942,-0.3679671097842837,-0.4822244376414214,-0.10272260438805876
a156_240_270_class9.wav,-0.14445709895543649,-0.25184232258579925,-0.3614106043528663,-0.27667551580894156,-0.12880915966528683,-0.18949817136582217,-0.2450168866146458,-0.42390246388108443,-0.18565207704548278,-0.24755550905850873,-0.2578230178571754,-0.4612064915288687,-0.20341616162880558
b088_0_30_class2.wav,-0.21457279235767754,-0.11874132139006943,0.1331970721266224,-0.12502130723256638,-0.5368489909391243,-0.09276572395999699,-0.260424208713444,-0.23097575303801163,-0.08405880356960418,-0.6787792851825019,-0.05900968067021458,0.08364615873789742,-0.1010857050458611
a133_150_180_class2.wav,-0.3646625488056055,-0.192106649712008,0.250662496443498,0.16954318116876607,-0.24701847929876083,-0.12680796877168463,0.06328787339668931,-0.14745038744442326,-0.5418450677608104,-0.24382265960300598,0.3915913486478185,-0.24527296967984888,0.2629565376849695
a155_270_300_class9.wav,-0.21534532063233092,-0.21863721187959795,-0.18920773398152785,-0.11814314268790524,-0.35401037914023664,-0.2749638091801592,-0.3792193051709044,-0.26014367080020767,-0.2750152587900955,-0.39759117559593343,-0.25435253911617745,-0.22399981922173423,-0.30833921139830994
b089_0_30_class2.wav,-0.17552987068528542,-0.2920321740362963,-0.49821007085953756,0.2559568674828911,-0.25650393845168107,-0.29818945100063576,-0.2631700070805243,-0.16534160580190613,-0.08794760267443873,-0.288010680406241,0.008456512570837064,0.23997328719646863,-0.4129505281812031
b110_90_120_class0.wav,-0.3786892846166326,0.055136852668991286,-0.10088271651327582,-0.2247731998819614,-0.015252730642833447,-0.5734912763598657,-0.21426381828847244,-0.3231526748979384,-0.09402269513294777,-0.32920018371550613,-0.21479101658451394,-0.366185846799183,-0.12630214164462114
a075_120_150_class12.wav,-0.16826939283037498,-0.10891452998340416,-0.4246713608549963,-0.001288551766767978,-0.2614548432387923,-0.06112474935992588,-0.2673056153151533,-0.5151399165682441,-0.32121644756750234,-0.41478399707574287,0.09271995736061699,0.0329571058212395,-0.2926608687637154
b085_60_90_class5.wav,-0.34915736483804843,-0.37429283240216465,-0.15934062826893797,-0.45806769572261274,0.23371665364630573,0.010651954691469474,0.014657243188182083,-0.5232659697277274,-0.0991321552234734,-0.26460839838339295,-0.2899636107845227,-0.07967844341836833,-0.06121416263864625
a009_60_90_class11.wav,-0.2921810879348178,-0.30082080052275256,-0.07063166673839666,0.07736800563866836,-0.39733796954847606,-0.16607104079344243,-0.37568191611842433,-0.4343566962359751,-0.14706195695541857,-0.3072007197334267,-0.3993125770214323,0.1278243157969257,-0.07818971556426339
b075_30_60_class9.wav,-0.25962233444188226,-0.2781308144580634,-0.35503478212318335,-0.2748144291941569,-0.2472541944284933,-0.11371472944125628,-0.134028214496068,-0.3218989802643947,-0.251314143497919,-0.2304671112825889,-0.12716940811990712,-0.4929385078118257,-0.28737486914530647
b093_150_180_class3.wav,-0.24618448791159317,-0.15385248762804984,-0.05420658060540638,-0.1397195507818627,-0.306185359115661,-0.0075490068309390515,-0.25551963835122093,-0.5386713290029994,-0.34056888827099996,-0.30519683907315226,-0.41447635360312873,-0.10725555635375779,-0.22709574080890807
b042_90_120_class8.wav,-0.13779889883623986,-0.22320900057585627,-0.3640142093393814,-0.18286682149015787,-0.1596182819996701,-0.05410242088430812,-0.24373659321071134,-0.5391299943743948,0.02507761584259396,-0.17844206689492928,-0.3369531836127283,-0.4873978566887279,-0.0566062208135231
b029_150_180_class6.wav,-0.1983134152680475,-0.2707223697116654,-0.3219620337485176,-0.2674741234827737,-0.1599465536508214,-0.13280351049732858,-0.24317669153074925,-0.44268121978789693,-0.1656526526539865,-0.23265981669886487,-0.3657965507581754,-0.39773035794821465,-0.20072380540007712
a097_120_150_class4.wav,-0.22250721067759147,-0.32688622751678276,-0.15393251621968146,-0.3825884089053494,-0.08454681147104542,-0.22386159493457533,-0.13454176841692078,-0.45474929256215835,-0.2271318406137676,-0.2336098942834565,-0.2799517774954139,-0.1480826509076321,-0.4300492027389046
a095_60_90_class2.wav,-0.15022024142603174,0.04905838791691125,-0.29144874702380047,-0.1330862676077113,-0.13529225880794307,-0.20416432057246975,-0.27354826971678636,-0.5592499051745687,-0.03581712070894307,-0.5328474898283923,-0.022306308931732553,-0.2259286192434367,-0.296725501968936
b016_90_120_class14.wav,-0.25046736399906744,-0.2939429923859808,-0.21523570472356623,-0.18469157841083209,-0.2045935204697779,-0.21607234750572368,-0.27489366390670017,-0.5150377242494448,-0.11083420949961857,-0.2799720845180235,-0.41249222697505733,-0.24235865565956907,-0.14660808930997576
b067_0_30_class12.wav,-0.03433127272154115,-0.14650370361338494,0.004708622958881073,0.04263829193128319,-0.30136515129054414,0.3089238356836528,-0.25806952924611243,-0.5631222218543019,-0.18441554109095373,-0.3899800511993477,-0.3197355130786636,0.28655768739279475,-0.18739473172340632
a109_180_210_class1.wav,-0.3180133042616597,-0.0809426766639309,-0.016752655347707097,-0.34518484964189744,-0.2626193828998285,-0.1837311374873821,0.11544414792701206,-0.2697355283116843,-0.3728486652123869,-0.19566519461839982,-0.29200761444879464,-0.5416571619156398,-0.1676603362635098
b030_240_270_class6.wav,-0.2087536898359081,-0.253147475725305,-0.28008587192034395,-0.20029226754666524,-0.1517385227930233,-0.19893286625790665,-0.2451740433079891,-0.3149847635458975,-0.2529798526057694,-0.32507857224644343,-0.4001868843708872,-0.34390232570254414,-0.32211077452651
b078_60_90_class13.wav,-0.3705545736137769,0.013537343774501274,-0.12621199006634223,-0.286330382783233,-0.031164755457341674,-0.05745517903893831,-0.1781773590549241,-0.6332117344097878,-0.08014048758396469,-0.5450634452412619,0.08492674560063918,0.08061362832197151,-0.1019172018011396
b035_120_150_class8.wav,-0.19686914573317252,-0.20867392504032548,-0.3210240792045112,-0.25053097592228657,-0.17803268868912067,-0.10518059070952715,-0.2652576810151198,-0.47409969966817406,-0.001955929203496381,-0.16044732437716477,-0.39246837166691484,-0.48268115588421945,-0.035000787285107804
b011_180_210_class7.wav,-0.2314727409001077,-0.3994669589591565,-0.2090003232594286,-0.0737331033037388,-0.2637553312714223,-0.14480178783932454,-0.2427939907244115,-0.39317375101842855,-0.29667590663502663,-0.29596587893283577,-0.40030171505914514,-0.07459847311220134,-0.3037121498676905
b006_60_90_class11.wav,-0.2728983750113385,-0.19600604048642092,-0.2345871375814052,-0.25882064778520153,-0.2966673556185984,-0.15409760985159449,-0.30510880741293006,-0.36461129665643227,-0.22912581176306043,-0.38064233112328505,-0.2828150550148146,-0.12610504202516432,-0.36609346085669886
a026_150_180_class7.wav,0.00017841874897230693,0.15781559696841718,-0.353846200001724,-0.21506240465542184,0.015246907601799664,-0.17248786620225348,-0.3349626670331866,-0.5953392320972486,0.05877865330264697,-0.46442389000311385,0.08699323976316885,-0.13785365362846333,-0.24760044292561892
a104_60_90_class0.wav,-0.009469859040333347,0.05414635054009691,-0.45351960897891874,0.20468383854544273,-0.09574653250130186,0.03005873979132585,-0.23349360436493838,-0.609886244939716,-0.2654949466237218,-0.26664921472999614,0.35365854789044404,0.12803071778379688,-0.1726150631953234
a129_180_210_class3.wav,-0.2772860853405372,0.02947865407876023,0.024299158407915425,-0.4050597633814803,-0.020384745019249355,-0.13304930912544763,0.004835266913523682,-0.5188083037770848,-0.2573392198037323,-0.027477807327332324,-0.4868660486445605,-0.3676017295721492,-0.17643241653924263
a083_120_150_class1.wav,-0.26587046786933183,-0.21654601633614634,-0.26572207818094246,-0.3137538815988806,-0.28207375747782293,-0.23721274850045665,-0.21931953860187867,-0.33072511360561563,-0.268814244667863,-0.28948469640740343,-0.3325854188440005,-0.29916082548820666,-0.2527500636143799
b036_150_180_class8.wav,-0.24805195705142744,-0.2536122287356954,-0.20165266661301906,-0.2431414755134462,-0.1282882258196856,-0.3185304316925523,-0.21694201386974185,-0.4980789758963286,-0.07174048607054641,-0.2624750449797022,-0.38191383654699695,-0.3529706413444249,-0.1296810772078798
b037_60_90_class8.wav,-0.27672276769152826,-0.43048600127890696,-0.25616950948604733,-0.28144840605163784,-0.34242982136992695,-0.22637408106238974,-0.08020230092025411,-0.2350697960038793,-0.3468418071585654,-0.13106951415075827,-0.05673742167409953,-0.3358526630723605,-0.3310318133268479
a040_60_90_class4.wav,-0.2797078632312762,-0.2789253490134001,-0.11425022880235948,-0.39295807329245885,-0.18781669087451977,-0.17992610329297806,-0.24111084981166703,-0.44541490231571185,-0.2069601285647718,-0.2464842989524796,-0.2666149724269636,-0.04950624949388803,-0.41856444300888695
a155_150_180_class9.wav,-0.24630637131733807,-0.04407769111546365,-0.04616597976893276,-0.3736737704778562,-0.14387164743861675,-0.06232223850187991,-0.05450745377639991,-0.43268653273645474,-0.42270557738113984,-0.4099201227659745,-0.2960049423406201,-0.35917916725632465,-0.13233299440188312
b020_0_30_class7.wav,-0.20763087901095365,-0.30771573135142644,-0.1526571218971259,-0.25241555199291027,-0.24893801241891872,-0.15176139151988607,-0.1717582082518388,-0.27175756015502084,-0.3864988197587087,-0.3340445109456065,-0.3984348387666892,-0.19108616602476292,-0.36138153641674226
b078_180_210_class13.wav,-0.28310533159055423,-0.02720578078248715,-0.2398402391882804,-0.10353201951455596,-0.16753256109621933,-0.16410835859770942,-0.29536447464403914,-0.5718744008151003,-0.25173225285233014,-0.5176185200927941,0.019073287800837013,-0.026595850225171015,-0.22185714483422567
a156_0_30_class9.wav,-0.19952900425758194,-0.2518213599859387,-0.25920710015848203,-0.2778182714108297,-0.10690046441820229,-0.2462835840610108,-0.21180082642975842,-0.4964516086731459,-0.11616977558559721,-0.2600829687751848,-0.3616489009743872,-0.38916454286458024,-0.16005694957042782
a106_270_300_class1.wav,-0.40312262776616825,-0.0915557237681844,-0.22227896887130721,-0.3655826803121909,-0.06481072378694899,-0.198888157883052,-0.016078076914188274,-0.36931422959740295,-0.37255893165547,-0.2717432057756013,-0.11181108484539796,-0.46943493955866733,-0.1418704256106314
b072_240_270_class9.wav,-0.21643400816526492,-0.30700924609139735,-0.19740636286512617,-0.4193487173465968,-0.07113133233039487,0.18249202733097927,-0.053630003498074355,-0.5488057481328145,-0.2002958846169951,-0.3752219478169528,-0.17140789815191312,-0.0920022161077142,-0.28791850289814014
b055_137_167_class2.wav,0.06885767452969029,0.19189616376141985,-0.25546575811537414,-0.1630491449958908,0.07684753932176316,-0.2989461099597605,-0.3048081123790553,-0.5995468035081686,0.0741055232710873,-0.4552528191363406,0.1948958435423937,-0.18935653764932206,-0.17989158879259295
a089_240_270_class9.wav,-0.2453815202813027,-0.2251255758017017,-0.06964004011796403,-0.21765442813352218,-0.249052055231193,-0.1803956354394997,-0.17539623584668532,-0.5093010441960604,-0.3655752757739651,-0.3567340231123449,-0.2526001960891902,-0.3045207926749453,-0.18632787484146557
b087_60_90_class5.wav,-0.15816638583315157,-0.3505049477692291,-0.29250513969226005,-0.34801032179662506,0.1022767962384556,-0.1055975957116242,-0.2605814971820725,-0.3649818442182477,-0.2978942212691752,-0.48727547877049876,-0.1478500733797015,-0.26615724981399347,0.06209421473365153
a023_120_150_class7.wav,-0.15976470514611413,-0.11241367548893055,-0.24505232017971199,-0.15542636501405535,-0.16865892512951813,-0.28664262474553254,-0.38853919757558225,-0.5950703026294545,0.061735470070374256,-0.35911885519301595,-0.2761939276114939,-0.14810174709482604,-0.17593855732245392
b096_270_300_class2.wav,-0.337063015242205,0.3543634594088201,0.22530179528864866,-0.2557895971482957,-0.10420457063918566,-0.2472612795215933,-0.26573053822892206,-0.3241931981638333,0.13631084574042535,-0.3375340588044237,0.1905708772503882,0.07862792389978207,-0.47106864325059983
b087_30_60_class5.wav,-0.1826798246046004,-0.29483484274100746,-0.26115533561088167,-0.32035355998581644,0.03206293554377255,-0.0975457933382614,-0.24969747073769807,-0.41543026614783496,-0.29007027411406977,-0.4243642731664491,-0.3073060569075547,-0.32004313385800154,-0.04803350403770061
a116_138_168_class5.wav,-0.2717257589948625,-0.07364697700869226,-0.10882326538557616,-0.38629421389923113,-0.18067492072960556,-0.2380357299256898,-0.009477081963456705,-0.3369884682339724,-0.3886260025381347,-0.26387590804944694,-0.33674549739042714,-0.4186980205518418,-0.21760929728154746
a096_30_60_class4.wav,-0.2701486218377105,-0.2504024416864402,-0.11697923892374308,-0.42367127244882563,-0.18767079973105855,-0.17648560590878812,-0.17965274730411562,-0.4376470570966702,-0.20337684621927718,-0.2340526468670717,-0.23946882637561506,-0.03288868323122179,-0.47580408588105855
b109_0_30_class0.wav,-0.10411881757248692,0.10728039657393618,-0.2687176824626828,-0.14498241441679052,-0.021767230315670738,-0.3422542239535225,-0.4101234550450011,-0.5164685841345819,0.16269202861194715,-0.44719287730713814,-0.11648347148825115,-0.09561890617221906,-0.2875877988349008
a098_30_60_class4.wav,-0.3101822160150138,-0.35506254502687773,-0.13479180620741177,-0.22211553911027945,-0.29830762470408756,-0.36222805934247293,-0.10203722723488676,-0.3286037930735158,-0.22036493279696123,-0.29085787852969713,-0.26541939728522457,-0.2666116631305437,-0.3113463333244169
a058_150_180_class4.wav,-0.27777405140646577,-0.3076227031437689,-0.15949532371843378,-0.2914188378511789,-0.12647789324862863,-0.3419754172638567,-0.11869696714748339,-0.45138044206404015,-0.15865341872082642,-0.24298853528133704,-0.33974223639680234,-0.3006867154336616,-0.277520109130275
a053_60_90_class1.wav,-0.3379807774574863,-0.0007667106931935101,-0.1770140916455239,-0.37578906884472135,-0.20622038905028203,-0.23892651241078952,0.036399702039506536,-0.32771453761016506,-0.3239207663482317,-0.29920034649800376,-0.23079152426314653,-0.4676135157807476,-0.1962393223300124
b096_150_180_class2.wav,-0.3239118208887763,0.15102789775044048,0.004475971416296687,-0.2909580646504653,-0.09284124039126948,-0.36354801949666327,-0.2883662216253338,-0.440608865268228,-0.018136924142814235,-0.4821019131920238,0.02624821890088887,-0.1910005181598754,-0.3155880205362553
b030_120_150_class6.wav,-0.16609009888617787,-0.2181666055266364,-0.3245924278710128,-0.26176107879430144,-0.1548507398947885,-0.16858111794459274,-0.25193926487383667,-0.3738804366845041,-0.30819640838458773,-0.32140779828808036,-0.26105922017151084,-0.37331278149264335,-0.2991281287080008
b038_90_120_class8.wav,-0.2758218366762026,-0.34862300275952,-0.19799058981376133,-0.17537256434062404,-0.26807822015152316,-0.28726228972450674,-0.2585811062014026,-0.453036352403306,-0.2230555690164435,-0.2662043999946099,-0.30278075371447144,-0.2344839161064495,-0.1966198486990232
b006_0_30_class11.wav,-0.25691068280402496,-0.24542101689796214,-0.1989169773351204,-0.3008913078935586,-0.31996122117277814,-0.13154873278545318,-0.2855332898917751,-0.39357764803934503,-0.22909915073727014,-0.37700193976902174,-0.2856387512355448,-0.0793906392476718,-0.32409836839726125
b007_180_210_class11.wav,-0.22334444050138316,-0.1730742911057623,-0.21591365359344367,-0.058149533082762,-0.42500817012151193,-0.18212158007677273,-0.35637811827931043,-0.23325815925195803,-0.25365991459345716,-0.4195510234768752,-0.3291102608533599,-0.08052708977595588,-0.3460967212285228
b045_30_60_class2.wav,0.015865346061750392,0.07462555843362344,0.194063889091596,-0.40399059554297984,0.05642220837015434,0.6099274434308181,0.2316949243451186,-0.20395119462953692,-0.005264747817489002,-0.5453882404180183,0.07724408299878338,0.09380980767836615,0.10292504141335367
b008_120_150_class11.wav,-0.21654972359039273,-0.2691691928562699,-0.1933860335739692,-0.34760512361160917,-0.2100441102255304,-0.1321792849966248,-0.20882902214663548,-0.44069719510124916,-0.2709755379842729,-0.32503527459299336,-0.2515525932066416,-0.10005169630508277,-0.4130962260852945
b096_180_210_class2.wav,-0.32558833905464124,0.33150377737748987,0.22229050540815115,-0.29791036565866413,-0.22756316516894232,-0.0996103840319188,-0.18914951320685694,-0.43930322778125486,0.11752015297040914,-0.35774390063611133,0.21710904643245402,-0.01822830893423551,-0.40767811220931605
a071_60_90_class0.wav,-0.22214330983396469,-0.17043179747284273,-0.3828850703264794,-0.03279233999062905,-0.14033988111796475,-0.07123562561666998,-0.2910130878738269,-0.6438104524161606,-0.1872374579852348,-0.40382172239463887,-0.02012971422456916,0.07103355758831062,-0.21540172764601695
a112_30_60_class0.wav,-0.40143743205432714,-0.22683945856355794,-0.30830431133674,-0.07784080404422292,-0.11492935340602418,-0.23802782572989387,-0.25757778077077687,-0.628116220610197,-0.16989423081976504,-0.289733342217879,0.0012295663048885693,0.08949599394751091,-0.18632848188119283
b059_30_60_class12.wav,-0.2264352547019934,-0.20896330825602616,-0.17589241027461197,0.0999955260686426,-0.4019797315119904,-0.2304840048000743,-0.4020223490517382,-0.47047093776588395,-0.19373256521117138,-0.337459099436051,-0.14930097321240762,0.19252569683357515,-0.23596787368484223
a140_210_240_class0.wav,-0.38446999194156445,-0.06847682867828611,-0.0350232700051084,-0.11031172576599713,-0.1751942102703069,-0.5144506453632117,-0.1763838173706944,-0.3548293304562521,-0.19500344490811666,-0.3761537697034528,-0.27886830597388934,-0.2947209326200112,-0.19386824946038853
a059_90_120_class4.wav,-0.21459391300712372,-0.33384902586645715,-0.16344034379896444,-0.367537062565422,-0.020295829499424583,-0.19762464716323136,-0.07253486875106852,-0.4996192075784866,-0.20427610686163106,-0.20570984241196047,-0.32054746371872656,-0.10989043254291253,-0.4329874244129273
a104_120_150_class0.wav,-0.40324884651315895,-0.05429873330810088,-0.392400790607127,-0.18682552841820876,0.1362027080090027,-0.09196542821219376,-0.1914650752846457,-0.6128626823370316,-0.11061968429216351,-0.3968443959740519,0.11057896140412193,-0.061187907532772395,-0.14351878203359272
a121_180_210_class10.wav,-0.06727702044205094,-0.3357714186384516,-0.07384309096444382,-0.1508473415396047,-0.12704349287456634,-0.33520409517753935,-0.3820750408366231,-0.08122685729864418,-0.4101209532352673,-0.3496675998827556,-0.1644771072361976,-0.47884121317715683,-0.1632005140880315
a034_90_120_class6.wav,-0.20752193600617186,-0.33657117209226844,-0.23137883188542116,-0.310719496605056,-0.20920493537831397,-0.19014757389245535,-0.14546434062736682,-0.32838394746235117,-0.3644955671971958,-0.2692677802512557,-0.3295582546949434,-0.19509736942251363,-0.36416925159543295
a156_120_150_class9.wav,-0.19437692233993914,-0.24395030676860074,-0.2324341559922796,-0.30184925981577165,-0.11128808831626169,-0.24865835992648413,-0.19865937066098152,-0.5455605642853762,-0.10781307519560289,-0.2901342517586028,-0.328974571117118,-0.34734900796822793,-0.14687480704298114
b096_90_120_class2.wav,-0.30459837287055397,0.2780577083244754,0.06456134231172052,-0.33025775951210995,-0.22857752579807697,-0.1436958950869291,-0.23153386875572854,-0.5564500962014818,0.14170045501025982,-0.3567768388857121,0.046082999417397554,-0.2350499291046306,-0.27528840552350337
b072_30_60_class9.wav,-0.215432202024135,-0.37157000592105455,-0.28443017331605935,-0.2906295044726469,-0.3479256168936324,-0.13205027678908104,-0.1848974764012636,-0.265719459501328,-0.3833278035354273,-0.19558682512975417,-0.02088796955813642,-0.3183504852733361,-0.34626217865434894
a006_30_60_class7.wav,-0.23660756510292208,-0.19990620220800903,-0.17070583872673686,-0.4620597972521417,-0.18296285036815005,-0.26548713193925955,-0.07588591637412273,-0.43822926260696926,-0.048143282926448844,-0.3745069838948395,-0.22151298237271896,-0.12713563841767095,-0.38967617517769426
a126_120_150_class1.wav,-0.2564417663602695,-0.0358344820829745,-0.07003521851457076,-0.36950440278754415,-0.17857089913249413,-0.20858461053322153,0.029663684889922038,-0.2873533327599154,-0.47613423921487497,-0.20138857680919647,-0.3098620821239587,-0.48548500088204327,-0.18356668648954388
b072_180_210_class9.wav,-0.2315955611796381,-0.40427168645141526,-0.2898417697853753,-0.29230565350393056,-0.36944775363550447,-0.17601805494344006,-0.11533878728333667,-0.19850055356980703,-0.37545031836915077,-0.09504303257275802,0.020806247061645914,-0.3721630970755367,-0.3230528729097876
b087_90_120_class5.wav,-0.16987355232491458,-0.33412070274869937,-0.30573050869509455,-0.3158791969953099,0.08632283979523454,-0.08173195634198445,-0.2674657441530694,-0.3495571531531909,-0.31043240917027587,-0.49208151554123597,-0.14515923081747759,-0.3130766728241518,0.02819475556486577
a001_30_60_class11.wav,-0.26815573604967796,-0.2578893560358128,-0.08843635319294513,-0.533966676257417,-0.08272339490690611,-0.07613379175275145,-0.037131405554100216,-0.4893769679457871,-0.20942271790021888,-0.2059264650928436,-0.2545101860228224,-0.06879942405568618,-0.39920386980051176
a145_30_60_class12.wav,-0.2965434674785196,-0.16211097043866673,-0.26832872994573015,-0.009114558843888466,-0.3108558283752081,-0.21023611272612217,-0.2594942433774979,-0.5118101601081556,-0.3659727664799957,-0.37481742309110955,-0.11426097772062721,-0.13765190304781488,-0.19275208765919727
a062_0_30_class2.wav,-0.23962219265545248,-0.08857542996561164,-0.17238601935153477,-0.13481946140593604,-0.21622872940316545,-0.30850324880868374,-0.23969769841427505,-0.4985428421094238,-0.11042855782315497,-0.5612888499989127,-0.053754740399118234,-0.26634622932821944,-0.19453476721281046
a023_0_30_class7.wav,0.07919499995115478,0.1730972183876866,-0.27554433378815596,-0.27049395273799287,0.07772556108708956,-0.26903086703147894,-0.3681725470787258,-0.5204178191255959,0.11560206269152597,-0.4235341728754509,0.0850148806039002,-0.2339234574979339,-0.2741833311618319
b087_120_150_class5.wav,-0.1608875643998943,-0.2724056565999656,-0.29107323883962577,-0.32007928866355906,0.09013738763867339,-0.1253826524623904,-0.27089930109293053,-0.35610635700628884,-0.3318103395366086,-0.478204960957684,-0.22152200760548527,-0.31681906429476286,-0.021629516637701966
a082_30_60_class1.wav,-0.2739079733524249,-0.04139363819574239,-0.05995595963812182,-0.3859352248161236,-0.17893121068776088,-0.12661758149016125,-0.06719831776528408,-0.3297159892719773,-0.38135876771414384,-0.2261422578942368,-0.44628069843361806,-0.43726210575588126,-0.15001398256755877
b078_150_180_class13.wav,-0.2879843359587983,0.018740356574741632,-0.1036808355645258,-0.15541005867232804,-0.18973202502080108,-0.04487726707686395,-0.2897519967665612,-0.5502733137120835,-0.21535311934442047,-0.5881408425212337,0.07651715796577777,0.032275962428661174,-0.24053989186503644
a021_0_30_class14.wav,-0.20740359797573188,-0.3218735176399703,-0.1284511396969512,-0.20604030504737192,0.03680303903939514,-0.42145888106452484,-0.0762926653401544,-0.5109735262116167,-0.11856347715310053,-0.2840104002025211,-0.3945846598454716,-0.22969204997484877,-0.21297328251673478
b004_60_90_class11.wav,-0.2975196400445413,-0.3549866190660536,-0.23016509205937233,-0.18447453016283405,-0.3646290147916205,-0.24921193524394572,-0.26256305395581925,-0.32163867226149295,-0.28770944964181755,-0.2536891979539862,-0.19971344582542078,-0.18741546887696608,-0.3299440669387281
a023_30_60_class7.wav,-0.0120497882674808,0.1117320540066623,-0.2910007046856085,-0.26833415804361516,0.00883446232647353,-0.3043955812331008,-0.3615697042800775,-0.549205765769416,0.10388376418193647,-0.3976672925406589,-0.007585257041887486,-0.27960156024063226,-0.24171491011657198
a019_60_90_class14.wav,-0.16769541896659115,-0.26420916909472186,-0.1177315286358524,-0.19142335960445836,-0.2974799915416001,-0.2092429332464546,-0.13845313901480283,-0.4335437472162808,-0.3553657158844958,-0.3790265937769618,-0.22416665117096743,-0.26985675582991714,-0.34517015524466554
b009_120_150_class11.wav,-0.23607411504395726,-0.1454441432294634,-0.25496531682407586,-0.26259132448627354,-0.10997775878819142,-0.020054137760134014,-0.2563041363128669,-0.34479753047090944,-0.3089276833219605,-0.5347695515637271,-0.12756981269538384,-0.3779444731030495,-0.2270422980104904
b109_120_150_class0.wav,0.04130284444136012,0.15267949509526962,-0.288722363445293,-0.18888061534205944,0.0010960496296507317,-0.2719984389376387,-0.40422051462512554,-0.5826598453976852,0.20400172007161066,-0.4055151491703259,0.02664181816591707,-0.11252854605898745,-0.24422077444184362
a045_60_90_class0.wav,-0.11792932547747885,-0.13395049758557367,0.16713820844925142,0.08537665013276864,-0.4533756292606709,0.04800442664219334,-0.34593443373828514,-0.38715694848845067,-0.14356918028372256,-0.5598364575031001,-0.15722384832289965,0.3093949548081115,-0.0322027741798391
b041_30_60_class8.wav,-0.23139077938048558,-0.415498055103578,-0.18535860209963054,-0.4849767286378302,-0.11321373555972246,-0.11617050352634643,-0.1751758828226927,-0.3374081345188289,-0.17940878139934852,-0.12529928777451108,-0.2549866608133471,-0.09185532681172957,-0.4605134516414124
b092_30_60_class3.wav,-0.21916426110806225,-0.1291505566782005,-0.09111326006484395,-0.23516753620486586,-0.20800884646389528,0.022760434212835107,-0.21521593520823565,-0.5612726999082065,-0.3037541106425759,-0.3972228796437574,-0.3514415066669074,-0.17355155722908847,-0.2507334294546065
b103_30_60_class5.wav,-0.22710334668470525,-0.3872876043921985,-0.2387287574347587,-0.28347954638105005,-0.33717053467808766,-0.19078743676305499,-0.08858883463561369,-0.21951503228156538,-0.4107137609142497,-0.14805095867893442,-0.10783326094377996,-0.34430668492897143,-0.36630817195632615
a145_60_90_class12.wav,-0.2817319649937293,-0.2667189131635278,-0.1674806977873183,0.05510802730944469,-0.4196113437892634,-0.06944340560194004,-0.3475181485914182,-0.4797015461465266,-0.292582657419379,-0.34666925096035167,-0.2637146408724488,0.05472706143794949,-0.09109497798592396
b020_30_60_class7.wav,-0.21455021036028118,-0.30501552692766676,-0.15069022636010226,-0.2720803760644905,-0.23476906632259786,-0.14807584670788052,-0.18576196540068468,-0.27700441084142036,-0.38746739947643666,-0.3238078175879804,-0.39480934283699465,-0.1796251795754789,-0.3644096969005488
a099_0_30_class10.wav,-0.18823558666004764,-0.3154105382534338,-0.11496643273864647,-0.1570644789701239,-0.19892857870214375,-0.32760684142927327,-0.3272549715757306,-0.25154341995678225,-0.3301722090573415,-0.3382073282790598,-0.27069841135824296,-0.39870682174450034,-0.2329928118834838
a104_0_30_class0.wav,-0.12862392535257677,-0.04491562962607705,-0.4267275204659465,0.14254522073378104,-0.2545846978560841,-0.1353972642476243,-0.24483114698700065,-0.5450888234632082,-0.29575597366471684,-0.3845221482938264,0.06089722751623382,0.04816939845901811,-0.3121784907124597
a026_30_60_class7.wav,-0.11829628712655643,-0.3603940887984344,-0.18708074492348192,-0.31262882948478565,-0.27171890541155763,-0.3415151054203326,-0.27212339224175536,-0.4892106573979724,-0.13006091366385697,-0.23475074210631394,-0.222841413633354,-0.23769330906186867,-0.2033814233758782
b082_150_180_class13.wav,-0.3935698575778801,-0.10381091226752183,-0.021777571503112218,-0.2747226705899717,-0.1548815811345057,-0.1136258355624766,-0.2524298077112834,-0.39865461485380443,-0.14811917752758663,-0.6274758935689473,-0.05034755808975154,-0.09595623608786627,-0.26725651588860844
b011_120_150_class7.wav,-0.25496596851711784,-0.38671388203130536,-0.20035064933747285,-0.01862557424700496,-0.33105844775424725,-0.13054757447031107,-0.3111544644889258,-0.4110954321922776,-0.26221596310359024,-0.2814764042562624,-0.3921956090395835,-0.022334002534131158,-0.22404493430481012
b044_0_30_class6.wav,-0.1644455726593204,-0.30324105454192907,-0.2824843614923276,-0.32701414629562525,-0.16886974931092266,-0.10985167408959295,-0.19376150107189535,-0.43852571635034704,-0.33861783756801384,-0.3003292898567789,-0.21899771409013444,-0.22936172683985787,-0.3441040854105662
b085_180_210_class5.wav,-0.2620008206823912,-0.050253087182433695,-0.04047560759724204,-0.35353313109023415,0.11648948826188957,0.006584296416286193,-0.030425236939947448,-0.6123661889243679,-0.3104858121285495,-0.2246573056983207,-0.4167359126064105,-0.26608949627903317,-0.14604884102058374
a137_210_240_class2.wav,-0.20784141955269708,-0.23104877106782737,0.293984805367305,0.0961918003962356,-0.36591215485363365,0.20470253730096163,0.13635594009447927,-0.040595035552958764,-0.5003998784431042,-0.2966648622323113,0.4358215338132705,-0.11143712792206081,0.26633442634085025
a156_210_240_class9.wav,-0.20624138960960173,-0.22598258734689639,-0.3211165769407644,-0.27657802026645234,-0.17469030524578827,-0.22624616662357153,-0.22785281025812693,-0.4701502506633732,-0.08123951838737442,-0.25105428245747985,-0.31863656712800276,-0.41756597282893454,-0.1631079228100448
b103_120_150_class5.wav,-0.24084836419785527,-0.409253099530962,-0.27228152663758054,-0.2780046652058772,-0.3674726101789121,-0.2316161586359597,-0.07655466999286241,-0.1647927073409784,-0.3596862216139608,-0.09192067950813047,-0.05783305344957919,-0.41000352113170674,-0.3034956104260233
a105_120_150_class5.wav,-0.08949983111551159,-0.21694658544560108,-0.24898990788150466,-0.2589277719153352,-0.16617971646270538,-0.2479255575662946,-0.2899561567178811,-0.3427175246125569,-0.3317563615582075,-0.2832327568915507,-0.1996634696381023,-0.452019715529806,-0.30133260178457744
a057_150_180_class4.wav,-0.21745675226676994,-0.3463399685787425,-0.18959114941556965,-0.347273587829526,-0.0283375908993308,-0.17435989714197234,-0.08328569241610488,-0.48756190161889107,-0.20210445604267038,-0.19426379078066078,-0.3486244518778352,-0.11309146574118346,-0.43295104968757525
a052_30_60_class1.wav,-0.3202855553965865,0.012102124552261166,-0.11424215964636839,-0.41432019267133535,-0.20278060273268228,-0.20978405510757744,0.08142007085875815,-0.3347048797124746,-0.33725501117998224,-0.25129656934743444,-0.24205390508135805,-0.47688456203403423,-0.21417846442259103
b015_30_60_class14.wav,-0.20434311934382143,-0.28461496915127077,-0.21608596846580638,-0.09109710627349167,-0.351313625672214,-0.1114297400680722,-0.3348012641704237,-0.3896294384682535,-0.2926792471541241,-0.3782626589217929,-0.32775446539867276,-0.04983735663382702,-0.2895772978887452
a082_150_180_class1.wav,-0.2607124812121278,-0.07305740023270854,-0.030953678241270703,-0.36755210578358505,-0.17921582552189996,-0.1276552941085704,-0.04753644836882429,-0.3289649866435573,-0.39287712073588305,-0.2535719791166553,-0.4694693381148873,-0.392729280488033,-0.1961074893596599
b006_120_150_class11.wav,-0.23204745975666372,-0.256558691711952,-0.23660150324788537,-0.30709931103494775,-0.26257145789489544,-0.10509314975276347,-0.1983354683982601,-0.3220875857879283,-0.3254477907416552,-0.4109276032114146,-0.33507182831607346,-0.1854785382333753,-0.2924422447677551
a133_0_30_class2.wav,-0.16669956994434892,-0.15120459424728838,0.022997250501528864,-0.18616311829875445,-0.2145196191742747,-0.3934596493343622,-0.007856380425845463,-0.4648568092410816,-0.4206969530209485,-0.49345812305468867,0.01324471961177718,-0.2706689296424651,0.05706284146611705
b032_60_90_class6.wav,-0.22255414093439732,-0.30242169263766483,-0.313420604528827,-0.23183015052100645,-0.1782130212954871,-0.20288993254466978,-0.25045008304707816,-0.3241333254137904,-0.26268661741565974,-0.30838169012896877,-0.3190196101695002,-0.344861735927314,-0.28550755393929006
b023_180_210_class14.wav,-0.03621424696695411,-0.1936268339769938,0.14920707344185088,0.157622618899689,-0.37077617423247655,-0.011548365930121386,-0.12423866431882923,0.06009587958135179,-0.4457063921351587,-0.4350087932567484,-0.4739163662601675,-0.02339667281234983,-0.38000457290605216
b112_0_30_class0.wav,-0.07433694347759183,-0.09999844819333716,-0.31638508821565137,-0.026058127242951836,-0.295713369256896,-0.21225384316025692,-0.43580164616406536,-0.6173002633439487,-0.09150059592985614,-0.36964245922027206,-0.05560702683359791,0.042373003518326166,-0.17412489471913647
b020_120_150_class7.wav,-0.1985578458929933,-0.28552595316934154,-0.10987448422414231,-0.20991859931953855,-0.28637614606781303,-0.09375245872023868,-0.15453107992668666,-0.2595450448223934,-0.3892940026271208,-0.37567217208998555,-0.42886657155578584,-0.21357419734396085,-0.34445218889706875
a107_30_60_class1.wav,-0.2813090663451962,-0.135110774703136,-0.14054156102150991,-0.28054070886461835,-0.12146417111400006,-0.24104172290706666,-0.10436340975086912,-0.43098011667968933,-0.15742703628626065,-0.3225546497575547,-0.48853430940838377,-0.2469514020805964,-0.32586728654347824
b112_60_90_class0.wav,-0.06862135532888941,-0.03300847429468126,-0.30962436646258235,-0.09477585556853706,-0.21766252883880963,-0.24750154070615982,-0.455576001883991,-0.6100274250302121,0.007198450622972817,-0.3922840346430912,-0.07948064067321346,-0.029058597260450396,-0.19983678683774755
a076_240_270_class13.wav,-0.47675887509929893,0.07006273911866644,0.049071623192546064,-0.1721654687765842,0.14650739239864977,-0.16409268124711937,-0.15091681670807566,-0.5527888152115474,0.07635150525919482,-0.5419208672949845,0.09615923994418195,0.22404537986143852,-0.007093692679473545
a071_30_60_class0.wav,-0.1406603117769741,-0.17139035884833315,-0.3654109750129472,0.026635526249400316,-0.2960302492028791,-0.12542139022894297,-0.3519046016107551,-0.5727191228431816,-0.2798281354398333,-0.35335339402124794,-0.08413729015071406,0.019464298678578636,-0.22533655900443292
a107_120_150_class1.wav,-0.2991611342244206,-0.0704168427515862,0.002028027329030318,-0.3427549263126971,-0.21449416929291362,-0.22162085755521532,0.09384171366343144,-0.29613396740503656,-0.43917130044835057,-0.16037948385082468,-0.30276568909513984,-0.4999898064620788,-0.19022093876461074
b045_90_120_class2.wav,0.041811497614841917,0.2175168644399053,0.15019489903918648,-0.41889022707085743,0.11449904290212043,0.48993214167246063,0.2188448709693,-0.28928036922946976,0.19605941232193946,-0.5055771574307554,0.19679414644312299,0.1531327426101721,0.10938834612891203
a096_0_30_class4.wav,-0.2554560308902801,-0.27411019307184326,-0.11562097461627231,-0.4668968463902929,-0.13826193196615938,-0.15428214604339424,-0.1131254148061152,-0.4512680955541889,-0.2076284973045394,-0.20237502683359082,-0.2243173563088902,-0.01399496233282505,-0.48405161681953807
b092_150_180_class3.wav,-0.2740820803738018,-0.180810278898131,-0.12161749183572165,-0.34655251151434074,-0.24653075778436412,-0.07903892661962501,-0.1562831920352825,-0.43515153794511313,-0.2895068014341811,-0.4074323897579169,-0.33769024305856815,-0.2526401618148016,-0.22093945605647056
b034_150_180_class8.wav,-0.2260262857350881,-0.2789893182212445,-0.16116326933918004,-0.20844658864837814,-0.20880864126683846,-0.33418735816209666,-0.2775597327902053,-0.41221216645185027,-0.21491107426209904,-0.32784541217727786,-0.30075031671315505,-0.34151706746737015,-0.1966187676970064
a003_30_60_class11.wav,-0.3415242528350613,-0.3050353772293119,-0.05649028454702187,-0.10767378116107126,-0.2829143855486212,-0.4436271186488935,-0.1652371684337459,-0.36493237923443883,-0.25998150207745274,-0.2793224967017943,-0.23087675455934897,-0.29788154588255267,-0.22484738159495038
a084_122_152_class9.wav,-0.3192756012067419,0.06157598255906362,0.011494613165030242,-0.318452346038704,-0.04449090218489602,-0.12426768422995167,0.013273415485165065,-0.437826947519889,-0.3942546606985117,-0.2217836868844387,-0.3905788293505897,-0.45842748118102183,-0.1269040191359535
b079_210_240_class13.wav,-0.30327210132501103,-0.29584076420413197,-0.17444897445275936,-0.17161447438138308,-0.3214127404003984,-0.3509425396059445,-0.3161951876941191,-0.40574772391008496,-0.18747938364740258,-0.2861277151887824,-0.27144618502155016,-0.22146795669905434,-0.1726099603532237
a071_90_120_class0.wav,-0.111345565584668,-0.15749472623127392,-0.4034304481058144,-0.08688634480311515,-0.24385543372406845,-0.1689121431602947,-0.2924675613070834,-0.567992648962294,-0.23284396749089803,-0.3914138256393781,-0.01598940565770756,-0.01670042504348754,-0.29729924843079075
a130_90_120_class1.wav,-0.29869485734141227,-0.21076927931339734,-0.08150353684440935,-0.1823454076640152,-0.3468535706196953,-0.18913767250988558,-0.179607660180693,-0.417225261085111,-0.38448021409327376,-0.3091257798089034,-0.3037503506987459,-0.2931025956460704,-0.20613476244496526
a023_150_180_class7.wav,-0.0978089590729509,-0.1428540093437722,-0.22914424601877775,-0.22266545665921506,-0.22001377244442982,-0.30532947387630355,-0.4063345459245953,-0.5706984599221311,0.03879398248218031,-0.35410811266111175,-0.21568286743583143,-0.1673644951952852,-0.1845941584343822
b107_90_120_class0.wav,-0.4243138603120512,0.059664699376961255,-0.09906920582140082,-0.1930387262175259,-0.013786680288565428,-0.6006835161834081,-0.20940022789238355,-0.2774794639620291,-0.0391952640839636,-0.3514129024947368,-0.18135153264433765,-0.3318999142515691,-0.13925486872873977
b053_180_210_class10.wav,-0.19082336052125035,-0.3134921044025266,-0.280011164479106,-0.16221786545516031,-0.18027262195260657,-0.1630266762708594,-0.22361481259399732,-0.37792170099690814,-0.30899168100000035,-0.3447281431901743,-0.35648785878650757,-0.21058543197264104,-0.3506291150169919
b099_60_90_class3.wav,-0.18094078559374113,-0.24865684413086225,-0.17253535086628818,-0.16872923895091294,-0.3498109921187603,-0.04796034558443494,-0.2541619454142476,-0.4166607940494052,-0.30377063181240266,-0.36297168678680497,-0.3634720959482958,-0.06716535478089831,-0.35166969484633
a005_90_120_class3.wav,-0.3071994339032833,0.009291679928910673,0.02518527222806195,-0.3627370813143008,-0.10384182547036193,-0.0852595315064638,-0.017814771010699216,-0.47292969235597293,-0.38044929739262756,-0.19985154144738118,-0.43006184142779413,-0.3582927986725052,-0.18245078363740821
a001_90_120_class11.wav,-0.2215035203847645,-0.30119323806045156,-0.2283392643599921,-0.0881277651623363,-0.21119458134948868,-0.25747839174818743,-0.23663662516971226,-0.3642603289388143,-0.20836630923006536,-0.3668976730922547,-0.4325024528767948,-0.1514456280806591,-0.33572038483244304
a039_30_60_class4.wav,-0.18370027291635865,-0.3362052367102726,-0.03521469925743352,-0.5761872657203172,0.020759440504554985,-0.07565486108467878,0.028116018335388623,-0.4660437328883969,-0.17633707257677125,-0.020729607831910964,-0.09877563200852602,0.06888234775581023,-0.499820609191698
b014_0_30_class14.wav,-0.2595631956758123,-0.30973417253023167,-0.17055603226639918,-0.06977842449448335,-0.4182233188036763,-0.09121999066123505,-0.37545100894477973,-0.42985032370733994,-0.2513514919680168,-0.30922092573564425,-0.2971187036180773,0.035911900221517586,-0.21307831215134077
b015_90_120_class14.wav,-0.23318071000990942,-0.30823314113573225,-0.2109659589684136,-0.08149264325443849,-0.40928722316659033,-0.09764405451549271,-0.3544625431042095,-0.40675925239113553,-0.28630329565246315,-0.3390514367717337,-0.27590892704446085,-0.021899861975982843,-0.24040264200221126
b008_0_30_class11.wav,-0.23211531892506468,-0.2689412129424331,-0.1839157060874754,-0.19567259875245535,-0.1896130458689808,-0.32201471835362083,-0.22711251912856192,-0.49642086808346236,-0.1393580299429359,-0.3672456402139359,-0.34930976204064135,-0.195544497165954,-0.22242978272916913
a155_120_150_class9.wav,-0.12359368282814716,-0.26397597815758206,-0.03279868069457355,-0.20516411815075936,-0.1717806072055533,-0.3062129024803288,-0.30141267106077124,-0.24262795574995782,-0.45570594082802623,-0.37047888597349155,-0.1882926244106562,-0.4188881122553438,-0.20745240752928834
b071_30_60_class9.wav,-0.26736561960024513,-0.4310544422472448,-0.27267239417297573,-0.18008245365011444,-0.14672856554166785,-0.16620215148485035,-0.23692004397390604,-0.3612224852614213,-0.24812965525889374,-0.4867449878039492,-0.11382385570613157,-0.26726602580893516,-0.13147829770804248
a121_90_120_class10.wav,-0.14282553381482777,-0.36265849892626423,-0.10285998736379919,-0.2130431466008376,-0.13149134094515139,-0.29767271740632795,-0.30557581845444265,-0.22444916546439725,-0.3956950876066847,-0.33308744661724526,-0.23528285098861668,-0.385163615482472,-0.26688614143241585
a051_0_30_class5.wav,-0.27915601666672185,-0.28864216782535274,-0.14253307248882496,-0.21067007585707825,-0.3268797193819672,-0.2456158135772199,-0.1737604925113169,-0.4070222899595628,-0.40110284991488426,-0.2546328857161123,-0.26920539380126546,-0.25250401584474,-0.2215208857548446
a122_210_240_class10.wav,-0.09034376804662421,-0.35135242748575035,-0.04676032273129521,-0.11893243143580517,-0.1284155592279661,-0.31209086988199575,-0.37513534874230187,-0.0954826336407686,-0.4370056606536168,-0.3293327660647027,-0.17562858971152537,-0.48754916742492366,-0.14261726297820776
b018_30_60_class14.wav,-0.12901687800469697,-0.24314123338506569,-0.22634063305153518,-0.15880211581191755,-0.30022525929163996,0.034388722659715126,-0.32778898204466433,-0.4553669826485401,-0.3583493269787685,-0.41855290432425446,-0.25250694469794366,-0.09431264447752176,-0.25575552695640436
b041_150_180_class8.wav,-0.2905523052393739,-0.3657551404501089,-0.2047699035258764,-0.3458642178455665,-0.25483223568878544,-0.19403617214737898,-0.2700580274145138,-0.3357053498959639,-0.1996847619934355,-0.22275567858965772,-0.24608409199790302,-0.14010308141048394,-0.40292740008528066
a016_0_30_class7.wav,-0.29700730668842623,-0.3676177746941583,-0.18754148767464088,-0.21205370749551755,-0.2367719994563342,-0.08228062733301063,-0.19927485759978875,-0.45167713253086106,-0.22423808941252374,-0.30637367866588394,-0.3869778573895342,-0.05030610990519433,-0.30581259985647347
a152_30_60_class13.wav,-0.2571634880309192,-0.22407859921077647,-0.13128314224248397,-0.3004761189152894,-0.18017245481912122,-0.08142183118250665,-0.20410878507165442,-0.49433247971298466,-0.365763070648126,-0.4539461702455385,-0.1936065646176926,-0.2162361474602917,-0.16409330562428392
a084_212_242_class9.wav,-0.04541591309091008,0.09955367216221782,0.12015821177398688,-0.17832076660096996,0.12303237656582296,0.006164705644342193,-0.15558887148374276,-0.4079531267854386,-0.506779819230391,-0.4629082665855642,-0.05587210711057604,-0.43958676769357186,0.26175080236714154
a038_90_120_class6.wav,-0.24826380967459435,-0.2367328340633567,-0.2598567460684216,-0.29038660348450074,-0.2181490840667545,-0.24949770196727286,-0.24496928168183693,-0.3861505273988107,-0.24274951372599196,-0.24387059961457433,-0.3648496661111048,-0.34061801892961086,-0.20970532593606558
b097_120_150_class2.wav,-0.41446826034115325,0.23488073629678685,0.21194655805508958,-0.35520828856274833,-0.08811123580886296,-0.14224687671725986,-0.1625942358406203,-0.3548573086203155,0.012757953700873282,-0.5236445412331321,0.07073146083567404,0.030148384535041137,-0.37592051652182984
b084_90_120_class5.wav,-0.2636600466051601,-0.29598375807896143,-0.17690860320739088,-0.39017924713148117,-0.029735636834651087,-0.1386036420952489,-0.1643660270896265,-0.451914848515439,-0.27734609200085986,-0.3589094318795603,-0.32355599906790594,-0.2910716563484956,-0.11337578411726318
b054_90_120_class10.wav,-0.2442685356462604,-0.23830696781500801,-0.25667880328534454,-0.1533870190027051,-0.28849633056420043,-0.24786302738239513,-0.297659354932287,-0.32992811522451826,-0.22041454471737731,-0.35696803565351254,-0.3452807718076929,-0.21953728626035998,-0.32952547489239364
a113_155_185_class5.wav,-0.29470110050205195,0.013185462433009304,-0.050722674125831285,-0.3721401397624763,-0.12553284718209967,-0.22237920204467862,0.05013273624916358,-0.27638194102064295,-0.4965167693275132,-0.17294578844365407,-0.29908954792118825,-0.5010087676504861,-0.10441056918899587
a106_240_270_class1.wav,-0.35001926619095536,0.02845983605651554,-0.08557644307772722,-0.38807069883216255,-0.06984501895993318,-0.21764172462399242,0.020483965505768507,-0.341608829692266,-0.44629585373798225,-0.22351096612931537,-0.23737766553596745,-0.48329411797473054,-0.1016534415523144
b022_120_150_class7.wav,-0.23930758526557802,-0.13292717895766276,-0.20765602547832462,-0.09966071283660258,-0.17014237556075007,-0.29144078004453194,-0.3248075974106307,-0.34323533754255403,-0.03559845828529812,-0.4126615104285974,-0.44624634942497604,0.001979324389780812,-0.4051121315123307
a128_101_131_class3.wav,-0.3054167371693046,0.10286387157205613,0.14263414276339792,-0.3240290581757199,-0.028522389700286355,-0.0692672767016803,0.032326186268481355,-0.49489336579648363,-0.40539778129913795,-0.15133444966412776,-0.4329009846473158,-0.35884323677321456,-0.12571076075718532
b032_90_120_class6.wav,-0.20922245645247234,-0.28885725418586133,-0.309970322303412,-0.20608486726135514,-0.19830710258978643,-0.12970937416105804,-0.27801907931786085,-0.344683978889354,-0.2518145084176036,-0.2860140751725519,-0.36475894683277715,-0.36153932354963786,-0.27020108277527916
a059_150_180_class4.wav,-0.23269109285760323,-0.32861253229750226,-0.18755063255522175,-0.30123675616151224,-0.09187484807700062,-0.24839453167039588,-0.13293287940485388,-0.45595668820571306,-0.2015254488622309,-0.2659829054113787,-0.34118528582222685,-0.1263428173202258,-0.4153456796545019
b038_150_180_class8.wav,-0.27377365326614306,-0.3710068497853504,-0.20556055268194293,-0.17922385209711905,-0.2796483728954054,-0.29911618001092005,-0.2385203756424939,-0.42780874832162563,-0.24186430769951378,-0.2480815526050216,-0.27552656549306764,-0.24763551357726693,-0.21945054546920936
b079_90_120_class13.wav,-0.4565541874326405,0.05826009621550266,-0.0034940316917123474,-0.2972214130892087,-0.03846263661730628,-0.4613638457538078,-0.17646853001573556,-0.4304321299177735,-0.06665695944342945,-0.3919109215802855,-0.07938402004321977,-0.22531918567322737,-0.23228096471275647
b045_120_150_class2.wav,0.007508188502182338,0.10072700947908733,0.19005129865687925,-0.3972741058679573,0.0815924993949543,0.5940053746664068,0.2403111582388621,-0.21571748239470576,0.027352011319043915,-0.5387831723049318,0.11313344268488597,0.11351491824576958,0.12388715622418485
b108_30_60_class0.wav,-0.44061911635442635,-0.011852635494828028,-0.09781119052108027,-0.21945163755991612,-0.13108956949815195,-0.5535941962613411,-0.20041401356361982,-0.31518871311030405,-0.08232424850213303,-0.33412089975455733,-0.20512288223334654,-0.30384984239524476,-0.17892279609419748
a010_60_90_class11.wav,-0.2620016795651781,-0.36799024237601435,-0.12298401613259197,-0.2502959882585352,-0.1441351813481171,-0.3488983094964408,-0.1433621350733289,-0.5150219480989594,-0.1746245748359609,-0.2793428453400375,-0.31279467283673323,-0.06433969213439672,-0.2816976944744028
a094_150_180_class2.wav,-0.27410696489090947,0.46442738510079784,0.3274141438688183,-0.19009483585155165,-0.03685123937174525,-0.1897165098087741,-0.18360899613772888,-0.3165968651309229,0.16756777626253574,-0.34465272287973536,0.269095303432095,0.15063221395223336,-0.3906065743096385
a034_150_180_class6.wav,-0.2178364709880486,-0.34563926949518614,-0.3287094181854031,-0.11399677110484802,-0.11296856662583878,-0.2335882061615209,-0.15653667209901884,-0.3359229739953123,-0.2408082683575315,-0.26543724114027484,-0.4455140700008977,-0.2639604870138386,-0.3328044834799916
a006_150_180_class7.wav,-0.34560173925284454,-0.18126776253368085,0.0550862568102038,-0.16858323033161604,-0.27775062486700614,-0.30011574715136036,-0.027703207368328518,-0.5594517924764836,-0.17030925945398998,-0.4720864516790234,-0.05970194947864268,-0.18828431437949678,-0.21069366440308485
a068_150_180_class4.wav,-0.2206324408085191,-0.2689628467263016,-0.3273222845821059,-0.24890754087596573,-0.35513296394738286,-0.0668816971894139,-0.04399157809117114,-0.10686952772493859,-0.42292063114172,-0.2875781283379571,-0.4041169334095318,-0.1304563266043426,-0.35219901148583743
b111_163_193_class0.wav,-0.2830606887430589,-0.2669946876338068,-0.16535553570426878,-0.029438921823045472,-0.3784681673405161,-0.18373588239575675,-0.404455681749385,-0.4234561564535462,-0.13464059917325907,-0.3291858729775548,-0.37107785030648865,0.0737827092137052,-0.17564380936755966
a012_0_30_class11.wav,-0.25591106616944537,-0.2098614341064008,-0.22524978988560107,-0.18012098144698613,-0.3709353082911382,-0.23436668509796954,-0.3178041858211827,-0.291302392066499,-0.23141607989757212,-0.37776280534822104,-0.2952167090214867,-0.08981076889367054,-0.37071865353855793
b007_0_30_class11.wav,-0.22653441041759423,-0.23220382673583695,-0.21298678560334874,-0.12344915829834362,-0.34123136019213657,-0.12453554163480564,-0.27758918782376724,-0.33535371190670665,-0.29716846341240577,-0.36609778227992723,-0.39158502545090784,-0.14199120030657156,-0.34184448462070344
a040_90_120_class4.wav,-0.22437010683627326,-0.27963707290778245,-0.0535437163521254,-0.5507951680521641,-0.05433522676815775,-0.10641120756695202,-0.06729230011194041,-0.4775476413744737,-0.162472729593588,-0.12747761450309025,-0.1647986845377068,0.044935812538667644,-0.4965254140203674
b103_0_30_class5.wav,-0.22685472755190325,-0.4049010497379835,-0.2649025663906482,-0.30166036779509997,-0.3501501839882567,-0.21397647576367138,-0.08000372362908789,-0.21335719465804975,-0.3649046259614006,-0.08919146820771173,-0.053640209579035654,-0.36929678666450433,-0.35034106342561727
a151_90_120_class13.wav,-0.3675764700748873,0.006783267966577277,-0.181204760325968,-0.044836806058291115,-0.1778256271298943,-0.2854227189354426,-0.3162987661243208,-0.4533804919464228,-0.15167907970375671,-0.521272134248233,0.09859402141730395,-0.07929097578982611,-0.31712795278603984
b089_210_240_class2.wav,0.015976724039681717,-0.04255113328634496,-0.23233614872432765,-0.2221983678721136,-0.0049409978758408815,-0.4350950874610683,-0.22676304653660992,-0.5297129403435793,-0.16824311659218139,-0.4882569447663574,-0.013281814305062272,-0.31443908154050415,-0.08650771431876238
b035_60_90_class8.wav,-0.178983617056154,-0.15759689650398662,-0.3203448891742311,-0.2527729295760535,-0.17265509187021194,-0.07000095981625623,-0.24811622570299177,-0.4780491076719769,0.07883105847807062,-0.11564174958293642,-0.39784907186222535,-0.5221557361043231,0.03595425438887563
b082_0_30_class13.wav,-0.3306094413365807,-0.24729817975221927,0.06609124285508064,-0.3502209468716876,-0.05384741946581617,0.3103338625847456,-0.03485202225841583,-0.3304067344939071,-0.27019375168166615,-0.6107917324870604,-0.20751772228283108,0.03451056515598887,-0.05101500744879237
a130_120_150_class1.wav,-0.33586895625064317,-0.285734593998769,-0.08039721211529693,-0.10745386348194713,-0.3080776956359953,-0.2845289607605269,-0.20166717488653374,-0.4224016084288469,-0.29026572287790553,-0.3164286248379828,-0.28075274850404225,-0.32062556886151244,-0.16300997374847231
a052_60_90_class1.wav,-0.32715532083255994,-0.02946305201436451,-0.09451521108779964,-0.38143873576607,-0.19024888119961544,-0.22456709931676472,0.056444619247654385,-0.3277735851508374,-0.3606946379734283,-0.2180414555769258,-0.2503669962518776,-0.5085332291087515,-0.20370021393314514
b103_60_90_class5.wav,-0.24875475738566996,-0.3802705557740878,-0.25807282802962417,-0.3159064930436416,-0.33571786638686774,-0.21666032923953096,-0.06408022889296792,-0.212675700907015,-0.36289685715549486,-0.12836819603760952,-0.08721823743627971,-0.39371828020795135,-0.3276245363330417
b037_150_180_class8.wav,-0.28560195950870426,-0.4361175383271716,-0.2419285199465517,-0.2529117493018501,-0.34307938401429583,-0.24612021128502154,-0.08501214273187516,-0.2263993260343534,-0.37768029027528066,-0.10026773420083829,-0.05247181276039275,-0.3132357432880293,-0.33972189835031724
b109_210_240_class0.wav,-0.3071575658934196,0.05572491528335723,0.38048972279646737,0.12921568534770717,-0.47765910056736205,-0.13880169964698033,-0.35712133015096875,-0.2876283375532904,0.04324100218579418,-0.32640639229293095,-0.12935765423787143,0.3794802900044526,-0.11933313636118248
a076_120_150_class13.wav,-0.4691890421055112,-0.004596999938184091,0.17861006606534882,-0.19143062605969854,-0.23078992512906651,-0.2785391513314072,-0.2768415985033895,-0.3904976715291057,0.0510616905217037,-0.5116013847704908,-0.11924598093898327,0.2288789089283246,-0.1427133052970194
a012_90_120_class11.wav,-0.2653562744753073,-0.26013840294403695,-0.21010835423544566,-0.2972533162830968,-0.277928276356719,-0.2588300440907579,-0.2143049739347851,-0.3434043165117065,-0.24885831984568557,-0.3231970686719817,-0.2775557919873032,-0.061355670582389284,-0.4172891022323613
b007_90_120_class11.wav,-0.17948436933419087,-0.2642257192453091,-0.2555266754028932,-0.06724783196448185,-0.26625362472378505,-0.13932576818103126,-0.2786305741628728,-0.32948706932546096,-0.29760142139761636,-0.41557127386699155,-0.3796877910801343,-0.14259489199359326,-0.35481315933817115
b062_90_120_class12.wav,-0.24094889335141134,-0.3265379737253424,-0.2544139047509623,-0.16771521571660492,-0.3061917328787313,-0.19471528838796628,-0.26928649192456855,-0.3687762663910101,-0.2917154658487656,-0.32875945383467564,-0.2789981923193355,-0.16750254432870845,-0.3212559705559904
a105_150_180_class5.wav,-0.2023609773085892,0.004364847702972593,-0.09870964025418928,-0.36516062133565047,-0.1860478225480218,-0.22077804837918422,-0.04737581193855323,-0.2927929483176365,-0.4412178025423035,-0.19030770848292725,-0.33543771964499697,-0.5241674581267071,-0.162653104315931
a157_197_227_class9.wav,-0.22078294562210812,-0.2380605599089638,-0.22623999776763593,-0.24401926136386565,-0.2119783821401156,-0.2864722699454579,-0.2706198251893753,-0.372928923765198,-0.2622229680287936,-0.3820049466001106,-0.31216728858801657,-0.2537152788332935,-0.2608281682574098
a105_30_60_class5.wav,-0.20390299871484255,-0.2741946281353516,-0.2168281740025938,-0.29904245950317315,-0.28930685117571864,-0.311333311762172,-0.10626050234997182,-0.2655297819117271,-0.43681710136525725,-0.1903905517167736,-0.16925534306759754,-0.41838383153459996,-0.2315720944400919
b095_180_210_class3.wav,-0.2546307116772076,-0.2098917179130799,-0.08202084325117016,-0.34926852778974876,-0.23938280686435676,-0.04008540816723843,-0.16611475319967342,-0.42785529279121903,-0.2945448954547897,-0.35906826604823533,-0.4387318634539592,-0.18836227231517283,-0.2217539277151249
a155_30_60_class9.wav,-0.24221477733054553,-0.23050296079968002,-0.2035259689919302,-0.13710243484665002,-0.3509213105016853,-0.26324798437390545,-0.37426239514343923,-0.28088592575781707,-0.24781787156709056,-0.381510131627156,-0.26022939202634937,-0.2057026096536868,-0.31554619276246093
a045_0_30_class0.wav,-0.15782120137461655,-0.20334590785180243,-0.14493974618152025,0.19335023370995758,-0.07314152282301092,-0.0870104955616896,-0.42234598668546175,-0.626407339642613,-0.18226335533967847,-0.49432318287942584,0.011094077002237104,-0.1180472907432539,0.005889796554226557
b006_30_60_class11.wav,-0.23691350134234826,-0.26488660716372703,-0.20833930154447636,-0.23317159668176668,-0.3212924036414916,-0.18119876964871906,-0.28064159077892437,-0.3667864075841016,-0.2660582088584985,-0.3425443429451162,-0.3039029576764575,-0.14288400690903405,-0.3545174207806263
b047_120_150_class8.wav,-0.21838181505482912,-0.22541432681466023,-0.28743997700967827,-0.23528867056216393,-0.21484015658466818,-0.16367029175440254,-0.2872758864201549,-0.4700182076283806,-0.055504145551221996,-0.220301487756121,-0.4000975487493521,-0.4057414402786285,-0.1039655567065
b113_0_30_class10.wav,-0.22829566319607697,-0.3064184639509057,-0.1534566458903864,-0.2377886238589317,-0.08933795864732863,-0.40739526640532353,-0.14600612149351597,-0.4770438384953375,-0.14429946973512447,-0.30128639196797447,-0.3366880336185964,-0.27149462099463123,-0.2288922668955948
b042_210_240_class8.wav,-0.12125997960772861,-0.2802537984483001,-0.38234440725068913,-0.127230528661538,-0.15126246144731056,-0.05822498934394054,-0.23735649687211327,-0.56188941918352,-0.04988119174355286,-0.23455919488320978,-0.2735782030042837,-0.4359394341533032,-0.15380602196757295
a126_30_60_class1.wav,-0.2710276652879441,-0.070252176465859,-0.0926883014403116,-0.37965037287171877,-0.19158674347216625,-0.22245519852845758,0.008385345850268738,-0.3322640259281316,-0.43338167562618074,-0.2400734165684636,-0.3041974711110942,-0.4390627134695727,-0.20360384825976757
b079_30_60_class13.wav,-0.4288885373885439,-0.1206078383768862,-0.10436277483922939,-0.08761586772989492,-0.21382288723366105,-0.4098130053521879,-0.3060531695675342,-0.4293145737359679,-0.16529106323618728,-0.3740504559118166,-0.28274446477750687,-0.17423080941273097,-0.11729485930287768
b038_60_90_class8.wav,-0.2901080776073531,-0.3083519022494298,-0.16471459021876086,-0.1828236586572959,-0.20902868998471635,-0.3769219524958106,-0.23090574757272578,-0.45292707582423797,-0.17202880670337684,-0.3075210584781959,-0.31203293046052666,-0.22855681141101383,-0.20545459845441233
a110_30_60_class5.wav,-0.2813475126417025,-0.28829701330627233,-0.17160233444786258,-0.3174825712781826,-0.30370470140191047,-0.2701836203909338,0.01648032291018872,-0.20818995604126,-0.43714996419498026,-0.08905208004471456,-0.12815677718724028,-0.4595161361801889,-0.26837635639123153
b078_120_150_class13.wav,-0.297235345068585,-0.08900181623967054,-0.18468454845941293,-0.17169869586527414,-0.17425362836449243,-0.32126901361764404,-0.2955304031663324,-0.4984655545170513,-0.1827691410746971,-0.5061008483572844,-0.04584022665022051,-0.21407105137326393,-0.18244560380911165
a157_90_120_class9.wav,-0.23403443666149087,-0.22823743697877943,-0.1921966181699947,-0.19445461022788388,-0.2739368605295568,-0.2919612247032328,-0.2841303499315568,-0.40161138231383275,-0.21130730401025957,-0.3969494958094868,-0.28466365160822255,-0.18137450199737815,-0.31611567096011406
b100_90_120_class3.wav,-0.202144478530252,-0.24389851363002432,-0.24126992268049646,-0.2501656758795673,-0.2816346032227622,-0.050840468324095014,-0.28364589576563026,-0.39270495078909246,-0.35087406730035103,-0.39795781203114056,-0.21537230351307105,-0.17812510064761505,-0.32044546571562577
b089_150_180_class2.wav,0.13185892440741234,0.30363384558107764,-0.24567842165567555,-0.19560716394792352,0.1606379902399477,-0.2922363543249582,-0.3311789948774728,-0.5130996916164222,0.2401822968276957,-0.3599815467270267,0.18720487939298008,-0.140211785661858,-0.2562477904957684
a017_90_120_class14.wav,-0.27248355118573875,-0.24413892645699128,-0.1579617270216272,-0.22912423953050043,-0.3145233776391655,-0.20859834657268178,-0.2887352718785812,-0.40144760124053497,-0.21021985670503074,-0.3451920770667857,-0.33180781648522567,-0.07177639932626574,-0.35090508507410645
a036_30_60_class6.wav,-0.21487996909342563,-0.2696115719793094,-0.3324786476864551,-0.24285332301914153,-0.19584498524751928,-0.15611206920943677,-0.24898975079245594,-0.3934529868294589,-0.1968455071022808,-0.2687679496729597,-0.33019927437033003,-0.40658461357810705,-0.2162453536918752
b003_180_210_class11.wav,-0.14767781020394347,-0.22921789622696098,-0.07241151071307132,-0.0007699437158829612,-0.4125543536322323,-0.04935416919550175,-0.32590360386635875,-0.38851464355325727,-0.2958186835109349,-0.3292397594924492,-0.4350827009231831,0.021249979608809706,-0.32397014325169193
a105_90_120_class5.wav,-0.1442193873746081,-0.19722175937789022,-0.2556710472809874,-0.29540752362456746,-0.20426601531929095,-0.2444536829184464,-0.23130302195183586,-0.3645215518327144,-0.34779871276329416,-0.2939894821140735,-0.22624439970684546,-0.4052918800185824,-0.2774346807427251
b047_60_90_class8.wav,-0.21290751210293357,-0.2219746721074366,-0.30008792080887614,-0.24299000353185787,-0.2242554452883052,-0.1406987472818988,-0.29931939566488797,-0.4599897826733433,-0.07687611242443271,-0.225655411124076,-0.38421575703548316,-0.4086025462533196,-0.11671889820332526
b044_60_90_class6.wav,-0.19659158605434754,-0.3359682036685085,-0.32981184917615364,-0.2911120389022468,-0.22644400278131616,-0.14575385182049536,-0.22180659966427388,-0.37155972199197534,-0.31114904279706496,-0.2497959673727193,-0.22230870276097858,-0.3266947241913988,-0.28251870504639465
a149_240_270_class13.wav,-0.3088616021502566,-0.15098090035404868,-0.13746901333674516,-0.07489961735818627,-0.23519884759455909,-0.4323146742806794,-0.22638541219042627,-0.33460331287760386,-0.22362526004097746,-0.5320685389864955,-0.015567600701894162,-0.3037495319943935,-0.16206811315528952
b094_120_150_class3.wav,-0.2527806312979902,-0.05084491452789679,-0.04765494724346386,-0.3018891413169153,-0.09901089637352413,0.06690282038238382,-0.11644397488923507,-0.5582774563557162,-0.3111323711739272,-0.3323290272045793,-0.39667780614371756,-0.3039454088723906,-0.2088411088601312
b003_0_30_class11.wav,-0.19344930000512287,-0.1577940629531955,-0.2639076520324878,-0.11509557322671805,-0.3731958412049571,-0.11721095886797858,-0.36623560453531395,-0.3708930004546157,-0.21642529874650074,-0.42689968595173516,-0.3011033078204584,-0.07961272578808347,-0.322483862803288
b019_150_180_class7.wav,-0.2911407743443669,-0.32635553589778704,-0.09307041063974995,-0.23819706325885368,-0.29200920444969486,-0.09546363439469911,-0.2542550969750716,-0.4824351451379565,-0.2038132902185517,-0.24709709444359299,-0.38113894670589166,0.08255764689151657,-0.31125178511206264
b073_60_90_class9.wav,-0.21869846556568667,-0.3022870394183417,-0.010972335003740504,-0.32935793064303726,0.07018987868687865,0.16984343096383014,-0.034377558208794276,-0.5808127128012155,-0.21139104118674945,-0.4281534455050061,-0.3896333460202096,0.0043634309735062745,-0.007945144546729057
b111_103_133_class0.wav,-0.30875474665956426,-0.07599922581778104,-0.18199489896888393,-0.20485098481791758,-0.16417840983171583,-0.43260387765007946,-0.3106792640821766,-0.4517135900200069,-0.17256674492866608,-0.40195492202920347,-0.1601565843805455,-0.25039394383261354,-0.17160075081213644
a099_240_270_class10.wav,-0.19600909892773014,-0.33696180295041916,-0.1634987014352951,-0.2326167608993734,-0.160739595959429,-0.2820458048840694,-0.2678195868809308,-0.3477220259454311,-0.3128469644508541,-0.3152481173437163,-0.2872164545628448,-0.31468399568347,-0.3006590991391932
a082_60_90_class1.wav,-0.25215679534674856,-0.007676164458672919,-0.06374624098793143,-0.38323338715979477,-0.19900066218536555,-0.14576434834962396,-0.038392214144655865,-0.31802641011778615,-0.3928740637384579,-0.21437019269965976,-0.42049296635493005,-0.47197038550951764,-0.14862152373674145
b053_0_30_class10.wav,-0.17590915404274143,-0.3165167410121699,-0.29904478165880105,-0.17533622177115382,-0.1592860542461987,-0.1503665634128576,-0.20442963066618383,-0.3900882865795889,-0.3192902551985342,-0.3424008250171399,-0.339331421076848,-0.22755609528573964,-0.3473440261771349
a012_120_150_class11.wav,-0.26985193131647944,-0.22857014582793836,-0.19356120650156478,-0.2518770538156101,-0.2973730704640484,-0.24523313676707023,-0.2894929505276186,-0.35295067831258947,-0.20023560324445963,-0.33924798381082993,-0.29654081354978834,-0.10296041000739593,-0.4041737956763216
b007_30_60_class11.wav,-0.3305321997237777,-0.14962950262333327,-0.15734861155411742,-0.14716624887669405,-0.2020479625813753,-0.3512815949483502,-0.2694250545263151,-0.374925406579182,-0.22380535401017684,-0.36794144664893896,-0.3915013444268606,-0.21945570405635303,-0.2401209580806118
a148_270_300_class13.wav,-0.34188530850440585,-0.28331536536421076,-0.059050240171768686,-0.2474854398764241,-0.18652178309153625,0.038372285053413786,-0.1337413522358856,-0.47152176148954156,-0.33843750452593124,-0.5064088522263198,-0.2485665712767009,-0.12712020737683355,-0.11266667437875186
b050_150_180_class1.wav,-0.1989939799407831,-0.13021746955666158,-0.32981793201578957,-0.29462383318994717,-0.1679592367889221,-0.3562059779885972,-0.34465811871214325,-0.2897064041880217,-0.17748871740460168,-0.28750537614542276,-0.2892950034672888,-0.3247054175105273,-0.29455545911988085
b062_30_60_class12.wav,-0.27886938619394513,-0.14396469939239623,-0.17551972350609538,-0.25515721799092533,-0.16354315912639775,-0.3646762405877875,-0.2506169519536813,-0.32876437621371596,-0.2827247390761631,-0.38195323295702044,-0.21111627394348775,-0.38709693257034805,-0.23394013751161657
a148_120_150_class13.wav,-0.28861944353231517,-0.25236829080152406,-0.10516006808640938,-0.13724052254099636,-0.25806822974514293,-0.20536667637665684,-0.2778664629100147,-0.5355132109479478,-0.25316239100621457,-0.4460328309089467,-0.2268889829745526,-0.14707130873049212,-0.11921218675328903
b032_180_210_class6.wav,-0.22602826724480665,-0.3062598767668371,-0.33082153771160266,-0.17099207978113667,-0.1760293021420988,-0.13290203545326476,-0.2788446694584185,-0.31584154609549275,-0.22915161216811591,-0.24729878147832063,-0.39668895925963327,-0.3855468717910768,-0.2657061563747031
b092_0_30_class3.wav,-0.25250174604884856,-0.15243458413895725,-0.058916040669176134,-0.3296881546926362,-0.20706751260381823,-0.031953251896577425,-0.14423365596704843,-0.4831314796788321,-0.34446772559155825,-0.3219936253332927,-0.39829104977222946,-0.2500423635404931,-0.2433700777249385
a126_210_240_class1.wav,-0.24518780382013824,-0.1039752750073169,-0.13803245376483786,-0.3616050508449137,-0.23485090413616683,-0.2270877317307522,-0.03070706408387302,-0.2733846847829153,-0.46003948494924013,-0.22205533586443146,-0.27390241718464725,-0.45790928212535803,-0.226288913840331
a074_180_210_class12.wav,-0.16225257915010063,0.06501201524602807,0.19340818315308173,-0.11128399241171848,0.1513228877254101,0.2292017141601921,0.0336909906613175,-0.65730332334653,-0.2099113298930948,-0.07976645637466485,-0.5876331323778726,0.10165851463659027,-0.07049323691712983
a031_0_30_class6.wav,-0.21572534530558596,-0.30683614859748465,-0.24863128953178107,-0.239897915568616,-0.2027933785552506,-0.24880597908180627,-0.26229675890916293,-0.3210177255154803,-0.2957258113732507,-0.32021949733706984,-0.28799439172113844,-0.36110173327404876,-0.24846442886785144
a058_30_60_class4.wav,-0.2336044488162159,-0.35916987357283287,-0.22838766811653183,-0.19619249621982834,-0.04904129589128567,-0.2878361027436901,-0.09897662403907066,-0.44457997532936844,-0.19004219983127896,-0.2544050141687738,-0.408345385870716,-0.1984348097906749,-0.3551209184564827
b050_180_210_class1.wav,-0.22313470144801337,-0.12342008068801649,-0.30252047052924785,-0.30980343103603547,-0.21017899550095911,-0.30581702974022706,-0.3102319391141144,-0.33053689232468736,-0.22386481751019052,-0.26878332873186206,-0.3083183800296939,-0.32844083496302867,-0.2810521104710697
b055_30_60_class2.wav,-0.06284436853553996,0.030129245627415754,-0.46670319295418583,0.2740468347967622,-0.2562575445995872,-0.05567080489068632,-0.2591747332318488,-0.5181899937450143,-0.2739263716519924,-0.399153783574264,0.1772705379583206,0.10853728363244136,-0.14214468223072874
a074_90_120_class12.wav,-0.11114484528032359,0.04870024715323668,0.22229976971036686,-0.20728247095078978,0.16689530623970653,0.2226926922727327,0.0564527517862303,-0.6194213073376375,-0.153190714622876,0.00939874444348047,-0.6335311524091237,0.04019337495135747,-0.045201674823576336
b054_30_60_class10.wav,-0.24505546965923092,-0.24927382964986083,-0.2754492254039156,-0.15206330053579872,-0.2650859381765877,-0.24722060011346694,-0.29367972124335356,-0.33814767896533615,-0.1942336373942517,-0.32988410181552674,-0.37166349722728625,-0.2710192328448753,-0.2978241662938145
b009_30_60_class11.wav,-0.169821164104233,-0.20846654956549093,-0.2727941847797177,-0.2054078352663771,-0.33393105729308814,-0.11167342822409236,-0.29667513199796464,-0.3825119908511986,-0.22510031405431288,-0.4159578083858922,-0.3370008072411751,-0.049629668635382394,-0.3362398896239517
b086_120_150_class5.wav,-0.39432494994130945,-0.3911729404389583,-0.2307244192852184,-0.4730125786649401,0.03882683765842573,-0.08779117952179029,0.030090370098117356,-0.46498392093524676,-0.10099408158270727,-0.24427658905347763,-0.22219687826323173,-0.15516308512541488,-0.21182238667602848
a101_90_120_class2.wav,-0.23914514985556726,-0.450268994794177,-0.19313817601519662,0.4642953525059207,-0.34489724859782767,-0.17497646528968447,-0.06765697785566897,0.11734404643726724,-0.20511283299634556,-0.23710230435605084,0.267150323919148,0.33328727503910033,-0.19631213051728855
a140_120_150_class0.wav,-0.3715354305530838,-0.08586507377108228,-0.06004314713662145,-0.11190630318612035,-0.19145685971181775,-0.47319667489235295,-0.18763626103554107,-0.393107752001525,-0.21255938648261144,-0.38827749885772866,-0.2804678701703579,-0.2745558791625274,-0.19535724572819063
a074_240_270_class12.wav,-0.17011038295903214,0.17530924069709614,0.25760965989268053,-0.181598908283928,0.17105303684435222,0.2364729948244961,0.047572047387824626,-0.6150455128727553,-0.2738284322416252,-0.0687390787774156,-0.5431716325049518,0.015236227797210452,-0.017055492740566423
b097_150_180_class2.wav,-0.395183379312408,-0.13390041815225673,0.17003867994266386,-0.33607283710509483,-0.1378385414833324,0.14560705142616673,0.04602446511612897,-0.3341114756742685,-0.35752675383904964,-0.6232088184949912,0.00421380129932367,-0.11773094911920846,-0.00034647527485057443
a022_90_120_class14.wav,-0.23720539739034185,-0.2853573147502598,-0.11437546095537983,-0.2307619264148772,-0.09154271020577408,-0.4649203294698466,-0.12124762199830008,-0.490415602624671,-0.08890530730612316,-0.3512922639379369,-0.3125244154693161,-0.1702339984232754,-0.24139392510659585
a076_210_240_class13.wav,-0.23180464870009485,-0.2522052963168838,-0.12911232784809357,-0.2432588284570962,-0.1687033292561092,-0.3869179023059197,-0.16264946519728693,-0.4662481677337379,-0.17653994120652505,-0.38711983129119154,-0.3009838810628266,-0.26549620601229484,-0.20663522683327162
b100_0_30_class3.wav,-0.20331926032437878,-0.19183815733458426,-0.22288089261728333,-0.216773254744206,-0.33515173969939693,-0.04883786851542367,-0.26121484501127884,-0.37709027933786204,-0.31369162516050925,-0.4693621455985108,-0.2265702165438115,-0.14579007027321894,-0.3297858341767447
a152_90_120_class13.wav,-0.3288491113114575,-0.2469284521101081,-0.09162904663269972,-0.35337491321480335,-0.11860629124423375,0.07671822849272164,-0.13068609110327664,-0.47109076414114115,-0.3331495273513733,-0.5316964540211649,-0.15243570270117515,-0.12287377878174073,-0.0814374171732031
b049_0_30_class8.wav,-0.2285111669700366,-0.30345677386306147,-0.2456033972897168,-0.2709486145236916,-0.22417002329408786,-0.31872263786280414,-0.2044242158924649,-0.3026635340977503,-0.32817187628081457,-0.23611631874196065,-0.13664483134390162,-0.4494262002268625,-0.22940846237025922
b098_60_90_class3.wav,-0.0549328444181054,-0.21093612770356257,0.012765216872596592,-0.016227316608665342,-0.43907887523348393,-0.013094437700774517,-0.265364138111431,-0.3021562380562423,-0.3818340618480375,-0.297446936000772,-0.4458589037781715,-0.056641164064032266,-0.4013894630307287
a110_240_270_class5.wav,-0.2240141304306221,-0.3640340980798785,-0.26679480747198825,-0.2780384067471892,-0.3276738614734801,-0.28538194755316754,-0.09536861704203446,-0.25807650047948827,-0.4067246035830874,-0.14166414158915802,-0.08047838961801,-0.341206853107237,-0.3096898952319186
b089_120_150_class2.wav,0.04788009481803263,0.22586469852535462,-0.26365094577608145,-0.19406298697342697,0.10044670472835959,-0.30365516377365537,-0.3513440129879104,-0.5176586761299481,0.1777004764374857,-0.42314423023579695,0.15311609493789446,-0.1625698864289221,-0.29207746495723963
a089_90_120_class9.wav,-0.26749358088359637,-0.06524128294875331,-0.00010085763903338938,-0.4760358421015904,0.10274818757443374,-0.015404535136144683,0.08365070298119584,-0.37235044082701174,-0.39969424606781473,-0.34903236944848504,-0.20834049777281188,-0.44284160151094654,0.14159912816886372
b053_60_90_class10.wav,-0.18586057708547235,-0.30155447137045654,-0.2785973290189237,-0.1548111894334407,-0.18999845792817774,-0.15747124133981066,-0.22445835014555332,-0.3632805075998427,-0.3232486448035461,-0.35548735697600853,-0.355675320231451,-0.21406765913776796,-0.3556628222176575
a079_180_210_class13.wav,-0.29623376013604413,-0.2080043172951531,-0.10472277450987982,-0.40711054968331944,0.35660000722151547,-0.10283434590049165,0.0819939733752119,-0.6198329430857125,-0.006599799975171611,-0.20897458007268233,-0.30963943054867515,-0.11275090261873778,-0.10637796697768002
a153_120_150_class13.wav,-0.33529953195348794,-0.21075356397731143,-0.14974730962511898,-0.26150861059192687,-0.13377773402534515,0.04099552425174051,-0.12407492435115161,-0.5421117043070456,-0.3266783473773075,-0.5393207745478285,-0.07331668140736157,-0.0744259153359439,-0.12243020015366808
b103_90_120_class5.wav,-0.2432277928099233,-0.426851596277632,-0.25749954133000547,-0.270616671019607,-0.36062705120938754,-0.2431143230155091,-0.055966389078292204,-0.16267492596089278,-0.3852438877353063,-0.05158493440249757,-0.02584148950257636,-0.37265967720665855,-0.3312549934549436
a149_90_120_class13.wav,-0.2549748950533111,-0.24505470201804078,-0.07104566159458733,-0.20367507914150024,-0.1878583405264165,-0.41810482514611,-0.15628257529107206,-0.4677435557844129,-0.18712841565222602,-0.38472252039221183,-0.27470051904089093,-0.2727396429182759,-0.20547151666707336
a096_240_270_class4.wav,-0.27043217270900566,-0.2394687312321577,-0.15708317837989663,-0.3269625399017904,-0.23580461194088628,-0.246428441898355,-0.23148732816936413,-0.41563939071641354,-0.19453681806317857,-0.30666968015327173,-0.271702337687298,-0.09615281187571836,-0.4246290984447906
